<?xml version="1.0"?>
<opencv_storage>
<cascade>
  <stageType>BOOST</stageType>
  <featureType>LBP</featureType>
  <height>24</height>
  <width>24</width>
  <stageParams>
    <boostType>GAB</boostType>
    <minHitRate>9.9500000476837158e-01</minHitRate>
    <maxFalseAlarm>5.0000000000000000e-01</maxFalseAlarm>
    <weightTrimRate>9.4999999999999996e-01</weightTrimRate>
    <maxDepth>1</maxDepth>
    <maxWeakCount>100</maxWeakCount></stageParams>
  <featureParams>
    <maxCatCount>256</maxCatCount>
    <featSize>1</featSize></featureParams>
  <stageNum>9</stageNum>
  <stages>
    <!-- stage 0 -->
    <_>
      <maxWeakCount>4</maxWeakCount>
      <stageThreshold>-2.7678258419036865e+00</stageThreshold>
      <weakClassifiers>
        <_>
          <internalNodes>
            0 -1 30 -1 -1 -3145731 -2098177 -536870913 -1075844177
            -33554433 -1</internalNodes>
          <leafValues>
            -9.9014908075332642e-01 -4.1666667908430099e-02</leafValues></_>
        <_>
          <internalNodes>
            0 -1 31 -161 -524329 -538968065 -135006337 -541073714
            -8729697 -964703489 -67108865</internalNodes>
          <leafValues>
            -9.6714740991592407e-01 9.9204899743199348e-03</leafValues></_>
        <_>
          <internalNodes>
            0 -1 5 -273678337 -1065272 -2057 -1573294 -1882193925
            -1053766 -536872961 -536873481</internalNodes>
          <leafValues>
            -8.9412790536880493e-01 4.4693645834922791e-01</leafValues></_>
        <_>
          <internalNodes>
            0 -1 4 -1052677 -2107530 -824250757 -1124139009 -2130315
            -36929 -301990913 -65537</internalNodes>
          <leafValues>
            -8.6488389968872070e-01 5.3679811954498291e-01</leafValues></_></weakClassifiers></_>
    <!-- stage 1 -->
    <_>
      <maxWeakCount>4</maxWeakCount>
      <stageThreshold>-2.3692383766174316e+00</stageThreshold>
      <weakClassifiers>
        <_>
          <internalNodes>
            0 -1 3 -1 -2049 -536870913 -524289 -67383553 -4199505
            -67108865 -1</internalNodes>
          <leafValues>
            -9.8766493797302246e-01 3.1707316637039185e-01</leafValues></_>
        <_>
          <internalNodes>
            0 -1 29 -1 -7610370 -2097155 -1 -4097 -1080307729
            -1073750017 -1025</internalNodes>
          <leafValues>
            -9.4466811418533325e-01 2.9866275191307068e-01</leafValues></_>
        <_>
          <internalNodes>
            0 -1 26 -536870945 1063234330 -15 2146959343 -20971781
            -536870913 -1308826115 -5</internalNodes>
          <leafValues>
            -8.7241929769515991e-01 3.3808031678199768e-01</leafValues></_>
        <_>
          <internalNodes>
            0 -1 28 -809500741 -273860710 -44 -1107298305 -1 536600571
            -536881666 -536870917</internalNodes>
          <leafValues>
            -7.7498555183410645e-01 5.8089500665664673e-01</leafValues></_></weakClassifiers></_>
    <!-- stage 2 -->
    <_>
      <maxWeakCount>4</maxWeakCount>
      <stageThreshold>-2.5695893764495850e+00</stageThreshold>
      <weakClassifiers>
        <_>
          <internalNodes>
            0 -1 16 -2097153 -1 -1 -1 -1 -1025 -1 -1025</internalNodes>
          <leafValues>
            -9.8648202419281006e-01 2.4137930572032928e-01</leafValues></_>
        <_>
          <internalNodes>
            0 -1 0 -269484033 -1 -1 -1 -1 -1 -2049 -2049</internalNodes>
          <leafValues>
            -9.4397342205047607e-01 8.7504729628562927e-02</leafValues></_>
        <_>
          <internalNodes>
            0 -1 1 -285214721 -286327057 -19 -824254465 -1157 -2097
            -142641569 -532485</internalNodes>
          <leafValues>
            -8.7141579389572144e-01 2.7282559871673584e-01</leafValues></_>
        <_>
          <internalNodes>
            0 -1 33 2147483469 -143655041 -268435457 -93126657 -678 -25
            -134217761 -218103813</internalNodes>
          <leafValues>
            -7.9919630289077759e-01 5.3567808866500854e-01</leafValues></_></weakClassifiers></_>
    <!-- stage 3 -->
    <_>
      <maxWeakCount>4</maxWeakCount>
      <stageThreshold>-2.4214918613433838e+00</stageThreshold>
      <weakClassifiers>
        <_>
          <internalNodes>
            0 -1 21 -2097153 -8193 -2097153 -1 -1 -1 -1 -1025</internalNodes>
          <leafValues>
            -9.8687261343002319e-01 1.3513512909412384e-01</leafValues></_>
        <_>
          <internalNodes>
            0 -1 7 -1 -4194305 -1092943873 2147450879 -8966 -38401
            -73761 -1</internalNodes>
          <leafValues>
            -9.5199131965637207e-01 -2.2674916312098503e-02</leafValues></_>
        <_>
          <internalNodes>
            0 -1 27 -8388641 -8388737 -67109121 2071985151 -306
            -16843777 -83887362 -67108865</internalNodes>
          <leafValues>
            -8.4485435485839844e-01 4.6852630376815796e-01</leafValues></_>
        <_>
          <internalNodes>
            0 -1 10 939524046 -2050 1476390655 -8388611 -69206017 -13
            -1589313 2105278334</internalNodes>
          <leafValues>
            -9.5115429162979126e-01 3.6619326472282410e-01</leafValues></_></weakClassifiers></_>
    <!-- stage 4 -->
    <_>
      <maxWeakCount>4</maxWeakCount>
      <stageThreshold>-2.6473956108093262e+00</stageThreshold>
      <weakClassifiers>
        <_>
          <internalNodes>
            0 -1 8 -2049 -1 -1 -1 -262145 -16401 -1 -1052689</internalNodes>
          <leafValues>
            -9.8737627267837524e-01 -2.7536231279373169e-01</leafValues></_>
        <_>
          <internalNodes>
            0 -1 9 -1310725 -2573 -513 -13 -268435457 -1025 -268435713
            -2049</internalNodes>
          <leafValues>
            -9.4152802228927612e-01 -3.3152777701616287e-02</leafValues></_>
        <_>
          <internalNodes>
            0 -1 20 -21459713 -1073913922 -134283265 -33915073 -33620741
            -536871426 -1377601 -1145069665</internalNodes>
          <leafValues>
            -8.5193467140197754e-01 2.2881050407886505e-01</leafValues></_>
        <_>
          <internalNodes>
            0 -1 32 -16941132 1006108663 -268501028 -3 1073721079
            -1343225857 -1107331083 -1610613249</internalNodes>
          <leafValues>
            -9.4730180501937866e-01 3.4945982694625854e-01</leafValues></_></weakClassifiers></_>
    <!-- stage 5 -->
    <_>
      <maxWeakCount>4</maxWeakCount>
      <stageThreshold>-2.6697802543640137e+00</stageThreshold>
      <weakClassifiers>
        <_>
          <internalNodes>
            0 -1 34 -1 -1 -1048593 -2049 -1 -134219777 -1 -1</internalNodes>
          <leafValues>
            -9.8802554607391357e-01 -3.1818181276321411e-01</leafValues></_>
        <_>
          <internalNodes>
            0 -1 13 -1 -67895297 -134752785 -69468161 -8273 -810815489
            -16785441 -1</internalNodes>
          <leafValues>
            -9.3419152498245239e-01 2.0301151275634766e-01</leafValues></_>
        <_>
          <internalNodes>
            0 -1 36 -262165 2146951164 1062729574 1317008894 -4726942
            -536905985 -684523545 -134220289</internalNodes>
          <leafValues>
            -8.9475423097610474e-01 1.1783967167139053e-01</leafValues></_>
        <_>
          <internalNodes>
            0 -1 6 -1241978114 -1 -285278465 2138652671 -537076502
            -2195586 -1 -25198761</internalNodes>
          <leafValues>
            -8.6540299654006958e-01 3.8121655583381653e-01</leafValues></_></weakClassifiers></_>
    <!-- stage 6 -->
    <_>
      <maxWeakCount>5</maxWeakCount>
      <stageThreshold>-3.3137929439544678e+00</stageThreshold>
      <weakClassifiers>
        <_>
          <internalNodes>
            0 -1 23 -1 -1 -1 -1 -4194305 -2097153 -1 -2097153</internalNodes>
          <leafValues>
            -9.8685169219970703e-01 -3.1147539615631104e-01</leafValues></_>
        <_>
          <internalNodes>
            0 -1 11 -1 -73925057 -7602693 -538181633 -201598725
            -603979777 -8769 -2097153</internalNodes>
          <leafValues>
            -9.3514907360076904e-01 -1.6888398677110672e-02</leafValues></_>
        <_>
          <internalNodes>
            0 -1 18 -1098949 -8405249 1040154623 -101187585 -8193
            -537133058 -33 -35323905</internalNodes>
          <leafValues>
            -8.5082042217254639e-01 2.4082793295383453e-01</leafValues></_>
        <_>
          <internalNodes>
            0 -1 35 -4229 -269488641 -1073811605 -486543361 -134742202
            2004876541 -8454145 -419430401</internalNodes>
          <leafValues>
            -7.8361427783966064e-01 4.9610689282417297e-01</leafValues></_>
        <_>
          <internalNodes>
            0 -1 2 -1048602 -1092091922 -1085800630 -134217756
            -352329761 -218103937 1601699679 -524425</internalNodes>
          <leafValues>
            -8.4900581836700439e-01 4.7075536847114563e-01</leafValues></_></weakClassifiers></_>
    <!-- stage 7 -->
    <_>
      <maxWeakCount>5</maxWeakCount>
      <stageThreshold>-3.2080469131469727e+00</stageThreshold>
      <weakClassifiers>
        <_>
          <internalNodes>
            0 -1 17 -1025 -1537 -1 -8193 -67109889 -18689 -2097153
            -2097153</internalNodes>
          <leafValues>
            -9.8739802837371826e-01 1.6279070079326630e-01</leafValues></_>
        <_>
          <internalNodes>
            0 -1 19 -9733 -570698247 2111470591 -673753345 -809567494
            -5276674 -537395201 -5633</internalNodes>
          <leafValues>
            -9.4942569732666016e-01 -5.9743598103523254e-04</leafValues></_>
        <_>
          <internalNodes>
            0 -1 22 -545371910 -1089 -40894465 -8947717 -671092803
            -411044885 -672006146 -87049218</internalNodes>
          <leafValues>
            -8.7607711553573608e-01 2.2134786844253540e-01</leafValues></_>
        <_>
          <internalNodes>
            0 -1 12 -1048598 1861146442 -140773518 -23069317 -335806521
            1140304803 -717260813 -541065217</internalNodes>
          <leafValues>
            -8.2320535182952881e-01 4.7272631525993347e-01</leafValues></_>
        <_>
          <internalNodes>
            0 -1 24 1872756304 2145383902 -1218446593 -2294305 -99814
            1501518829 1005514488 -646120705</internalNodes>
          <leafValues>
            -9.2472851276397705e-01 4.2805927991867065e-01</leafValues></_></weakClassifiers></_>
    <!-- stage 8 -->
    <_>
      <maxWeakCount>4</maxWeakCount>
      <stageThreshold>-2.8867201805114746e+00</stageThreshold>
      <weakClassifiers>
        <_>
          <internalNodes>
            0 -1 37 -1 -1 -33686049 -513 -2359297 -2098469 -270532609 -1</internalNodes>
          <leafValues>
            -9.8737961053848267e-01 -2.3076923191547394e-01</leafValues></_>
        <_>
          <internalNodes>
            0 -1 14 -538976257 -53249 536813535 -524289 -873529345
            -66630 -1 -262214</internalNodes>
          <leafValues>
            -9.3869578838348389e-01 -3.6943594459444284e-03</leafValues></_>
        <_>
          <internalNodes>
            0 -1 15 -1312021 -84148902 -3609 -16841 -1342185537
            -1145044993 -26721 -547356833</internalNodes>
          <leafValues>
            -8.0982977151870728e-01 2.7276772260665894e-01</leafValues></_>
        <_>
          <internalNodes>
            0 -1 25 -1342316550 2133508026 -270533203 -1073741825
            -268959749 -1614807173 1610585087 1568571382</internalNodes>
          <leafValues>
            -9.0742528438568115e-01 3.1737139821052551e-01</leafValues></_></weakClassifiers></_></stages>
  <features>
    <_>
      <rect>
        0 0 4 3</rect></_>
    <_>
      <rect>
        0 5 2 5</rect></_>
    <_>
      <rect>
        0 5 4 4</rect></_>
    <_>
      <rect>
        0 11 5 4</rect></_>
    <_>
      <rect>
        0 14 3 3</rect></_>
    <_>
      <rect>
        1 4 4 3</rect></_>
    <_>
      <rect>
        1 12 5 4</rect></_>
    <_>
      <rect>
        2 12 3 4</rect></_>
    <_>
      <rect>
        2 20 5 1</rect></_>
    <_>
      <rect>
        3 1 3 4</rect></_>
    <_>
      <rect>
        3 1 6 7</rect></_>
    <_>
      <rect>
        3 4 1 5</rect></_>
    <_>
      <rect>
        3 9 1 1</rect></_>
    <_>
      <rect>
        4 9 1 3</rect></_>
    <_>
      <rect>
        5 3 5 1</rect></_>
    <_>
      <rect>
        5 8 1 3</rect></_>
    <_>
      <rect>
        5 15 4 3</rect></_>
    <_>
      <rect>
        5 18 4 2</rect></_>
    <_>
      <rect>
        6 0 5 2</rect></_>
    <_>
      <rect>
        6 4 4 1</rect></_>
    <_>
      <rect>
        7 3 2 1</rect></_>
    <_>
      <rect>
        7 15 3 3</rect></_>
    <_>
      <rect>
        7 17 2 1</rect></_>
    <_>
      <rect>
        7 18 3 2</rect></_>
    <_>
      <rect>
        10 4 3 1</rect></_>
    <_>
      <rect>
        11 12 4 4</rect></_>
    <_>
      <rect>
        11 15 3 2</rect></_>
    <_>
      <rect>
        12 3 4 3</rect></_>
    <_>
      <rect>
        12 11 4 4</rect></_>
    <_>
      <rect>
        12 12 3 4</rect></_>
    <_>
      <rect>
        12 15 4 3</rect></_>
    <_>
      <rect>
        14 3 3 3</rect></_>
    <_>
      <rect>
        14 15 3 3</rect></_>
    <_>
      <rect>
        15 1 3 3</rect></_>
    <_>
      <rect>
        15 7 3 4</rect></_>
    <_>
      <rect>
        15 8 2 3</rect></_>
    <_>
      <rect>
        18 6 2 4</rect></_>
    <_>
      <rect>
        18 11 1 3</rect></_></features></cascade>
</opencv_storage>
