<?xml version="1.0"?>
<opencv_storage>
<stage2>
  <maxWeakCount>4</maxWeakCount>
  <stageThreshold>-2.5695893764495850e+00</stageThreshold>
  <weakClassifiers>
    <_>
      <internalNodes>
        0 -1 3711 -2097153 -1 -1 -1 -1 -1025 -1 -1025</internalNodes>
      <leafValues>
        -9.8648202419281006e-01 2.4137930572032928e-01</leafValues></_>
    <_>
      <internalNodes>
        0 -1 26 -269484033 -1 -1 -1 -1 -1 -2049 -2049</internalNodes>
      <leafValues>
        -9.4397342205047607e-01 8.7504729628562927e-02</leafValues></_>
    <_>
      <internalNodes>
        0 -1 290 -285214721 -286327057 -19 -824254465 -1157 -2097
        -142641569 -532485</internalNodes>
      <leafValues>
        -8.7141579389572144e-01 2.7282559871673584e-01</leafValues></_>
    <_>
      <internalNodes>
        0 -1 7400 2147483469 -143655041 -268435457 -93126657 -678 -25
        -134217761 -218103813</internalNodes>
      <leafValues>
        -7.9919630289077759e-01 5.3567808866500854e-01</leafValues></_></weakClassifiers></stage2>
</opencv_storage>
