<?xml version="1.0"?>
<opencv_storage>
<stage3>
  <maxWeakCount>4</maxWeakCount>
  <stageThreshold>-2.4214918613433838e+00</stageThreshold>
  <weakClassifiers>
    <_>
      <internalNodes>
        0 -1 4732 -2097153 -8193 -2097153 -1 -1 -1 -1 -1025</internalNodes>
      <leafValues>
        -9.8687261343002319e-01 1.3513512909412384e-01</leafValues></_>
    <_>
      <internalNodes>
        0 -1 1881 -1 -4194305 -1092943873 2147450879 -8966 -38401 -73761
        -1</internalNodes>
      <leafValues>
        -9.5199131965637207e-01 -2.2674916312098503e-02</leafValues></_>
    <_>
      <internalNodes>
        0 -1 6551 -8388641 -8388737 -67109121 2071985151 -306 -16843777
        -83887362 -67108865</internalNodes>
      <leafValues>
        -8.4485435485839844e-01 4.6852630376815796e-01</leafValues></_>
    <_>
      <internalNodes>
        0 -1 2121 939524046 -2050 1476390655 -8388611 -69206017 -13
        -1589313 2105278334</internalNodes>
      <leafValues>
        -9.5115429162979126e-01 3.6619326472282410e-01</leafValues></_></weakClassifiers></stage3>
</opencv_storage>
