<?xml version="1.0"?>
<opencv_storage>
<stage6>
  <maxWeakCount>5</maxWeakCount>
  <stageThreshold>-3.3137929439544678e+00</stageThreshold>
  <weakClassifiers>
    <_>
      <internalNodes>
        0 -1 4764 -1 -1 -1 -1 -4194305 -2097153 -1 -2097153</internalNodes>
      <leafValues>
        -9.8685169219970703e-01 -3.1147539615631104e-01</leafValues></_>
    <_>
      <internalNodes>
        0 -1 2231 -1 -73925057 -7602693 -538181633 -201598725 -603979777
        -8769 -2097153</internalNodes>
      <leafValues>
        -9.3514907360076904e-01 -1.6888398677110672e-02</leafValues></_>
    <_>
      <internalNodes>
        0 -1 3805 -1098949 -8405249 1040154623 -101187585 -8193
        -537133058 -33 -35323905</internalNodes>
      <leafValues>
        -8.5082042217254639e-01 2.4082793295383453e-01</leafValues></_>
    <_>
      <internalNodes>
        0 -1 7523 -4229 -269488641 -1073811605 -486543361 -134742202
        2004876541 -8454145 -419430401</internalNodes>
      <leafValues>
        -7.8361427783966064e-01 4.9610689282417297e-01</leafValues></_>
    <_>
      <internalNodes>
        0 -1 301 -1048602 -1092091922 -1085800630 -134217756 -352329761
        -218103937 1601699679 -524425</internalNodes>
      <leafValues>
        -8.4900581836700439e-01 4.7075536847114563e-01</leafValues></_></weakClassifiers></stage6>
</opencv_storage>
