<?xml version="1.0"?>
<opencv_storage>
<stage8>
  <maxWeakCount>4</maxWeakCount>
  <stageThreshold>-2.8867201805114746e+00</stageThreshold>
  <weakClassifiers>
    <_>
      <internalNodes>
        0 -1 8138 -1 -1 -33686049 -513 -2359297 -2098469 -270532609 -1</internalNodes>
      <leafValues>
        -9.8737961053848267e-01 -2.3076923191547394e-01</leafValues></_>
    <_>
      <internalNodes>
        0 -1 3380 -538976257 -53249 536813535 -524289 -873529345 -66630
        -1 -262214</internalNodes>
      <leafValues>
        -9.3869578838348389e-01 -3.6943594459444284e-03</leafValues></_>
    <_>
      <internalNodes>
        0 -1 3534 -1312021 -84148902 -3609 -16841 -1342185537
        -1145044993 -26721 -547356833</internalNodes>
      <leafValues>
        -8.0982977151870728e-01 2.7276772260665894e-01</leafValues></_>
    <_>
      <internalNodes>
        0 -1 6367 -1342316550 2133508026 -270533203 -1073741825
        -268959749 -1614807173 1610585087 1568571382</internalNodes>
      <leafValues>
        -9.0742528438568115e-01 3.1737139821052551e-01</leafValues></_></weakClassifiers></stage8>
</opencv_storage>
