<?xml version="1.0"?>
<opencv_storage>
<stage5>
  <maxWeakCount>4</maxWeakCount>
  <stageThreshold>-2.6697802543640137e+00</stageThreshold>
  <weakClassifiers>
    <_>
      <internalNodes>
        0 -1 7514 -1 -1 -1048593 -2049 -1 -134219777 -1 -1</internalNodes>
      <leafValues>
        -9.8802554607391357e-01 -3.1818181276321411e-01</leafValues></_>
    <_>
      <internalNodes>
        0 -1 3012 -1 -67895297 -134752785 -69468161 -8273 -810815489
        -16785441 -1</internalNodes>
      <leafValues>
        -9.3419152498245239e-01 2.0301151275634766e-01</leafValues></_>
    <_>
      <internalNodes>
        0 -1 8095 -262165 2146951164 1062729574 1317008894 -4726942
        -536905985 -684523545 -134220289</internalNodes>
      <leafValues>
        -8.9475423097610474e-01 1.1783967167139053e-01</leafValues></_>
    <_>
      <internalNodes>
        0 -1 1245 -1241978114 -1 -285278465 2138652671 -537076502
        -2195586 -1 -25198761</internalNodes>
      <leafValues>
        -8.6540299654006958e-01 3.8121655583381653e-01</leafValues></_></weakClassifiers></stage5>
</opencv_storage>
