<?xml version="1.0"?>
<opencv_storage>
<stage4>
  <maxWeakCount>4</maxWeakCount>
  <stageThreshold>-2.6473956108093262e+00</stageThreshold>
  <weakClassifiers>
    <_>
      <internalNodes>
        0 -1 2014 -2049 -1 -1 -1 -262145 -16401 -1 -1052689</internalNodes>
      <leafValues>
        -9.8737627267837524e-01 -2.7536231279373169e-01</leafValues></_>
    <_>
      <internalNodes>
        0 -1 2097 -1310725 -2573 -513 -13 -268435457 -1025 -268435713
        -2049</internalNodes>
      <leafValues>
        -9.4152802228927612e-01 -3.3152777701616287e-02</leafValues></_>
    <_>
      <internalNodes>
        0 -1 4441 -21459713 -1073913922 -134283265 -33915073 -33620741
        -536871426 -1377601 -1145069665</internalNodes>
      <leafValues>
        -8.5193467140197754e-01 2.2881050407886505e-01</leafValues></_>
    <_>
      <internalNodes>
        0 -1 7332 -16941132 1006108663 -268501028 -3 1073721079
        -1343225857 -1107331083 -1610613249</internalNodes>
      <leafValues>
        -9.4730180501937866e-01 3.4945982694625854e-01</leafValues></_></weakClassifiers></stage4>
</opencv_storage>
