<?xml version="1.0"?>
<opencv_storage>
<stage0>
  <maxWeakCount>6</maxWeakCount>
  <stageThreshold>-2.4597063064575195e+00</stageThreshold>
  <weakClassifiers>
    <_>
      <internalNodes>
        0 -1 98910 8.2701787352561951e-02</internalNodes>
      <leafValues>
        -9.5685064792633057e-01 5.1515150070190430e-01</leafValues></_>
    <_>
      <internalNodes>
        0 -1 28050 -2.8932739049196243e-02</internalNodes>
      <leafValues>
        3.0337446928024292e-01 -8.6793607473373413e-01</leafValues></_>
    <_>
      <internalNodes>
        0 -1 15676 4.1832741349935532e-02</internalNodes>
      <leafValues>
        -5.5811077356338501e-01 7.8207409381866455e-01</leafValues></_>
    <_>
      <internalNodes>
        0 -1 112985 -3.8236033171415329e-02</internalNodes>
      <leafValues>
        7.7135062217712402e-01 -4.1594812273979187e-01</leafValues></_>
    <_>
      <internalNodes>
        0 -1 104963 4.5282639563083649e-02</internalNodes>
      <leafValues>
        -2.3885965347290039e-01 7.6791095733642578e-01</leafValues></_>
    <_>
      <internalNodes>
        0 -1 115876 2.0213995128870010e-02</internalNodes>
      <leafValues>
        -4.2877164483070374e-01 6.1313641071319580e-01</leafValues></_></weakClassifiers></stage0>
</opencv_storage>
