<?xml version="1.0"?>
<opencv_storage>
<stage3>
  <maxWeakCount>5</maxWeakCount>
  <stageThreshold>-1.8392659425735474e+00</stageThreshold>
  <weakClassifiers>
    <_>
      <internalNodes>
        0 -1 149881 1.3894617557525635e-02</internalNodes>
      <leafValues>
        -9.5620435476303101e-01 2.0000000298023224e-01</leafValues></_>
    <_>
      <internalNodes>
        0 -1 5221 1.4009729027748108e-01</internalNodes>
      <leafValues>
        -8.3110553026199341e-01 3.3169811964035034e-01</leafValues></_>
    <_>
      <internalNodes>
        0 -1 143770 -1.3069463893771172e-02</internalNodes>
      <leafValues>
        7.5934678316116333e-01 -4.2470648884773254e-01</leafValues></_>
    <_>
      <internalNodes>
        0 -1 159812 7.3202245403081179e-04</internalNodes>
      <leafValues>
        2.0580245554447174e-01 -9.4233310222625732e-01</leafValues></_>
    <_>
      <internalNodes>
        0 -1 159832 -1.1112059000879526e-03</internalNodes>
      <leafValues>
        -9.0646785497665405e-01 1.6694803535938263e-01</leafValues></_></weakClassifiers></stage3>
</opencv_storage>
