<?xml version="1.0"?>
<opencv_storage>
<stage4>
  <maxWeakCount>7</maxWeakCount>
  <stageThreshold>-2.1402204036712646e+00</stageThreshold>
  <weakClassifiers>
    <_>
      <internalNodes>
        0 -1 65812 -1.5976715087890625e-01</internalNodes>
      <leafValues>
        -4.2138364911079407e-01 -9.6747022867202759e-01</leafValues></_>
    <_>
      <internalNodes>
        0 -1 81333 6.5495744347572327e-02</internalNodes>
      <leafValues>
        -8.2703226804733276e-01 1.9518844783306122e-01</leafValues></_>
    <_>
      <internalNodes>
        0 -1 91769 5.4980002343654633e-02</internalNodes>
      <leafValues>
        -5.0031620264053345e-01 5.6390053033828735e-01</leafValues></_>
    <_>
      <internalNodes>
        0 -1 48961 -5.1539182662963867e-02</internalNodes>
      <leafValues>
        5.9839361906051636e-01 -3.6589238047599792e-01</leafValues></_>
    <_>
      <internalNodes>
        0 -1 151600 -1.9434536807239056e-03</internalNodes>
      <leafValues>
        5.1594400405883789e-01 -3.5155725479125977e-01</leafValues></_>
    <_>
      <internalNodes>
        0 -1 161240 9.8188966512680054e-04</internalNodes>
      <leafValues>
        2.2278048098087311e-01 -9.1033601760864258e-01</leafValues></_>
    <_>
      <internalNodes>
        0 -1 141496 -6.2704816460609436e-02</internalNodes>
      <leafValues>
        7.9218834638595581e-01 -2.1823380887508392e-01</leafValues></_></weakClassifiers></stage4>
</opencv_storage>
