<?xml version="1.0"?>
<opencv_storage>
<stage5>
  <maxWeakCount>6</maxWeakCount>
  <stageThreshold>-2.4537847042083740e+00</stageThreshold>
  <weakClassifiers>
    <_>
      <internalNodes>
        0 -1 44643 -2.0628178119659424e-01</internalNodes>
      <leafValues>
        1.5832281592018028e-17 -9.6315193176269531e-01</leafValues></_>
    <_>
      <internalNodes>
        0 -1 158548 1.6705343499779701e-02</internalNodes>
      <leafValues>
        -7.8077071905136108e-01 8.9245510101318359e-01</leafValues></_>
    <_>
      <internalNodes>
        0 -1 56408 -1.1601777374744415e-01</internalNodes>
      <leafValues>
        6.7112642526626587e-01 -4.2459806799888611e-01</leafValues></_>
    <_>
      <internalNodes>
        0 -1 11933 -9.8196393810212612e-04</internalNodes>
      <leafValues>
        -8.3910679817199707e-01 2.0649556815624237e-01</leafValues></_>
    <_>
      <internalNodes>
        0 -1 146133 -2.2584177553653717e-02</internalNodes>
      <leafValues>
        -9.2230772972106934e-01 1.2602713704109192e-01</leafValues></_>
    <_>
      <internalNodes>
        0 -1 145906 1.9640359096229076e-03</internalNodes>
      <leafValues>
        -3.6249268054962158e-01 4.2781570553779602e-01</leafValues></_></weakClassifiers></stage5>
</opencv_storage>
