<?xml version="1.0"?>
<opencv_storage>
<stage13>
  <maxWeakCount>8</maxWeakCount>
  <stageThreshold>-2.1335620880126953e+00</stageThreshold>
  <weakClassifiers>
    <_>
      <internalNodes>
        0 -1 29584 -9.3603804707527161e-03</internalNodes>
      <leafValues>
        5.3846156597137451e-01 -9.4873225688934326e-01</leafValues></_>
    <_>
      <internalNodes>
        0 -1 9015 5.1538027822971344e-02</internalNodes>
      <leafValues>
        -7.9944664239883423e-01 7.6854854822158813e-02</leafValues></_>
    <_>
      <internalNodes>
        0 -1 85271 5.9412640985101461e-04</internalNodes>
      <leafValues>
        -4.6955114603042603e-01 3.5420352220535278e-01</leafValues></_>
    <_>
      <internalNodes>
        0 -1 65919 -1.7397564370185137e-03</internalNodes>
      <leafValues>
        3.7914946675300598e-01 -4.1005867719650269e-01</leafValues></_>
    <_>
      <internalNodes>
        0 -1 98450 -4.4277114793658257e-03</internalNodes>
      <leafValues>
        5.2380740642547607e-01 -2.5645384192466736e-01</leafValues></_>
    <_>
      <internalNodes>
        0 -1 145628 -2.9731763061136007e-04</internalNodes>
      <leafValues>
        4.7690480947494507e-01 -2.8543984889984131e-01</leafValues></_>
    <_>
      <internalNodes>
        0 -1 145345 3.7129989359527826e-03</internalNodes>
      <leafValues>
        -2.0445005595684052e-01 7.7049535512924194e-01</leafValues></_>
    <_>
      <internalNodes>
        0 -1 12633 1.8567353487014771e-02</internalNodes>
      <leafValues>
        -2.4971221387386322e-01 4.6030917763710022e-01</leafValues></_></weakClassifiers></stage13>
</opencv_storage>
