<?xml version="1.0"?>
<opencv_storage>
<cascade>
  <stageType>BOOST</stageType>
  <featureType>LBP</featureType>
  <height>24</height>
  <width>24</width>
  <stageParams>
    <boostType>GAB</boostType>
    <minHitRate>9.9500000476837158e-01</minHitRate>
    <maxFalseAlarm>5.0000000000000000e-01</maxFalseAlarm>
    <weightTrimRate>9.4999999999999996e-01</weightTrimRate>
    <maxDepth>1</maxDepth>
    <maxWeakCount>100</maxWeakCount></stageParams>
  <featureParams>
    <maxCatCount>256</maxCatCount>
    <featSize>1</featSize></featureParams>
  <stageNum>15</stageNum>
  <stages>
    <!-- stage 0 -->
    <_>
      <maxWeakCount>6</maxWeakCount>
      <stageThreshold>-2.4888815879821777e+00</stageThreshold>
      <weakClassifiers>
        <_>
          <internalNodes>
            0 -1 4 -1 -33 -2105393 -2105377 -67895297 -67371009 -1 -1</internalNodes>
          <leafValues>
            -9.3506664037704468e-01 4.2028984427452087e-01</leafValues></_>
        <_>
          <internalNodes>
            0 -1 20 -236465922 1365073126 2077631931 2134900715
            -306076162 -1677733412 1846148507 2138040207</internalNodes>
          <leafValues>
            -8.2699477672576904e-01 -4.7725837677717209e-02</leafValues></_>
        <_>
          <internalNodes>
            0 -1 40 -205925760 -12771505 -103744521 -144967441
            -1250584665 -138474627 -1376279297 1145528031</internalNodes>
          <leafValues>
            -6.3891458511352539e-01 2.6487433910369873e-01</leafValues></_>
        <_>
          <internalNodes>
            0 -1 9 -355687446 1970929620 -1084995286 -637572282
            712951786 -555467476 1602124543 1929578358</internalNodes>
          <leafValues>
            -6.0055750608444214e-01 3.5897579789161682e-01</leafValues></_>
        <_>
          <internalNodes>
            0 -1 17 -133895454 -11096070 1876834203 1463429684
            -795069252 -1879618192 2145401855 41309530</internalNodes>
          <leafValues>
            -5.9887498617172241e-01 3.2297348976135254e-01</leafValues></_>
        <_>
          <internalNodes>
            0 -1 52 -849487268 502005434 1031179436 661585546
            -1721989732 523567092 230623320 1919127799</internalNodes>
          <leafValues>
            -5.9063917398452759e-01 3.3225801587104797e-01</leafValues></_></weakClassifiers></_>
    <!-- stage 1 -->
    <_>
      <maxWeakCount>8</maxWeakCount>
      <stageThreshold>-2.5806262493133545e+00</stageThreshold>
      <weakClassifiers>
        <_>
          <internalNodes>
            0 -1 19 -1 -1 -17409 -1 -1 -2228225 -1 -1</internalNodes>
          <leafValues>
            -9.3302792310714722e-01 6.0396039485931396e-01</leafValues></_>
        <_>
          <internalNodes>
            0 -1 86 -201335201 -71827625 -42468353 -82051301 -16803873
            -16787497 -536884277 -1141112961</internalNodes>
          <leafValues>
            -7.3700976371765137e-01 8.0707035958766937e-02</leafValues></_>
        <_>
          <internalNodes>
            0 -1 50 -129893632 -681099446 1171193835 2139569783
            -142831957 2113666805 -1862484517 208617199</internalNodes>
          <leafValues>
            -6.1163347959518433e-01 2.0933045446872711e-01</leafValues></_>
        <_>
          <internalNodes>
            0 -1 72 1022895421 737034109 -268435733 1861164396
            -1145116835 -11108995 -1091666056 -1397704908</internalNodes>
          <leafValues>
            -5.4241627454757690e-01 3.2840982079505920e-01</leafValues></_>
        <_>
          <internalNodes>
            0 -1 26 -218136798 728694143 -285551902 -1562312991
            1879013214 107454295 2013232948 1651963732</internalNodes>
          <leafValues>
            -7.3949295282363892e-01 2.3060481250286102e-01</leafValues></_>
        <_>
          <internalNodes>
            0 -1 77 408351158 590917371 788217568 -1917978692 493463989
            1017998335 -1661897528 769103258</internalNodes>
          <leafValues>
            -5.9861475229263306e-01 2.9669782519340515e-01</leafValues></_>
        <_>
          <internalNodes>
            0 -1 8 748698993 796278781 2130685535 -285278210 -1821022339
            -554237969 -1484958379 -1661175852</internalNodes>
          <leafValues>
            -5.4110974073410034e-01 3.0952695012092590e-01</leafValues></_>
        <_>
          <internalNodes>
            0 -1 31 -1423439432 493674465 -295209 -1250694546
            -1892904980 2147401719 515685052 1432698161</internalNodes>
          <leafValues>
            -6.1355793476104736e-01 3.0094045400619507e-01</leafValues></_></weakClassifiers></_>
    <!-- stage 2 -->
    <_>
      <maxWeakCount>7</maxWeakCount>
      <stageThreshold>-2.1121466159820557e+00</stageThreshold>
      <weakClassifiers>
        <_>
          <internalNodes>
            0 -1 7 -1 -1 -268435457 -1 -1 -9 -1 -1</internalNodes>
          <leafValues>
            -9.3380737304687500e-01 3.5384616255760193e-01</leafValues></_>
        <_>
          <internalNodes>
            0 -1 44 -14944257 -6340934 1262318431 2103271103 -328204550
            -4194368 1325261055 -67389029</internalNodes>
          <leafValues>
            -7.4866956472396851e-01 7.6656420715153217e-03</leafValues></_>
        <_>
          <internalNodes>
            0 -1 15 2076890074 -639804678 1071590136 525568752 320065244
            441916121 1555914495 529603522</internalNodes>
          <leafValues>
            -6.3374155759811401e-01 1.5779468417167664e-01</leafValues></_>
        <_>
          <internalNodes>
            0 -1 2 180100989 762101757 1862223731 -1359024196 242966353
            -165377 1030579568 -1460654608</internalNodes>
          <leafValues>
            -5.8698236942291260e-01 2.6637932658195496e-01</leafValues></_>
        <_>
          <internalNodes>
            0 -1 85 212356539 230563312 -151028228 -268796996
            -1364072857 -1347575811 367025492 -1661569963</internalNodes>
          <leafValues>
            -5.4998576641082764e-01 2.9158949851989746e-01</leafValues></_>
        <_>
          <internalNodes>
            0 -1 13 1415315304 -1091502112 -1261109551 -982140937
            1694125922 -373866565 1014209929 349647935</internalNodes>
          <leafValues>
            -6.2698960304260254e-01 2.8230950236320496e-01</leafValues></_>
        <_>
          <internalNodes>
            0 -1 73 -478248718 520098571 -272686118 -110003205
            1556995978 -1080430657 533026525 -1898198529</internalNodes>
          <leafValues>
            -4.2141720652580261e-01 4.1442871093750000e-01</leafValues></_></weakClassifiers></_>
    <!-- stage 3 -->
    <_>
      <maxWeakCount>8</maxWeakCount>
      <stageThreshold>-2.5464577674865723e+00</stageThreshold>
      <weakClassifiers>
        <_>
          <internalNodes>
            0 -1 39 -1 -1 -52225 -1 -1 -2293761 -1 -5121</internalNodes>
          <leafValues>
            -9.3568879365921021e-01 1.8857142329216003e-01</leafValues></_>
        <_>
          <internalNodes>
            0 -1 23 -69482565 -541066893 1245305213 488471931 -927362342
            -18121003 -675291413 -536871509</internalNodes>
          <leafValues>
            -7.5542414188385010e-01 -5.0455212593078613e-02</leafValues></_>
        <_>
          <internalNodes>
            0 -1 29 937191293 771579253 -1145536587 799550321 -277590020
            1996453247 -1099367704 -1373848071</internalNodes>
          <leafValues>
            -6.0890251398086548e-01 1.4563098549842834e-01</leafValues></_>
        <_>
          <internalNodes>
            0 -1 1 -755193822 -136319105 -268847115 -35657863
            -1537221634 -1196622857 -34246993 134741835</internalNodes>
          <leafValues>
            -4.4808581471443176e-01 3.3179703354835510e-01</leafValues></_>
        <_>
          <internalNodes>
            0 -1 35 1862192663 -293852189 -520126782 854256766
            -338438330 1160116167 1979154256 -403442062</internalNodes>
          <leafValues>
            -4.9953037500381470e-01 3.2678455114364624e-01</leafValues></_>
        <_>
          <internalNodes>
            0 -1 90 1866442280 -1343344800 905752560 1969291128
            720177854 1811790588 905789400 1333201499</internalNodes>
          <leafValues>
            -5.7325303554534912e-01 2.8790849447250366e-01</leafValues></_>
        <_>
          <internalNodes>
            0 -1 110 1022103357 -1543636374 -1375823239 -834887948
            1962884892 -1476460809 -1241571467 -1326691260</internalNodes>
          <leafValues>
            -5.2585494518280029e-01 2.9572975635528564e-01</leafValues></_>
        <_>
          <internalNodes>
            0 -1 18 -134757746 1634627311 -408404304 -352145681
            1700218285 1467960693 1933047532 1730166647</internalNodes>
          <leafValues>
            -6.2750053405761719e-01 2.4637907743453979e-01</leafValues></_></weakClassifiers></_>
    <!-- stage 4 -->
    <_>
      <maxWeakCount>8</maxWeakCount>
      <stageThreshold>-2.2220757007598877e+00</stageThreshold>
      <weakClassifiers>
        <_>
          <internalNodes>
            0 -1 76 -8193 -513 -1 -513 -4194305 -1 -4194305 -262145</internalNodes>
          <leafValues>
            -9.3687361478805542e-01 -1.7094017937779427e-02</leafValues></_>
        <_>
          <internalNodes>
            0 -1 101 -144705809 -545082 2136716383 -81555886 -348931361
            -1314734337 1666436831 -75501921</internalNodes>
          <leafValues>
            -7.4441343545913696e-01 -3.0359993688762188e-03</leafValues></_>
        <_>
          <internalNodes>
            0 -1 98 699229440 803700399 -822087006 -1580290060
            -671691515 92069727 -671623200 1096475989</internalNodes>
          <leafValues>
            -8.1026595830917358e-01 4.8060674220323563e-02</leafValues></_>
        <_>
          <internalNodes>
            0 -1 41 -1523567296 -1499353240 -201370896 -1393803920
            -1884356617 401566703 100623337 210503121</internalNodes>
          <leafValues>
            -8.1465369462966919e-01 1.4661151170730591e-01</leafValues></_>
        <_>
          <internalNodes>
            0 -1 105 1323705894 804186063 -486559646 -227561938
            -956829887 392691325 1458501116 1152839095</internalNodes>
          <leafValues>
            -6.7047506570816040e-01 2.1754072606563568e-01</leafValues></_>
        <_>
          <internalNodes>
            0 -1 87 -1708094444 2092851149 -1174406158 926227450
            2094947848 -1243742375 -1795621209 674369493</internalNodes>
          <leafValues>
            -6.7894273996353149e-01 2.2844597697257996e-01</leafValues></_>
        <_>
          <internalNodes>
            0 -1 30 572549937 787332975 -135135237 -1091698818
            -1610679939 -655497 -609955 -390541548</internalNodes>
          <leafValues>
            -4.7028645873069763e-01 3.2904076576232910e-01</leafValues></_>
        <_>
          <internalNodes>
            0 -1 53 -206545812 -137462741 -16842819 2054206138 502947583
            -161943713 -68502310 -1365090438</internalNodes>
          <leafValues>
            -4.5622444152832031e-01 3.4286588430404663e-01</leafValues></_></weakClassifiers></_>
    <!-- stage 5 -->
    <_>
      <maxWeakCount>9</maxWeakCount>
      <stageThreshold>-2.5388410091400146e+00</stageThreshold>
      <weakClassifiers>
        <_>
          <internalNodes>
            0 -1 10 -1 -33554945 -513 -536870913 -1 -1 -4194369 -1</internalNodes>
          <leafValues>
            -9.3329453468322754e-01 3.0232557654380798e-01</leafValues></_>
        <_>
          <internalNodes>
            0 -1 49 -551289857 -37904397 1173565437 2113918653
            -622143494 -6624528 -626000897 -4199425</internalNodes>
          <leafValues>
            -7.2783607244491577e-01 7.1705155074596405e-02</leafValues></_>
        <_>
          <internalNodes>
            0 -1 89 -760487674 1946074714 -50431139 826373879 -554212479
            -1166639236 -608211826 -1304956941</internalNodes>
          <leafValues>
            -5.3728061914443970e-01 2.0083141326904297e-01</leafValues></_>
        <_>
          <internalNodes>
            0 -1 99 -1895040212 -1327039012 -1023459292 -17039427
            623437778 622919007 1434146725 1709171033</internalNodes>
          <leafValues>
            -6.0696738958358765e-01 2.3026005923748016e-01</leafValues></_>
        <_>
          <internalNodes>
            0 -1 6 -36393182 811874108 2113805996 1843576574 2130066940
            1450668023 917133132 1062299259</internalNodes>
          <leafValues>
            -6.1949676275253296e-01 2.2970400750637054e-01</leafValues></_>
        <_>
          <internalNodes>
            0 -1 56 -2002758160 234876274 -149507 -274067660 229390829
            -1493172289 666711986 799802653</internalNodes>
          <leafValues>
            -6.3385528326034546e-01 2.5130015611648560e-01</leafValues></_>
        <_>
          <internalNodes>
            0 -1 83 779775589 675213170 -1359422037 -1393099273
            -1100391119 1560281071 670724960 -1906561708</internalNodes>
          <leafValues>
            -5.9278833866119385e-01 2.5615647435188293e-01</leafValues></_>
        <_>
          <internalNodes>
            0 -1 71 -629442984 891748233 382402171 308999763 463384256
            -1426615716 -50672482 54124061</internalNodes>
          <leafValues>
            -5.7460600137710571e-01 2.5286138057708740e-01</leafValues></_>
        <_>
          <internalNodes>
            0 -1 47 -420213500 -1502711828 -1091534852 1624144764
            -6529980 -9797811 2139059647 -1354883469</internalNodes>
          <leafValues>
            -5.7014805078506470e-01 2.6274392008781433e-01</leafValues></_></weakClassifiers></_>
    <!-- stage 6 -->
    <_>
      <maxWeakCount>8</maxWeakCount>
      <stageThreshold>-2.2256088256835938e+00</stageThreshold>
      <weakClassifiers>
        <_>
          <internalNodes>
            0 -1 42 -201327617 -1 -134217729 -1 -16777217 -17 -1 -49</internalNodes>
          <leafValues>
            -9.3540436029434204e-01 1.2707182765007019e-01</leafValues></_>
        <_>
          <internalNodes>
            0 -1 38 -76554289 -604088833 -88465858 -536911921 -12853297
            2087119999 -68157505 -67108865</internalNodes>
          <leafValues>
            -7.4317091703414917e-01 -2.9795790091156960e-02</leafValues></_>
        <_>
          <internalNodes>
            0 -1 104 -608223478 -135360603 -1493802332 -261165318
            2111766082 1308858191 -1225867274 -195560353</internalNodes>
          <leafValues>
            -5.6240916252136230e-01 1.6555385291576385e-01</leafValues></_>
        <_>
          <internalNodes>
            0 -1 69 -893939072 66582264 -169906863 1507785696 262142872
            283874267 2128453609 167574332</internalNodes>
          <leafValues>
            -5.7710963487625122e-01 2.3788294196128845e-01</leafValues></_>
        <_>
          <internalNodes>
            0 -1 97 1857975372 1877763790 1786161832 840613725
            2138712776 897580879 -530172330 1881461861</internalNodes>
          <leafValues>
            -7.7751988172531128e-01 1.7255562543869019e-01</leafValues></_>
        <_>
          <internalNodes>
            0 -1 5 1727474268 950267426 -281405944 -1783174420
            -615557266 846459702 -153437114 1884550983</internalNodes>
          <leafValues>
            -6.3729643821716309e-01 2.4444350600242615e-01</leafValues></_>
        <_>
          <internalNodes>
            0 -1 58 70135596 753692472 2092400183 -1141215498 2146647393
            636419581 -218663915 -1598110251</internalNodes>
          <leafValues>
            -6.0458117723464966e-01 2.3056094348430634e-01</leafValues></_>
        <_>
          <internalNodes>
            0 -1 46 -1373444192 1721696224 -1090541968 -79822895
            696251895 -1922187283 -1212909657 619535765</internalNodes>
          <leafValues>
            -6.1467313766479492e-01 2.3294952511787415e-01</leafValues></_></weakClassifiers></_>
    <!-- stage 7 -->
    <_>
      <maxWeakCount>8</maxWeakCount>
      <stageThreshold>-2.6547224521636963e+00</stageThreshold>
      <weakClassifiers>
        <_>
          <internalNodes>
            0 -1 12 -1 -2061 -268435457 -1 -1 -13 -805306369 -1</internalNodes>
          <leafValues>
            -9.3701195716857910e-01 2.9161299583491330e-17</leafValues></_>
        <_>
          <internalNodes>
            0 -1 48 -579150337 -45132291 -67412545 -415692 1546317311
            -50659843 -1649868801 -72615189</internalNodes>
          <leafValues>
            -7.4306529760360718e-01 5.0955479964613914e-03</leafValues></_>
        <_>
          <internalNodes>
            0 -1 79 822279569 -1112715927 -1074823175 -76138759
            -1224820747 -1410351651 1052380652 -1900192384</internalNodes>
          <leafValues>
            -5.2915579080581665e-01 1.8312348425388336e-01</leafValues></_>
        <_>
          <internalNodes>
            0 -1 88 1156062216 1006124785 -436421084 942964479
            -285728852 -583565813 -1116061955 1745383097</internalNodes>
          <leafValues>
            -6.8806296586990356e-01 1.8536920845508575e-01</leafValues></_>
        <_>
          <internalNodes>
            0 -1 3 1311699544 1825451952 -284754025 723942982 -990965514
            1307532493 1976522612 2011776839</internalNodes>
          <leafValues>
            -6.3581007719039917e-01 2.3827932775020599e-01</leafValues></_>
        <_>
          <internalNodes>
            0 -1 61 -806816172 1755565533 -1104056577 905532357
            -1567912708 -578916866 712271356 272056429</internalNodes>
          <leafValues>
            -5.8597755432128906e-01 2.2236202657222748e-01</leafValues></_>
        <_>
          <internalNodes>
            0 -1 63 791043565 687537797 -285311041 -1023494226
            1063157092 1174372127 -1091006700 -1829708427</internalNodes>
          <leafValues>
            -5.1363867521286011e-01 2.9393365979194641e-01</leafValues></_>
        <_>
          <internalNodes>
            0 -1 109 -1528304402 1014411186 -352419848 -1331224715
            -1489279571 123925971 1340984526 1710161223</internalNodes>
          <leafValues>
            -5.1134413480758667e-01 2.8537157177925110e-01</leafValues></_></weakClassifiers></_>
    <!-- stage 8 -->
    <_>
      <maxWeakCount>6</maxWeakCount>
      <stageThreshold>-2.4677391052246094e+00</stageThreshold>
      <weakClassifiers>
        <_>
          <internalNodes>
            0 -1 74 -1 -2097153 -10241 -33595393 -344129 -262145 -262145
            -1</internalNodes>
          <leafValues>
            -9.3828928470611572e-01 5.8823529630899429e-02</leafValues></_>
        <_>
          <internalNodes>
            0 -1 24 -353376282 -470832160 -1325424016 -136452378
            -277874865 -2032797882 -721487893 -134219817</internalNodes>
          <leafValues>
            -8.2557821273803711e-01 -1.2592051923274994e-01</leafValues></_>
        <_>
          <internalNodes>
            0 -1 94 -87931868 -364949682 449754864 550715003 -176243100
            306541405 -425468194 -156578539</internalNodes>
          <leafValues>
            -6.9691175222396851e-01 1.8807840347290039e-01</leafValues></_>
        <_>
          <internalNodes>
            0 -1 14 -290784382 1626126970 -218242334 -1325435405
            103047045 1159060749 -956368954 -697395484</internalNodes>
          <leafValues>
            -5.9420275688171387e-01 3.0713146924972534e-01</leafValues></_>
        <_>
          <internalNodes>
            0 -1 38 -93450682 -1862396666 -352711108 342581229
            -1122427584 1684991103 -487620700 -1340375371</internalNodes>
          <leafValues>
            -6.3292235136032104e-01 2.7600115537643433e-01</leafValues></_>
        <_>
          <internalNodes>
            0 -1 76 -844063624 1056800141 -1103384586 -1178788488
            -1380139460 -134283780 -1212486468 -1171124996</internalNodes>
          <leafValues>
            -5.1067012548446655e-01 3.3517500758171082e-01</leafValues></_></weakClassifiers></_>
    <!-- stage 9 -->
    <_>
      <maxWeakCount>7</maxWeakCount>
      <stageThreshold>-2.1995911598205566e+00</stageThreshold>
      <weakClassifiers>
        <_>
          <internalNodes>
            0 -1 25 -1 -2098177 454555511 -2622497 -68162817 -607138582
            -136840193 -1</internalNodes>
          <leafValues>
            -9.4086682796478271e-01 3.7440758943557739e-01</leafValues></_>
        <_>
          <internalNodes>
            0 -1 103 -201592069 -142105910 -212442983 -211812513
            -221512453 -901131628 -753409317 -3146785</internalNodes>
          <leafValues>
            -7.6380503177642822e-01 3.8790905475616455e-01</leafValues></_>
        <_>
          <internalNodes>
            0 -1 37 -109329214 1506783148 547268248 1395091213
            -211975030 92422376 1362294783 1566561898</internalNodes>
          <leafValues>
            -6.4281660318374634e-01 3.0794551968574524e-01</leafValues></_>
        <_>
          <internalNodes>
            0 -1 82 -541355788 -1645400306 1056682450 1904172615
            -1133913430 -805503660 1005776606 -216851361</internalNodes>
          <leafValues>
            -4.6311756968498230e-01 4.8871460556983948e-01</leafValues></_>
        <_>
          <internalNodes>
            0 -1 106 -134743358 -1276396630 1723761904 -134763274
            -1079837278 1695022372 393662366 -781193281</internalNodes>
          <leafValues>
            -4.0647333860397339e-01 5.3915619850158691e-01</leafValues></_>
        <_>
          <internalNodes>
            0 -1 92 -167585312 -605323358 -21072911 -1289364040
            -1342378038 -1882259489 980874731 -1612752726</internalNodes>
          <leafValues>
            -3.8991022109985352e-01 5.4344487190246582e-01</leafValues></_>
        <_>
          <internalNodes>
            0 -1 28 -72421146 -127157522 1962082096 1513351098
            -285553644 1292848719 -1221397798 -942422801</internalNodes>
          <leafValues>
            -4.6258029341697693e-01 4.7404327988624573e-01</leafValues></_></weakClassifiers></_>
    <!-- stage 10 -->
    <_>
      <maxWeakCount>7</maxWeakCount>
      <stageThreshold>-2.4745934009552002e+00</stageThreshold>
      <weakClassifiers>
        <_>
          <internalNodes>
            0 -1 54 -69206017 -4641 -675291169 -1 -4195329 -4196097
            -5784577 -1025</internalNodes>
          <leafValues>
            -9.3739873170852661e-01 3.8461539149284363e-01</leafValues></_>
        <_>
          <internalNodes>
            0 -1 34 -205522949 -777014870 1475077883 -167929767
            -71581701 -983733854 -1243962993 -8305</internalNodes>
          <leafValues>
            -7.5558692216873169e-01 2.8279635310173035e-01</leafValues></_>
        <_>
          <internalNodes>
            0 -1 96 -156516202 -706788670 1090255462 -798787646
            -1010579776 1364884559 -1224017238 -477105202</internalNodes>
          <leafValues>
            -5.6886875629425049e-01 3.2654169201850891e-01</leafValues></_>
        <_>
          <internalNodes>
            0 -1 75 -559276840 -63144618 362535637 825907693 -1164251920
            -537013931 -1698821473 -2026172201</internalNodes>
          <leafValues>
            -5.1858878135681152e-01 3.7221801280975342e-01</leafValues></_>
        <_>
          <internalNodes>
            0 -1 84 -39136880 -546678870 -1443802255 -537579020
            -176095233 -2002747606 351883671 -1682237999</internalNodes>
          <leafValues>
            -4.4101652503013611e-01 4.0794506669044495e-01</leafValues></_>
        <_>
          <internalNodes>
            0 -1 55 -122436874 -98095114 -222560335 1941126501
            -1613331226 -25215227 -218248996 -717641749</internalNodes>
          <leafValues>
            -3.9034336805343628e-01 4.6235057711601257e-01</leafValues></_>
        <_>
          <internalNodes>
            0 -1 11 1677695522 2013122170 1841290043 355524570
            -2090702286 -140847389 1568135608 100767207</internalNodes>
          <leafValues>
            -6.0255867242813110e-01 3.2042890787124634e-01</leafValues></_></weakClassifiers></_>
    <!-- stage 11 -->
    <_>
      <maxWeakCount>8</maxWeakCount>
      <stageThreshold>-2.3557887077331543e+00</stageThreshold>
      <weakClassifiers>
        <_>
          <internalNodes>
            0 -1 80 -1 -10757 -513 -2595 -1140850689 -4198401 -4456453
            -1</internalNodes>
          <leafValues>
            -9.3985646963119507e-01 2.9629629105329514e-02</leafValues></_>
        <_>
          <internalNodes>
            0 -1 22 -3333 -69996385 1349710527 -614731461 -540026982
            -310713935 -569403169 -3148833</internalNodes>
          <leafValues>
            -7.4581837654113770e-01 1.8473474681377411e-01</leafValues></_>
        <_>
          <internalNodes>
            0 -1 108 -812910162 -1750958134 -86507552 -786959748
            -15802739 134135775 939443642 -740296321</internalNodes>
          <leafValues>
            -5.0363570451736450e-01 2.8705260157585144e-01</leafValues></_>
        <_>
          <internalNodes>
            0 -1 93 -4264615 -2101411905 -271087 -855705647 -2051047492
            -1360596993 -1275734096 -1610613315</internalNodes>
          <leafValues>
            -3.8416808843612671e-01 3.6555147171020508e-01</leafValues></_>
        <_>
          <internalNodes>
            0 -1 59 -121977308 -348894884 1400569843 2004572889
            -1080300299 -1149296946 -1363834689 -1153824805</internalNodes>
          <leafValues>
            -3.8740581274032593e-01 3.7997734546661377e-01</leafValues></_>
        <_>
          <internalNodes>
            0 -1 33 -1967210710 -1229800144 -172130 -25206990 -329434256
            -270287876 771126136 1360275060</internalNodes>
          <leafValues>
            -7.7096652984619141e-01 1.9248008728027344e-01</leafValues></_>
        <_>
          <internalNodes>
            0 -1 51 -7615006 -3428892 -1755937967 -822790343 233439165
            -2014849160 935671806 -1616241245</internalNodes>
          <leafValues>
            -3.6235961318016052e-01 4.0777912735939026e-01</leafValues></_>
        <_>
          <internalNodes>
            0 -1 60 1739317946 240602768 -1655399203 2088756470
            1330013874 -931326084 -1959115020 305556798</internalNodes>
          <leafValues>
            -6.7578393220901489e-01 2.2131906449794769e-01</leafValues></_></weakClassifiers></_>
    <!-- stage 12 -->
    <_>
      <maxWeakCount>8</maxWeakCount>
      <stageThreshold>-2.5144560337066650e+00</stageThreshold>
      <weakClassifiers>
        <_>
          <internalNodes>
            0 -1 64 -1 -32769 -1 -8705 -5505025 -1 -1 -1</internalNodes>
          <leafValues>
            -9.3392813205718994e-01 3.4848484396934509e-01</leafValues></_>
        <_>
          <internalNodes>
            0 -1 95 -1281 -572527889 -1083180077 -10487345 -268440833
            -542142741 -12585989 -10485761</internalNodes>
          <leafValues>
            -7.1448713541030884e-01 2.9493552446365356e-01</leafValues></_>
        <_>
          <internalNodes>
            0 -1 36 -901000197 -309072574 1513256895 1160308471
            -604285702 1533046014 -566890773 -545260546</internalNodes>
          <leafValues>
            -4.2317101359367371e-01 3.6542233824729919e-01</leafValues></_>
        <_>
          <internalNodes>
            0 -1 16 -1176570654 1213066062 -486640990 722563051
            -1476405164 1163918942 -1024207935 1714349876</internalNodes>
          <leafValues>
            -6.7438101768493652e-01 2.2330099344253540e-01</leafValues></_>
        <_>
          <internalNodes>
            0 -1 0 653138983 -1005715457 -4109 -1375993934 132957479
            -268582921 -806914443 -1024174812</internalNodes>
          <leafValues>
            -5.3320205211639404e-01 2.7896434068679810e-01</leafValues></_>
        <_>
          <internalNodes>
            0 -1 100 209395718 -285615138 -150995858 1681850302
            1493072133 2120219945 -34920625 1622195750</internalNodes>
          <leafValues>
            -6.4650219678878784e-01 2.5062716007232666e-01</leafValues></_>
        <_>
          <internalNodes>
            0 -1 7 746546077 -1430243585 -1427321726 -285442373
            -545817551 -1250787727 2146821899 -54299019</internalNodes>
          <leafValues>
            -4.6757221221923828e-01 3.1705957651138306e-01</leafValues></_>
        <_>
          <internalNodes>
            0 -1 57 -1212372480 -1435009335 733947756 1643936668
            -694669324 -1476477061 -537052125 810596908</internalNodes>
          <leafValues>
            -7.3504239320755005e-01 1.9251240789890289e-01</leafValues></_></weakClassifiers></_>
    <!-- stage 13 -->
    <_>
      <maxWeakCount>8</maxWeakCount>
      <stageThreshold>-2.2773134708404541e+00</stageThreshold>
      <weakClassifiers>
        <_>
          <internalNodes>
            0 -1 21 -5242881 -1 -2097153 -513 -1 -257 -1 -2561</internalNodes>
          <leafValues>
            -9.3741458654403687e-01 3.9301309734582901e-02</leafValues></_>
        <_>
          <internalNodes>
            0 -1 23 -2104325 -1541 1262082431 1565522427 -642010374
            -18154798 -541075477 -536870913</internalNodes>
          <leafValues>
            -7.3604822158813477e-01 1.1593253910541534e-01</leafValues></_>
        <_>
          <internalNodes>
            0 -1 107 -109333281 -1141708098 1383849053 1601112447
            -402948898 -218616074 1935144414 -478679329</internalNodes>
          <leafValues>
            -4.1302993893623352e-01 3.7969845533370972e-01</leafValues></_>
        <_>
          <internalNodes>
            0 -1 68 2077378672 1798849338 1492941247 1359087598
            -537512237 -1423607878 1216238660 1440474486</internalNodes>
          <leafValues>
            -6.0249441862106323e-01 2.1710251271724701e-01</leafValues></_>
        <_>
          <internalNodes>
            0 -1 65 -274500576 -1379774967 570321913 2063310589
            -1694369860 -1103176347 -1579700234 280712694</internalNodes>
          <leafValues>
            -5.6744921207427979e-01 2.2833956778049469e-01</leafValues></_>
        <_>
          <internalNodes>
            0 -1 66 -4989352 150798148 1473965021 319802741 2065573888
            -34146230 276487050 2054509438</internalNodes>
          <leafValues>
            -5.0508856773376465e-01 2.7991351485252380e-01</leafValues></_>
        <_>
          <internalNodes>
            0 -1 78 -1154482465 804965979 1878621680 -805360948
            -41955117 -868909072 1595211444 -1737558147</internalNodes>
          <leafValues>
            -4.0240642428398132e-01 3.5483840107917786e-01</leafValues></_>
        <_>
          <internalNodes>
            0 -1 27 2076127910 -1666487036 -1946716557 -886278373
            -1211176710 667749704 1118926143 -142959118</internalNodes>
          <leafValues>
            -4.4835728406906128e-01 3.2748639583587646e-01</leafValues></_></weakClassifiers></_>
    <!-- stage 14 -->
    <_>
      <maxWeakCount>9</maxWeakCount>
      <stageThreshold>-2.1531615257263184e+00</stageThreshold>
      <weakClassifiers>
        <_>
          <internalNodes>
            0 -1 43 -1 -1 -1025 -4195329 -2097921 -1089 -262145 -1</internalNodes>
          <leafValues>
            -9.3498671054840088e-01 2.4840764701366425e-01</leafValues></_>
        <_>
          <internalNodes>
            0 -1 102 -537400577 -4980994 2135939035 -8390945 -9176833
            -1232438120 1499184351 -10485765</internalNodes>
          <leafValues>
            -7.4098157882690430e-01 2.9958847910165787e-02</leafValues></_>
        <_>
          <internalNodes>
            0 -1 70 2118323268 -75565218 1929215973 141622903 2094994665
            -1479349121 -1561452602 -523207201</internalNodes>
          <leafValues>
            -6.4845156669616699e-01 1.0589054971933365e-01</leafValues></_>
        <_>
          <internalNodes>
            0 -1 45 -289413377 -572297436 1075425269 2003036154
            -675821878 1479007314 1899187711 -78120119</internalNodes>
          <leafValues>
            -3.4108293056488037e-01 4.1307327151298523e-01</leafValues></_>
        <_>
          <internalNodes>
            0 -1 81 -976312872 1938780149 1740246907 -705216962
            1165160363 -1897201758 -1481973485 -575971970</internalNodes>
          <leafValues>
            -3.8350605964660645e-01 3.6482638120651245e-01</leafValues></_>
        <_>
          <internalNodes>
            0 -1 91 1877995163 -1999667215 -402686 -885522842 -361268013
            16678741 -170441461 -1535901827</internalNodes>
          <leafValues>
            -3.8748735189437866e-01 3.6065402626991272e-01</leafValues></_>
        <_>
          <internalNodes>
            0 -1 67 682271594 674479008 687822996 -1355874894 1070488948
            1018232761 1173958124 -986351364</internalNodes>
          <leafValues>
            -6.4304399490356445e-01 2.1611812710762024e-01</leafValues></_>
        <_>
          <internalNodes>
            0 -1 62 -1446108668 938901043 788463340 -629227817
            1308558054 -511901954 -1255215516 24240086</internalNodes>
          <leafValues>
            -6.7991077899932861e-01 1.8943609297275543e-01</leafValues></_>
        <_>
          <internalNodes>
            0 -1 32 1261220602 -1846897760 1660896243 -214961440
            -1496317966 -1083524132 1095007645 761199054</internalNodes>
          <leafValues>
            -5.0951236486434937e-01 2.5948756933212280e-01</leafValues></_></weakClassifiers></_></stages>
  <features>
    <_>
      <rect>
        0 0 3 3</rect></_>
    <_>
      <rect>
        0 0 8 3</rect></_>
    <_>
      <rect>
        0 1 1 1</rect></_>
    <_>
      <rect>
        0 2 4 2</rect></_>
    <_>
      <rect>
        0 6 3 4</rect></_>
    <_>
      <rect>
        0 8 4 3</rect></_>
    <_>
      <rect>
        0 9 3 5</rect></_>
    <_>
      <rect>
        0 15 3 2</rect></_>
    <_>
      <rect>
        1 1 1 1</rect></_>
    <_>
      <rect>
        1 4 5 5</rect></_>
    <_>
      <rect>
        1 5 1 5</rect></_>
    <_>
      <rect>
        1 8 2 3</rect></_>
    <_>
      <rect>
        1 15 3 2</rect></_>
    <_>
      <rect>
        2 2 6 5</rect></_>
    <_>
      <rect>
        2 8 1 1</rect></_>
    <_>
      <rect>
        2 9 6 5</rect></_>
    <_>
      <rect>
        2 12 1 1</rect></_>
    <_>
      <rect>
        2 15 5 3</rect></_>
    <_>
      <rect>
        2 16 2 1</rect></_>
    <_>
      <rect>
        3 1 6 1</rect></_>
    <_>
      <rect>
        3 1 7 7</rect></_>
    <_>
      <rect>
        3 2 1 1</rect></_>
    <_>
      <rect>
        3 5 1 3</rect></_>
    <_>
      <rect>
        3 6 1 4</rect></_>
    <_>
      <rect>
        3 9 1 1</rect></_>
    <_>
      <rect>
        3 10 1 3</rect></_>
    <_>
      <rect>
        3 11 1 1</rect></_>
    <_>
      <rect>
        3 12 1 2</rect></_>
    <_>
      <rect>
        3 13 1 1</rect></_>
    <_>
      <rect>
        3 18 1 2</rect></_>
    <_>
      <rect>
        4 0 1 1</rect></_>
    <_>
      <rect>
        4 2 2 1</rect></_>
    <_>
      <rect>
        4 3 3 1</rect></_>
    <_>
      <rect>
        4 3 3 4</rect></_>
    <_>
      <rect>
        4 7 1 1</rect></_>
    <_>
      <rect>
        4 10 1 1</rect></_>
    <_>
      <rect>
        4 10 1 3</rect></_>
    <_>
      <rect>
        4 12 1 2</rect></_>
    <_>
      <rect>
        4 14 1 1</rect></_>
    <_>
      <rect>
        5 1 5 1</rect></_>
    <_>
      <rect>
        5 3 5 3</rect></_>
    <_>
      <rect>
        5 4 1 1</rect></_>
    <_>
      <rect>
        5 20 5 1</rect></_>
    <_>
      <rect>
        6 1 3 1</rect></_>
    <_>
      <rect>
        6 3 4 1</rect></_>
    <_>
      <rect>
        6 4 4 1</rect></_>
    <_>
      <rect>
        6 5 1 1</rect></_>
    <_>
      <rect>
        6 15 1 1</rect></_>
    <_>
      <rect>
        7 3 2 1</rect></_>
    <_>
      <rect>
        7 3 4 1</rect></_>
    <_>
      <rect>
        7 3 5 5</rect></_>
    <_>
      <rect>
        7 4 1 1</rect></_>
    <_>
      <rect>
        7 10 5 4</rect></_>
    <_>
      <rect>
        7 16 1 1</rect></_>
    <_>
      <rect>
        7 18 2 1</rect></_>
    <_>
      <rect>
        7 20 2 1</rect></_>
    <_>
      <rect>
        8 3 1 1</rect></_>
    <_>
      <rect>
        8 3 3 2</rect></_>
    <_>
      <rect>
        8 8 1 1</rect></_>
    <_>
      <rect>
        8 18 1 1</rect></_>
    <_>
      <rect>
        8 18 3 1</rect></_>
    <_>
      <rect>
        8 19 2 1</rect></_>
    <_>
      <rect>
        9 3 5 5</rect></_>
    <_>
      <rect>
        9 11 1 1</rect></_>
    <_>
      <rect>
        9 18 1 1</rect></_>
    <_>
      <rect>
        10 1 2 1</rect></_>
    <_>
      <rect>
        10 4 3 1</rect></_>
    <_>
      <rect>
        10 12 4 3</rect></_>
    <_>
      <rect>
        10 17 3 1</rect></_>
    <_>
      <rect>
        10 18 4 1</rect></_>
    <_>
      <rect>
        11 3 3 3</rect></_>
    <_>
      <rect>
        11 4 3 1</rect></_>
    <_>
      <rect>
        11 11 1 1</rect></_>
    <_>
      <rect>
        11 17 3 1</rect></_>
    <_>
      <rect>
        11 18 2 1</rect></_>
    <_>
      <rect>
        12 2 1 1</rect></_>
    <_>
      <rect>
        12 3 1 1</rect></_>
    <_>
      <rect>
        12 9 3 4</rect></_>
    <_>
      <rect>
        12 13 3 2</rect></_>
    <_>
      <rect>
        12 17 1 1</rect></_>
    <_>
      <rect>
        12 18 1 1</rect></_>
    <_>
      <rect>
        12 19 2 1</rect></_>
    <_>
      <rect>
        13 3 1 1</rect></_>
    <_>
      <rect>
        13 11 1 1</rect></_>
    <_>
      <rect>
        13 18 1 1</rect></_>
    <_>
      <rect>
        13 20 1 1</rect></_>
    <_>
      <rect>
        14 1 3 3</rect></_>
    <_>
      <rect>
        14 3 1 1</rect></_>
    <_>
      <rect>
        14 5 1 1</rect></_>
    <_>
      <rect>
        15 2 3 3</rect></_>
    <_>
      <rect>
        15 14 2 3</rect></_>
    <_>
      <rect>
        15 14 3 2</rect></_>
    <_>
      <rect>
        15 16 1 1</rect></_>
    <_>
      <rect>
        15 19 3 1</rect></_>
    <_>
      <rect>
        16 7 1 1</rect></_>
    <_>
      <rect>
        17 5 1 3</rect></_>
    <_>
      <rect>
        17 7 1 1</rect></_>
    <_>
      <rect>
        17 8 1 1</rect></_>
    <_>
      <rect>
        17 11 1 1</rect></_>
    <_>
      <rect>
        17 13 1 1</rect></_>
    <_>
      <rect>
        18 1 2 3</rect></_>
    <_>
      <rect>
        18 5 1 5</rect></_>
    <_>
      <rect>
        18 6 1 4</rect></_>
    <_>
      <rect>
        18 7 1 2</rect></_>
    <_>
      <rect>
        18 9 1 1</rect></_>
    <_>
      <rect>
        18 10 1 1</rect></_>
    <_>
      <rect>
        18 13 1 1</rect></_>
    <_>
      <rect>
        19 5 1 5</rect></_>
    <_>
      <rect>
        19 12 1 1</rect></_>
    <_>
      <rect>
        20 11 1 2</rect></_>
    <_>
      <rect>
        20 20 1 1</rect></_></features></cascade>
</opencv_storage>
