<?xml version="1.0"?>
<opencv_storage>
<stage1>
  <maxWeakCount>8</maxWeakCount>
  <stageThreshold>-2.5806262493133545e+00</stageThreshold>
  <weakClassifiers>
    <_>
      <internalNodes>
        0 -1 2115 -1 -1 -17409 -1 -1 -2228225 -1 -1</internalNodes>
      <leafValues>
        -9.3302792310714722e-01 6.0396039485931396e-01</leafValues></_>
    <_>
      <internalNodes>
        0 -1 7124 -201335201 -71827625 -42468353 -82051301 -16803873
        -16787497 -536884277 -1141112961</internalNodes>
      <leafValues>
        -7.3700976371765137e-01 8.0707035958766937e-02</leafValues></_>
    <_>
      <internalNodes>
        0 -1 4466 -129893632 -681099446 1171193835 2139569783 -142831957
        2113666805 -1862484517 208617199</internalNodes>
      <leafValues>
        -6.1163347959518433e-01 2.0933045446872711e-01</leafValues></_>
    <_>
      <internalNodes>
        0 -1 6336 1022895421 737034109 -268435733 1861164396 -1145116835
        -11108995 -1091666056 -1397704908</internalNodes>
      <leafValues>
        -5.4241627454757690e-01 3.2840982079505920e-01</leafValues></_>
    <_>
      <internalNodes>
        0 -1 2486 -218136798 728694143 -285551902 -1562312991 1879013214
        107454295 2013232948 1651963732</internalNodes>
      <leafValues>
        -7.3949295282363892e-01 2.3060481250286102e-01</leafValues></_>
    <_>
      <internalNodes>
        0 -1 6681 408351158 590917371 788217568 -1917978692 493463989
        1017998335 -1661897528 769103258</internalNodes>
      <leafValues>
        -5.9861475229263306e-01 2.9669782519340515e-01</leafValues></_>
    <_>
      <internalNodes>
        0 -1 792 748698993 796278781 2130685535 -285278210 -1821022339
        -554237969 -1484958379 -1661175852</internalNodes>
      <leafValues>
        -5.4110974073410034e-01 3.0952695012092590e-01</leafValues></_>
    <_>
      <internalNodes>
        0 -1 2765 -1423439432 493674465 -295209 -1250694546 -1892904980
        2147401719 515685052 1432698161</internalNodes>
      <leafValues>
        -6.1355793476104736e-01 3.0094045400619507e-01</leafValues></_></weakClassifiers></stage1>
</opencv_storage>
