<?xml version="1.0"?>
<opencv_storage>
<stage5>
  <maxWeakCount>9</maxWeakCount>
  <stageThreshold>-2.5388410091400146e+00</stageThreshold>
  <weakClassifiers>
    <_>
      <internalNodes>
        0 -1 985 -1 -33554945 -513 -536870913 -1 -1 -4194369 -1</internalNodes>
      <leafValues>
        -9.3329453468322754e-01 3.0232557654380798e-01</leafValues></_>
    <_>
      <internalNodes>
        0 -1 4455 -551289857 -37904397 1173565437 2113918653 -622143494
        -6624528 -626000897 -4199425</internalNodes>
      <leafValues>
        -7.2783607244491577e-01 7.1705155074596405e-02</leafValues></_>
    <_>
      <internalNodes>
        0 -1 7421 -760487674 1946074714 -50431139 826373879 -554212479
        -1166639236 -608211826 -1304956941</internalNodes>
      <leafValues>
        -5.3728061914443970e-01 2.0083141326904297e-01</leafValues></_>
    <_>
      <internalNodes>
        0 -1 7968 -1895040212 -1327039012 -1023459292 -17039427
        623437778 622919007 1434146725 1709171033</internalNodes>
      <leafValues>
        -6.0696738958358765e-01 2.3026005923748016e-01</leafValues></_>
    <_>
      <internalNodes>
        0 -1 470 -36393182 811874108 2113805996 1843576574 2130066940
        1450668023 917133132 1062299259</internalNodes>
      <leafValues>
        -6.1949676275253296e-01 2.2970400750637054e-01</leafValues></_>
    <_>
      <internalNodes>
        0 -1 4894 -2002758160 234876274 -149507 -274067660 229390829
        -1493172289 666711986 799802653</internalNodes>
      <leafValues>
        -6.3385528326034546e-01 2.5130015611648560e-01</leafValues></_>
    <_>
      <internalNodes>
        0 -1 7006 779775589 675213170 -1359422037 -1393099273
        -1100391119 1560281071 670724960 -1906561708</internalNodes>
      <leafValues>
        -5.9278833866119385e-01 2.5615647435188293e-01</leafValues></_>
    <_>
      <internalNodes>
        0 -1 6200 -629442984 891748233 382402171 308999763 463384256
        -1426615716 -50672482 54124061</internalNodes>
      <leafValues>
        -5.7460600137710571e-01 2.5286138057708740e-01</leafValues></_>
    <_>
      <internalNodes>
        0 -1 4252 -420213500 -1502711828 -1091534852 1624144764 -6529980
        -9797811 2139059647 -1354883469</internalNodes>
      <leafValues>
        -5.7014805078506470e-01 2.6274392008781433e-01</leafValues></_></weakClassifiers></stage5>
</opencv_storage>
