<?xml version="1.0"?>
<opencv_storage>
<stage3>
  <maxWeakCount>8</maxWeakCount>
  <stageThreshold>-2.5464577674865723e+00</stageThreshold>
  <weakClassifiers>
    <_>
      <internalNodes>
        0 -1 3296 -1 -1 -52225 -1 -1 -2293761 -1 -5121</internalNodes>
      <leafValues>
        -9.3568879365921021e-01 1.8857142329216003e-01</leafValues></_>
    <_>
      <internalNodes>
        0 -1 2314 -69482565 -541066893 1245305213 488471931 -927362342
        -18121003 -675291413 -536871509</internalNodes>
      <leafValues>
        -7.5542414188385010e-01 -5.0455212593078613e-02</leafValues></_>
    <_>
      <internalNodes>
        0 -1 2634 937191293 771579253 -1145536587 799550321 -277590020
        1996453247 -1099367704 -1373848071</internalNodes>
      <leafValues>
        -6.0890251398086548e-01 1.4563098549842834e-01</leafValues></_>
    <_>
      <internalNodes>
        0 -1 58 -755193822 -136319105 -268847115 -35657863 -1537221634
        -1196622857 -34246993 134741835</internalNodes>
      <leafValues>
        -4.4808581471443176e-01 3.3179703354835510e-01</leafValues></_>
    <_>
      <internalNodes>
        0 -1 3040 1862192663 -293852189 -520126782 854256766 -338438330
        1160116167 1979154256 -403442062</internalNodes>
      <leafValues>
        -4.9953037500381470e-01 3.2678455114364624e-01</leafValues></_>
    <_>
      <internalNodes>
        0 -1 7596 1866442280 -1343344800 905752560 1969291128 720177854
        1811790588 905789400 1333201499</internalNodes>
      <leafValues>
        -5.7325303554534912e-01 2.8790849447250366e-01</leafValues></_>
    <_>
      <internalNodes>
        0 -1 8370 1022103357 -1543636374 -1375823239 -834887948
        1962884892 -1476460809 -1241571467 -1326691260</internalNodes>
      <leafValues>
        -5.2585494518280029e-01 2.9572975635528564e-01</leafValues></_>
    <_>
      <internalNodes>
        0 -1 1963 -134757746 1634627311 -408404304 -352145681 1700218285
        1467960693 1933047532 1730166647</internalNodes>
      <leafValues>
        -6.2750053405761719e-01 2.4637907743453979e-01</leafValues></_></weakClassifiers></stage3>
</opencv_storage>
