<?xml version="1.0"?>
<opencv_storage>
<stage7>
  <maxWeakCount>8</maxWeakCount>
  <stageThreshold>-2.6547224521636963e+00</stageThreshold>
  <weakClassifiers>
    <_>
      <internalNodes>
        0 -1 1303 -1 -2061 -268435457 -1 -1 -13 -805306369 -1</internalNodes>
      <leafValues>
        -9.3701195716857910e-01 2.9161299583491330e-17</leafValues></_>
    <_>
      <internalNodes>
        0 -1 4441 -579150337 -45132291 -67412545 -415692 1546317311
        -50659843 -1649868801 -72615189</internalNodes>
      <leafValues>
        -7.4306529760360718e-01 5.0955479964613914e-03</leafValues></_>
    <_>
      <internalNodes>
        0 -1 6780 822279569 -1112715927 -1074823175 -76138759
        -1224820747 -1410351651 1052380652 -1900192384</internalNodes>
      <leafValues>
        -5.2915579080581665e-01 1.8312348425388336e-01</leafValues></_>
    <_>
      <internalNodes>
        0 -1 7189 1156062216 1006124785 -436421084 942964479 -285728852
        -583565813 -1116061955 1745383097</internalNodes>
      <leafValues>
        -6.8806296586990356e-01 1.8536920845508575e-01</leafValues></_>
    <_>
      <internalNodes>
        0 -1 142 1311699544 1825451952 -284754025 723942982 -990965514
        1307532493 1976522612 2011776839</internalNodes>
      <leafValues>
        -6.3581007719039917e-01 2.3827932775020599e-01</leafValues></_>
    <_>
      <internalNodes>
        0 -1 5230 -806816172 1755565533 -1104056577 905532357
        -1567912708 -578916866 712271356 272056429</internalNodes>
      <leafValues>
        -5.8597755432128906e-01 2.2236202657222748e-01</leafValues></_>
    <_>
      <internalNodes>
        0 -1 5574 791043565 687537797 -285311041 -1023494226 1063157092
        1174372127 -1091006700 -1829708427</internalNodes>
      <leafValues>
        -5.1363867521286011e-01 2.9393365979194641e-01</leafValues></_>
    <_>
      <internalNodes>
        0 -1 8347 -1528304402 1014411186 -352419848 -1331224715
        -1489279571 123925971 1340984526 1710161223</internalNodes>
      <leafValues>
        -5.1134413480758667e-01 2.8537157177925110e-01</leafValues></_></weakClassifiers></stage7>
</opencv_storage>
