<?xml version="1.0"?>
<opencv_storage>
<stage8>
  <maxWeakCount>6</maxWeakCount>
  <stageThreshold>-2.4677391052246094e+00</stageThreshold>
  <weakClassifiers>
    <_>
      <internalNodes>
        0 -1 6422 -1 -2097153 -10241 -33595393 -344129 -262145 -262145
        -1</internalNodes>
      <leafValues>
        -9.3828928470611572e-01 5.8823529630899429e-02</leafValues></_>
    <_>
      <internalNodes>
        0 -1 2423 -353376282 -470832160 -1325424016 -136452378
        -277874865 -2032797882 -721487893 -134219817</internalNodes>
      <leafValues>
        -8.2557821273803711e-01 -1.2592051923274994e-01</leafValues></_>
    <_>
      <internalNodes>
        0 -1 7730 -87931868 -364949682 449754864 550715003 -176243100
        306541405 -425468194 -156578539</internalNodes>
      <leafValues>
        -6.9691175222396851e-01 1.8807840347290039e-01</leafValues></_>
    <_>
      <internalNodes>
        0 -1 1744 -290784382 1626126970 -218242334 -1325435405 103047045
        1159060749 -956368954 -697395484</internalNodes>
      <leafValues>
        -5.9420275688171387e-01 3.0713146924972534e-01</leafValues></_>
    <_>
      <internalNodes>
        0 -1 3130 -93450682 -1862396666 -352711108 342581229 -1122427584
        1684991103 -487620700 -1340375371</internalNodes>
      <leafValues>
        -6.3292235136032104e-01 2.7600115537643433e-01</leafValues></_>
    <_>
      <internalNodes>
        0 -1 6528 -844063624 1056800141 -1103384586 -1178788488
        -1380139460 -134283780 -1212486468 -1171124996</internalNodes>
      <leafValues>
        -5.1067012548446655e-01 3.3517500758171082e-01</leafValues></_></weakClassifiers></stage8>
</opencv_storage>
