<?xml version="1.0"?>
<opencv_storage>
<stage6>
  <maxWeakCount>8</maxWeakCount>
  <stageThreshold>-2.2256088256835938e+00</stageThreshold>
  <weakClassifiers>
    <_>
      <internalNodes>
        0 -1 3764 -201327617 -1 -134217729 -1 -16777217 -17 -1 -49</internalNodes>
      <leafValues>
        -9.3540436029434204e-01 1.2707182765007019e-01</leafValues></_>
    <_>
      <internalNodes>
        0 -1 3130 -76554289 -604088833 -88465858 -536911921 -12853297
        2087119999 -68157505 -67108865</internalNodes>
      <leafValues>
        -7.4317091703414917e-01 -2.9795790091156960e-02</leafValues></_>
    <_>
      <internalNodes>
        0 -1 8118 -608223478 -135360603 -1493802332 -261165318
        2111766082 1308858191 -1225867274 -195560353</internalNodes>
      <leafValues>
        -5.6240916252136230e-01 1.6555385291576385e-01</leafValues></_>
    <_>
      <internalNodes>
        0 -1 6058 -893939072 66582264 -169906863 1507785696 262142872
        283874267 2128453609 167574332</internalNodes>
      <leafValues>
        -5.7710963487625122e-01 2.3788294196128845e-01</leafValues></_>
    <_>
      <internalNodes>
        0 -1 7924 1857975372 1877763790 1786161832 840613725 2138712776
        897580879 -530172330 1881461861</internalNodes>
      <leafValues>
        -7.7751988172531128e-01 1.7255562543869019e-01</leafValues></_>
    <_>
      <internalNodes>
        0 -1 433 1727474268 950267426 -281405944 -1783174420 -615557266
        846459702 -153437114 1884550983</internalNodes>
      <leafValues>
        -6.3729643821716309e-01 2.4444350600242615e-01</leafValues></_>
    <_>
      <internalNodes>
        0 -1 5044 70135596 753692472 2092400183 -1141215498 2146647393
        636419581 -218663915 -1598110251</internalNodes>
      <leafValues>
        -6.0458117723464966e-01 2.3056094348430634e-01</leafValues></_>
    <_>
      <internalNodes>
        0 -1 3982 -1373444192 1721696224 -1090541968 -79822895 696251895
        -1922187283 -1212909657 619535765</internalNodes>
      <leafValues>
        -6.1467313766479492e-01 2.3294952511787415e-01</leafValues></_></weakClassifiers></stage6>
</opencv_storage>
