<?xml version="1.0"?>
<opencv_storage>
<stage11>
  <maxWeakCount>8</maxWeakCount>
  <stageThreshold>-2.3557887077331543e+00</stageThreshold>
  <weakClassifiers>
    <_>
      <internalNodes>
        0 -1 6788 -1 -10757 -513 -2595 -1140850689 -4198401 -4456453 -1</internalNodes>
      <leafValues>
        -9.3985646963119507e-01 2.9629629105329514e-02</leafValues></_>
    <_>
      <internalNodes>
        0 -1 2271 -3333 -69996385 1349710527 -614731461 -540026982
        -310713935 -569403169 -3148833</internalNodes>
      <leafValues>
        -7.4581837654113770e-01 1.8473474681377411e-01</leafValues></_>
    <_>
      <internalNodes>
        0 -1 8258 -812910162 -1750958134 -86507552 -786959748 -15802739
        134135775 939443642 -740296321</internalNodes>
      <leafValues>
        -5.0363570451736450e-01 2.8705260157585144e-01</leafValues></_>
    <_>
      <internalNodes>
        0 -1 7629 -4264615 -2101411905 -271087 -855705647 -2051047492
        -1360596993 -1275734096 -1610613315</internalNodes>
      <leafValues>
        -3.8416808843612671e-01 3.6555147171020508e-01</leafValues></_>
    <_>
      <internalNodes>
        0 -1 5219 -121977308 -348894884 1400569843 2004572889
        -1080300299 -1149296946 -1363834689 -1153824805</internalNodes>
      <leafValues>
        -3.8740581274032593e-01 3.7997734546661377e-01</leafValues></_>
    <_>
      <internalNodes>
        0 -1 2817 -1967210710 -1229800144 -172130 -25206990 -329434256
        -270287876 771126136 1360275060</internalNodes>
      <leafValues>
        -7.7096652984619141e-01 1.9248008728027344e-01</leafValues></_>
    <_>
      <internalNodes>
        0 -1 4469 -7615006 -3428892 -1755937967 -822790343 233439165
        -2014849160 935671806 -1616241245</internalNodes>
      <leafValues>
        -3.6235961318016052e-01 4.0777912735939026e-01</leafValues></_>
    <_>
      <internalNodes>
        0 -1 5223 1739317946 240602768 -1655399203 2088756470 1330013874
        -931326084 -1959115020 305556798</internalNodes>
      <leafValues>
        -6.7578393220901489e-01 2.2131906449794769e-01</leafValues></_></weakClassifiers></stage11>
</opencv_storage>
