<?xml version="1.0"?>
<opencv_storage>
<stage10>
  <maxWeakCount>7</maxWeakCount>
  <stageThreshold>-2.4745934009552002e+00</stageThreshold>
  <weakClassifiers>
    <_>
      <internalNodes>
        0 -1 4761 -69206017 -4641 -675291169 -1 -4195329 -4196097
        -5784577 -1025</internalNodes>
      <leafValues>
        -9.3739873170852661e-01 3.8461539149284363e-01</leafValues></_>
    <_>
      <internalNodes>
        0 -1 2950 -205522949 -777014870 1475077883 -167929767 -71581701
        -983733854 -1243962993 -8305</internalNodes>
      <leafValues>
        -7.5558692216873169e-01 2.8279635310173035e-01</leafValues></_>
    <_>
      <internalNodes>
        0 -1 7914 -156516202 -706788670 1090255462 -798787646
        -1010579776 1364884559 -1224017238 -477105202</internalNodes>
      <leafValues>
        -5.6886875629425049e-01 3.2654169201850891e-01</leafValues></_>
    <_>
      <internalNodes>
        0 -1 6500 -559276840 -63144618 362535637 825907693 -1164251920
        -537013931 -1698821473 -2026172201</internalNodes>
      <leafValues>
        -5.1858878135681152e-01 3.7221801280975342e-01</leafValues></_>
    <_>
      <internalNodes>
        0 -1 7069 -39136880 -546678870 -1443802255 -537579020 -176095233
        -2002747606 351883671 -1682237999</internalNodes>
      <leafValues>
        -4.4101652503013611e-01 4.0794506669044495e-01</leafValues></_>
    <_>
      <internalNodes>
        0 -1 4775 -122436874 -98095114 -222560335 1941126501 -1613331226
        -25215227 -218248996 -717641749</internalNodes>
      <leafValues>
        -3.9034336805343628e-01 4.6235057711601257e-01</leafValues></_>
    <_>
      <internalNodes>
        0 -1 1107 1677695522 2013122170 1841290043 355524570 -2090702286
        -140847389 1568135608 100767207</internalNodes>
      <leafValues>
        -6.0255867242813110e-01 3.2042890787124634e-01</leafValues></_></weakClassifiers></stage10>
</opencv_storage>
