<?xml version="1.0"?>
<opencv_storage>
<stage9>
  <maxWeakCount>7</maxWeakCount>
  <stageThreshold>-2.1995911598205566e+00</stageThreshold>
  <weakClassifiers>
    <_>
      <internalNodes>
        0 -1 2460 -1 -2098177 454555511 -2622497 -68162817 -607138582
        -136840193 -1</internalNodes>
      <leafValues>
        -9.4086682796478271e-01 3.7440758943557739e-01</leafValues></_>
    <_>
      <internalNodes>
        0 -1 8099 -201592069 -142105910 -212442983 -211812513 -221512453
        -901131628 -753409317 -3146785</internalNodes>
      <leafValues>
        -7.6380503177642822e-01 3.8790905475616455e-01</leafValues></_>
    <_>
      <internalNodes>
        0 -1 3089 -109329214 1506783148 547268248 1395091213 -211975030
        92422376 1362294783 1566561898</internalNodes>
      <leafValues>
        -6.4281660318374634e-01 3.0794551968574524e-01</leafValues></_>
    <_>
      <internalNodes>
        0 -1 6874 -541355788 -1645400306 1056682450 1904172615
        -1133913430 -805503660 1005776606 -216851361</internalNodes>
      <leafValues>
        -4.6311756968498230e-01 4.8871460556983948e-01</leafValues></_>
    <_>
      <internalNodes>
        0 -1 8152 -134743358 -1276396630 1723761904 -134763274
        -1079837278 1695022372 393662366 -781193281</internalNodes>
      <leafValues>
        -4.0647333860397339e-01 5.3915619850158691e-01</leafValues></_>
    <_>
      <internalNodes>
        0 -1 7609 -167585312 -605323358 -21072911 -1289364040
        -1342378038 -1882259489 980874731 -1612752726</internalNodes>
      <leafValues>
        -3.8991022109985352e-01 5.4344487190246582e-01</leafValues></_>
    <_>
      <internalNodes>
        0 -1 2542 -72421146 -127157522 1962082096 1513351098 -285553644
        1292848719 -1221397798 -942422801</internalNodes>
      <leafValues>
        -4.6258029341697693e-01 4.7404327988624573e-01</leafValues></_></weakClassifiers></stage9>
</opencv_storage>
