<?xml version="1.0"?>
<opencv_storage>
<stage13>
  <maxWeakCount>8</maxWeakCount>
  <stageThreshold>-2.2773134708404541e+00</stageThreshold>
  <weakClassifiers>
    <_>
      <internalNodes>
        0 -1 2129 -5242881 -1 -2097153 -513 -1 -257 -1 -2561</internalNodes>
      <leafValues>
        -9.3741458654403687e-01 3.9301309734582901e-02</leafValues></_>
    <_>
      <internalNodes>
        0 -1 2314 -2104325 -1541 1262082431 1565522427 -642010374
        -18154798 -541075477 -536870913</internalNodes>
      <leafValues>
        -7.3604822158813477e-01 1.1593253910541534e-01</leafValues></_>
    <_>
      <internalNodes>
        0 -1 8227 -109333281 -1141708098 1383849053 1601112447
        -402948898 -218616074 1935144414 -478679329</internalNodes>
      <leafValues>
        -4.1302993893623352e-01 3.7969845533370972e-01</leafValues></_>
    <_>
      <internalNodes>
        0 -1 6048 2077378672 1798849338 1492941247 1359087598 -537512237
        -1423607878 1216238660 1440474486</internalNodes>
      <leafValues>
        -6.0249441862106323e-01 2.1710251271724701e-01</leafValues></_>
    <_>
      <internalNodes>
        0 -1 5743 -274500576 -1379774967 570321913 2063310589
        -1694369860 -1103176347 -1579700234 280712694</internalNodes>
      <leafValues>
        -5.6744921207427979e-01 2.2833956778049469e-01</leafValues></_>
    <_>
      <internalNodes>
        0 -1 5832 -4989352 150798148 1473965021 319802741 2065573888
        -34146230 276487050 2054509438</internalNodes>
      <leafValues>
        -5.0508856773376465e-01 2.7991351485252380e-01</leafValues></_>
    <_>
      <internalNodes>
        0 -1 6743 -1154482465 804965979 1878621680 -805360948 -41955117
        -868909072 1595211444 -1737558147</internalNodes>
      <leafValues>
        -4.0240642428398132e-01 3.5483840107917786e-01</leafValues></_>
    <_>
      <internalNodes>
        0 -1 2515 2076127910 -1666487036 -1946716557 -886278373
        -1211176710 667749704 1118926143 -142959118</internalNodes>
      <leafValues>
        -4.4835728406906128e-01 3.2748639583587646e-01</leafValues></_></weakClassifiers></stage13>
</opencv_storage>
