<?xml version="1.0"?>
<opencv_storage>
<stage12>
  <maxWeakCount>8</maxWeakCount>
  <stageThreshold>-2.5144560337066650e+00</stageThreshold>
  <weakClassifiers>
    <_>
      <internalNodes>
        0 -1 5679 -1 -32769 -1 -8705 -5505025 -1 -1 -1</internalNodes>
      <leafValues>
        -9.3392813205718994e-01 3.4848484396934509e-01</leafValues></_>
    <_>
      <internalNodes>
        0 -1 7892 -1281 -572527889 -1083180077 -10487345 -268440833
        -542142741 -12585989 -10485761</internalNodes>
      <leafValues>
        -7.1448713541030884e-01 2.9493552446365356e-01</leafValues></_>
    <_>
      <internalNodes>
        0 -1 3042 -901000197 -309072574 1513256895 1160308471 -604285702
        1533046014 -566890773 -545260546</internalNodes>
      <leafValues>
        -4.2317101359367371e-01 3.6542233824729919e-01</leafValues></_>
    <_>
      <internalNodes>
        0 -1 1870 -1176570654 1213066062 -486640990 722563051
        -1476405164 1163918942 -1024207935 1714349876</internalNodes>
      <leafValues>
        -6.7438101768493652e-01 2.2330099344253540e-01</leafValues></_>
    <_>
      <internalNodes>
        0 -1 18 653138983 -1005715457 -4109 -1375993934 132957479
        -268582921 -806914443 -1024174812</internalNodes>
      <leafValues>
        -5.3320205211639404e-01 2.7896434068679810e-01</leafValues></_>
    <_>
      <internalNodes>
        0 -1 8029 209395718 -285615138 -150995858 1681850302 1493072133
        2120219945 -34920625 1622195750</internalNodes>
      <leafValues>
        -6.4650219678878784e-01 2.5062716007232666e-01</leafValues></_>
    <_>
      <internalNodes>
        0 -1 647 746546077 -1430243585 -1427321726 -285442373 -545817551
        -1250787727 2146821899 -54299019</internalNodes>
      <leafValues>
        -4.6757221221923828e-01 3.1705957651138306e-01</leafValues></_>
    <_>
      <internalNodes>
        0 -1 4909 -1212372480 -1435009335 733947756 1643936668
        -694669324 -1476477061 -537052125 810596908</internalNodes>
      <leafValues>
        -7.3504239320755005e-01 1.9251240789890289e-01</leafValues></_></weakClassifiers></stage12>
</opencv_storage>
