<?xml version="1.0"?>
<opencv_storage>
<cascade>
  <stageType>BOOST</stageType>
  <featureType>LBP</featureType>
  <height>24</height>
  <width>24</width>
  <stageParams>
    <boostType>GAB</boostType>
    <minHitRate>9.9500000476837158e-01</minHitRate>
    <maxFalseAlarm>5.0000000000000000e-01</maxFalseAlarm>
    <weightTrimRate>9.4999999999999996e-01</weightTrimRate>
    <maxDepth>1</maxDepth>
    <maxWeakCount>100</maxWeakCount></stageParams>
  <featureParams>
    <maxCatCount>256</maxCatCount>
    <featSize>1</featSize></featureParams>
  <stageNum>14</stageNum>
  <stages>
    <!-- stage 0 -->
    <_>
      <maxWeakCount>7</maxWeakCount>
      <stageThreshold>-1.9592834711074829e+00</stageThreshold>
      <weakClassifiers>
        <_>
          <internalNodes>
            0 -1 41 -8388609 -2049 -52225 -1 -1 -2293793 -1 -1</internalNodes>
          <leafValues>
            -9.1551280021667480e-01 4.0999999642372131e-01</leafValues></_>
        <_>
          <internalNodes>
            0 -1 22 -36439074 -171976711 -1014396929 -541362233
            -834863105 1599324670 -1583510881 2136996859</internalNodes>
          <leafValues>
            -7.4949109554290771e-01 1.3288511335849762e-01</leafValues></_>
        <_>
          <internalNodes>
            0 -1 11 -522001722 1965273000 -271290834 -605614300
            243240668 2121819581 1114587118 1430599543</internalNodes>
          <leafValues>
            -6.5551811456680298e-01 2.3054602742195129e-01</leafValues></_>
        <_>
          <internalNodes>
            0 -1 58 1564341704 -1248775495 -2049039176 -1355941314
            367894013 690060218 1153239480 960213211</internalNodes>
          <leafValues>
            -5.3158682584762573e-01 3.4627598524093628e-01</leafValues></_>
        <_>
          <internalNodes>
            0 -1 56 -119013376 -1107480721 -858412681 1060871115
            -1135830579 -1897058385 -352486594 154770186</internalNodes>
          <leafValues>
            -5.9338873624801636e-01 3.2474395632743835e-01</leafValues></_>
        <_>
          <internalNodes>
            0 -1 15 -644160386 425754226 2079386386 498086450 76297432
            1727951743 2110158812 2021067591</internalNodes>
          <leafValues>
            -5.4608720541000366e-01 3.1037560105323792e-01</leafValues></_>
        <_>
          <internalNodes>
            0 -1 23 -135857498 -573596182 854488696 -805376080 511893450
            641808359 667489535 1425876455</internalNodes>
          <leafValues>
            -5.3678220510482788e-01 2.9797565937042236e-01</leafValues></_></weakClassifiers></_>
    <!-- stage 1 -->
    <_>
      <maxWeakCount>8</maxWeakCount>
      <stageThreshold>-2.3842484951019287e+00</stageThreshold>
      <weakClassifiers>
        <_>
          <internalNodes>
            0 -1 20 -2097153 -1 -2114561 -1 -1 -2228225 -1 -1</internalNodes>
          <leafValues>
            -9.1164451837539673e-01 5.8823531866073608e-01</leafValues></_>
        <_>
          <internalNodes>
            0 -1 83 -205529265 -72089737 -42476673 -1155793121 -16803873
            -10273 -872428853 -1162088449</internalNodes>
          <leafValues>
            -6.7883300781250000e-01 9.7440749406814575e-02</leafValues></_>
        <_>
          <internalNodes>
            0 -1 1 188493693 796901375 1610571775 -1360072780 159088469
            -8521233 -268475020 -1393545804</internalNodes>
          <leafValues>
            -5.6825459003448486e-01 2.5898528099060059e-01</leafValues></_>
        <_>
          <internalNodes>
            0 -1 21 -1040910392 2111241758 1031208181 1979038449
            -1426926877 -1342460290 357412255 813512483</internalNodes>
          <leafValues>
            -5.5009937286376953e-01 2.9349955916404724e-01</leafValues></_>
        <_>
          <internalNodes>
            0 -1 71 947389757 799809341 -286277899 787291492 -1275173026
            -1084293761 -1093763216 -1466681548</internalNodes>
          <leafValues>
            -5.2832782268524170e-01 2.9297104477882385e-01</leafValues></_>
        <_>
          <internalNodes>
            0 -1 72 -1405985464 -1883275559 -237697 -76126219
            -1380573187 -562102273 -1415594500 750280148</internalNodes>
          <leafValues>
            -5.6645059585571289e-01 2.8704780340194702e-01</leafValues></_>
        <_>
          <internalNodes>
            0 -1 81 212364785 -1921376272 -151003651 -268927692
            -1095112977 -1343250435 535330165 -1124178731</internalNodes>
          <leafValues>
            -4.2806875705718994e-01 3.5141646862030029e-01</leafValues></_>
        <_>
          <internalNodes>
            0 -1 27 1827490886 110033743 -153443808 842562899 1306295628
            1179545423 -1082175068 1996226159</internalNodes>
          <leafValues>
            -6.2915235757827759e-01 2.4632157385349274e-01</leafValues></_></weakClassifiers></_>
    <!-- stage 2 -->
    <_>
      <maxWeakCount>8</maxWeakCount>
      <stageThreshold>-2.4638326168060303e+00</stageThreshold>
      <weakClassifiers>
        <_>
          <internalNodes>
            0 -1 46 -201326593 -1 -134217729 -1 -1 -16401 -1 -49</internalNodes>
          <leafValues>
            -9.1377872228622437e-01 3.4391534328460693e-01</leafValues></_>
        <_>
          <internalNodes>
            0 -1 48 -15992833 -6340934 1530753503 2103303839 -319820040
            -4259896 1325263871 -280101</internalNodes>
          <leafValues>
            -6.7343991994857788e-01 1.0687693208456039e-01</leafValues></_>
        <_>
          <internalNodes>
            0 -1 116 631783285 -1392575067 -335581396 -1364017304
            2138336605 805273599 -4964908 -323720144</internalNodes>
          <leafValues>
            -5.5996650457382202e-01 2.0442031323909760e-01</leafValues></_>
        <_>
          <internalNodes>
            0 -1 65 -123414972 -552747196 -1102204946 1931226883
            150714098 1979577212 -1598536454 4845839</internalNodes>
          <leafValues>
            -5.5180847644805908e-01 2.4288609623908997e-01</leafValues></_>
        <_>
          <internalNodes>
            0 -1 111 1860576774 796813127 -486592416 -219501393
            -956838074 392691277 1424946532 1152905202</internalNodes>
          <leafValues>
            -6.7064988613128662e-01 1.9558459520339966e-01</leafValues></_>
        <_>
          <internalNodes>
            0 -1 73 -1901011684 -1094878019 -1120145409 -1199104648
            -1346838787 -98948 -1514603332 -1128653264</internalNodes>
          <leafValues>
            -4.1538581252098083e-01 3.4042763710021973e-01</leafValues></_>
        <_>
          <internalNodes>
            0 -1 17 787615236 1022132203 -50450802 1622310829 2122057244
            1182236543 -42181275 -1569685683</internalNodes>
          <leafValues>
            -6.2031352519989014e-01 2.3466409742832184e-01</leafValues></_>
        <_>
          <internalNodes>
            0 -1 31 189038832 -1716616288 587154419 -181931496
            -1508909610 -1343504388 1204579485 608551838</internalNodes>
          <leafValues>
            -5.4408860206604004e-01 2.4583920836448669e-01</leafValues></_></weakClassifiers></_>
    <!-- stage 3 -->
    <_>
      <maxWeakCount>9</maxWeakCount>
      <stageThreshold>-2.1853988170623779e+00</stageThreshold>
      <weakClassifiers>
        <_>
          <internalNodes>
            0 -1 93 -1 -1 -129 -1 -1 -83886081 -1 -1</internalNodes>
          <leafValues>
            -9.1262632608413696e-01 4.0963855385780334e-01</leafValues></_>
        <_>
          <internalNodes>
            0 -1 52 -189271301 -69522885 -194716931 -579340993
            -549474117 -68207201 -564396289 -549584949</internalNodes>
          <leafValues>
            -6.8252974748611450e-01 6.2778107821941376e-02</leafValues></_>
        <_>
          <internalNodes>
            0 -1 35 -285217277 -429085977 -251857214 -218563242
            -338165938 203814855 -134742187 -452987309</internalNodes>
          <leafValues>
            -4.6451187133789063e-01 2.4541655182838440e-01</leafValues></_>
        <_>
          <internalNodes>
            0 -1 3 2087762658 2138087402 -151122324 388263550 1735810520
            896876351 -17390082 909446874</internalNodes>
          <leafValues>
            -5.5435591936111450e-01 2.3893974721431732e-01</leafValues></_>
        <_>
          <internalNodes>
            0 -1 59 -1995417228 -1405984772 -41943555 -1108120099
            225472223 -440680450 455900629 -1632627283</internalNodes>
          <leafValues>
            -4.7253772616386414e-01 2.7499762177467346e-01</leafValues></_>
        <_>
          <internalNodes>
            0 -1 80 237788320 209747664 -805374874 -1881588356 -4399115
            -843661417 498739424 212743417</internalNodes>
          <leafValues>
            -6.4541673660278320e-01 2.3239424824714661e-01</leafValues></_>
        <_>
          <internalNodes>
            0 -1 110 1543446284 -143749239 -1493736796 -1602425094
            2095041607 201529167 -1091127306 -186188673</internalNodes>
          <leafValues>
            -4.6376764774322510e-01 2.8388565778732300e-01</leafValues></_>
        <_>
          <internalNodes>
            0 -1 8 -2145220448 -157098257 -1275277359 -1208641156
            -849492564 -17979473 1405429647 1293358097</internalNodes>
          <leafValues>
            -5.4828518629074097e-01 2.4779719114303589e-01</leafValues></_>
        <_>
          <internalNodes>
            0 -1 74 208934660 619323083 -17391617 -2030388241 1056862057
            2013265787 -8962492 -1598931340</internalNodes>
          <leafValues>
            -5.5967509746551514e-01 2.3025530576705933e-01</leafValues></_></weakClassifiers></_>
    <!-- stage 4 -->
    <_>
      <maxWeakCount>8</maxWeakCount>
      <stageThreshold>-2.4424245357513428e+00</stageThreshold>
      <weakClassifiers>
        <_>
          <internalNodes>
            0 -1 5 -1 -1 -268435457 -1 -1 -4105 -1 -1</internalNodes>
          <leafValues>
            -9.1292673349380493e-01 5.0632911920547485e-01</leafValues></_>
        <_>
          <internalNodes>
            0 -1 107 -536876289 -34365764 1599029467 -113248558
            -1619789057 -1148551970 226224346 -10486053</internalNodes>
          <leafValues>
            -6.8123161792755127e-01 5.2073817700147629e-02</leafValues></_>
        <_>
          <internalNodes>
            0 -1 88 -1032329978 1375649738 2097052639 557872887
            -537050238 -1166606467 -742437170 -1305219085</internalNodes>
          <leafValues>
            -4.8898011445999146e-01 2.1551543474197388e-01</leafValues></_>
        <_>
          <internalNodes>
            0 -1 49 -1348409436 663158400 -1091066256 -1770047 25146855
            -1879195667 -1212713034 669603285</internalNodes>
          <leafValues>
            -5.6539928913116455e-01 2.1873022615909576e-01</leafValues></_>
        <_>
          <internalNodes>
            0 -1 101 -1116774650 1329487407 -1627408670 615448310
            -671911931 1180041039 -168139562 -201655433</internalNodes>
          <leafValues>
            -4.6475923061370850e-01 2.8068512678146362e-01</leafValues></_>
        <_>
          <internalNodes>
            0 -1 43 -1389226688 -1568559264 -201894928 -1364411103
            -2062876681 1190095855 364897121 216794608</internalNodes>
          <leafValues>
            -7.3209202289581299e-01 2.2000962495803833e-01</leafValues></_>
        <_>
          <internalNodes>
            0 -1 104 140380188 289038319 922676991 1882910717 1962831434
            -595595393 -806126339 -1431286252</internalNodes>
          <leafValues>
            -5.2889049053192139e-01 2.3704017698764801e-01</leafValues></_>
        <_>
          <internalNodes>
            0 -1 95 -319883360 -1076703445 -252212016 1168949108
            2099214217 87482271 1165952748 83832151</internalNodes>
          <leafValues>
            -5.7030695676803589e-01 2.2284899652004242e-01</leafValues></_></weakClassifiers></_>
    <!-- stage 5 -->
    <_>
      <maxWeakCount>10</maxWeakCount>
      <stageThreshold>-2.3394293785095215e+00</stageThreshold>
      <weakClassifiers>
        <_>
          <internalNodes>
            0 -1 40 -134220801 -1 -201850881 -1 -67108865 -17 -1
            -1048593</internalNodes>
          <leafValues>
            -9.1578811407089233e-01 1.8852458894252777e-01</leafValues></_>
        <_>
          <internalNodes>
            0 -1 24 -2112517 -1733 1798953343 1566441467 -373325606
            -18092522 -675293205 -536872525</internalNodes>
          <leafValues>
            -6.7507427930831909e-01 7.7657781541347504e-02</leafValues></_>
        <_>
          <internalNodes>
            0 -1 13 -630088484 1936587245 -405343206 -1154806145
            -1659231236 1830744059 -1082803025 457531370</internalNodes>
          <leafValues>
            -5.1694655418395996e-01 1.7480605840682983e-01</leafValues></_>
        <_>
          <internalNodes>
            0 -1 25 -345010682 585559663 -155524480 -488313052
            2012427521 1194459054 -1225349627 1694482355</internalNodes>
          <leafValues>
            -5.8672237396240234e-01 1.9790948927402496e-01</leafValues></_>
        <_>
          <internalNodes>
            0 -1 9 67662880 -1439964431 -67127309 -605100107 401254201
            335538030 -470424203 76812340</internalNodes>
          <leafValues>
            -7.8423386812210083e-01 1.8703040480613708e-01</leafValues></_>
        <_>
          <internalNodes>
            0 -1 50 -1493955580 1449928173 -1091535122 584219518
            -560194556 1803181389 -98339 708714049</internalNodes>
          <leafValues>
            -6.9644004106521606e-01 1.4682377874851227e-01</leafValues></_>
        <_>
          <internalNodes>
            0 -1 19 740828581 797753317 -1343258631 -1091764746
            1073504037 804642815 -5444739 -1128896799</internalNodes>
          <leafValues>
            -4.4607490301132202e-01 2.7849894762039185e-01</leafValues></_>
        <_>
          <internalNodes>
            0 -1 99 2126444620 -1073920306 -352918648 -1876967586
            -25548082 1432354575 -487672090 1981284077</internalNodes>
          <leafValues>
            -5.0405603647232056e-01 2.5484555959701538e-01</leafValues></_>
        <_>
          <internalNodes>
            0 -1 94 -369045600 589528992 1052735472 -1413300807
            804908904 -1781531169 864022881 485443684</internalNodes>
          <leafValues>
            -6.1485773324966431e-01 2.0262086391448975e-01</leafValues></_>
        <_>
          <internalNodes>
            0 -1 18 1593464501 -1434642711 -285298962 -1603112966
            -287684780 1031225211 -258052 -1206895100</internalNodes>
          <leafValues>
            -4.9526396393775940e-01 2.5149035453796387e-01</leafValues></_></weakClassifiers></_>
    <!-- stage 6 -->
    <_>
      <maxWeakCount>9</maxWeakCount>
      <stageThreshold>-2.2191009521484375e+00</stageThreshold>
      <weakClassifiers>
        <_>
          <internalNodes>
            0 -1 87 -536870913 -5 -1 -5 -4194305 -5 -536870913 -5</internalNodes>
          <leafValues>
            -9.1597503423690796e-01 1.4396886527538300e-01</leafValues></_>
        <_>
          <internalNodes>
            0 -1 106 -209721617 -21817 -547703201 -12874173 -348390657
            -1583104261 1666303711 -75501921</internalNodes>
          <leafValues>
            -6.7190176248550415e-01 9.4583690166473389e-02</leafValues></_>
        <_>
          <internalNodes>
            0 -1 67 -609160815 1467258702 381646579 992059391 126299352
            -637755681 -54613846 -1459631881</internalNodes>
          <leafValues>
            -3.9820757508277893e-01 2.8935414552688599e-01</leafValues></_>
        <_>
          <internalNodes>
            0 -1 45 73663493 640122365 -1141707074 74329983 1073628631
            -2785410 -47435852 -1539027872</internalNodes>
          <leafValues>
            -5.4330122470855713e-01 2.1349124610424042e-01</leafValues></_>
        <_>
          <internalNodes>
            0 -1 66 -894987600 66189035 -706839215 1569717088
            -1885340792 -1841065509 -20078647 266140602</internalNodes>
          <leafValues>
            -4.4651132822036743e-01 2.7404496073722839e-01</leafValues></_>
        <_>
          <internalNodes>
            0 -1 115 778841967 603774574 771529555 -423829772 1415020397
            -2013331715 1576877364 -1595380444</internalNodes>
          <leafValues>
            -4.5058581233024597e-01 2.8971853852272034e-01</leafValues></_>
        <_>
          <internalNodes>
            0 -1 16 -9190784 -1490658640 -940823392 -1544247558
            639262065 -109832364 104621832 1078351254</internalNodes>
          <leafValues>
            -6.6736066341400146e-01 1.9435362517833710e-01</leafValues></_>
        <_>
          <internalNodes>
            0 -1 10 -487593854 2079305321 1688698671 220197088
            1872445572 -713599499 -629688378 605549655</internalNodes>
          <leafValues>
            -5.1739710569381714e-01 2.2358869016170502e-01</leafValues></_>
        <_>
          <internalNodes>
            0 -1 102 598500608 799473519 -621284702 -1580552202
            -940126972 99934047 -134752352 1098827637</internalNodes>
          <leafValues>
            -6.8722778558731079e-01 1.8469996750354767e-01</leafValues></_></weakClassifiers></_>
    <!-- stage 7 -->
    <_>
      <maxWeakCount>8</maxWeakCount>
      <stageThreshold>-2.0782477855682373e+00</stageThreshold>
      <weakClassifiers>
        <_>
          <internalNodes>
            0 -1 29 -2097153 -1 -17409 -1 -1 -2228227 -1 -1</internalNodes>
          <leafValues>
            -9.1293770074844360e-01 3.4078213572502136e-01</leafValues></_>
        <_>
          <internalNodes>
            0 -1 37 -33562641 -637544985 -1564860866 -671129617
            -12853297 2088692847 -101711873 -67371009</internalNodes>
          <leafValues>
            -6.7499125003814697e-01 7.2262629866600037e-02</leafValues></_>
        <_>
          <internalNodes>
            0 -1 91 2146876722 -1591049224 1978564440 770670392
            634705915 485916127 234509590 1431793619</internalNodes>
          <leafValues>
            -5.7405138015747070e-01 1.4673647284507751e-01</leafValues></_>
        <_>
          <internalNodes>
            0 -1 61 1024456120 1035818296 -318083744 900398762 503264692
            368213757 1027443724 580543134</internalNodes>
          <leafValues>
            -6.1661064624786377e-01 1.7639315128326416e-01</leafValues></_>
        <_>
          <internalNodes>
            0 -1 39 -382421328 -117200236 990198013 1442965127
            2086584548 2128414808 257021924 408374391</internalNodes>
          <leafValues>
            -5.2056974172592163e-01 2.4292796850204468e-01</leafValues></_>
        <_>
          <internalNodes>
            0 -1 82 230198449 -1478606876 -135398472 -357558543
            -1111696153 -1078272189 -589007564 -537109019</internalNodes>
          <leafValues>
            -4.1973030567169189e-01 2.8409197926521301e-01</leafValues></_>
        <_>
          <internalNodes>
            0 -1 44 -956543776 786974683 -319497206 439516793 -298574328
            1585409877 -331842436 874661093</internalNodes>
          <leafValues>
            -6.9733816385269165e-01 1.8775999546051025e-01</leafValues></_>
        <_>
          <internalNodes>
            0 -1 57 1486898352 804973986 1071486945 1877678652
            -1985209857 -1493319747 120403888 666379325</internalNodes>
          <leafValues>
            -6.3833296298980713e-01 1.6611735522747040e-01</leafValues></_></weakClassifiers></_>
    <!-- stage 8 -->
    <_>
      <maxWeakCount>9</maxWeakCount>
      <stageThreshold>-2.5155801773071289e+00</stageThreshold>
      <weakClassifiers>
        <_>
          <internalNodes>
            0 -1 53 -513 -43521 -1 -132353 -8388609 -1 -1310721 -1</internalNodes>
          <leafValues>
            -9.1817474365234375e-01 1.8292682245373726e-02</leafValues></_>
        <_>
          <internalNodes>
            0 -1 75 -8129033 -2420231 -8225 -10771 -1154027521 -4472897
            -1665466470 -5251585</internalNodes>
          <leafValues>
            -6.6871947050094604e-01 1.2156536430120468e-01</leafValues></_>
        <_>
          <internalNodes>
            0 -1 109 -488909686 1931468749 -520637784 -226758710
            -755537210 1158381439 -228158501 -195834685</internalNodes>
          <leafValues>
            -4.6497920155525208e-01 2.2678853571414948e-01</leafValues></_>
        <_>
          <internalNodes>
            0 -1 4 -1096931467 783777301 -1078052112 565899071
            1021212376 1866415740 -287681300 -59605729</internalNodes>
          <leafValues>
            -4.2491787672042847e-01 2.8647226095199585e-01</leafValues></_>
        <_>
          <internalNodes>
            0 -1 62 -1356440083 687668885 -287342595 -1996703828
            1063157060 -319062241 -1359429804 -2140086300</internalNodes>
          <leafValues>
            -4.6415472030639648e-01 2.6465582847595215e-01</leafValues></_>
        <_>
          <internalNodes>
            0 -1 26 -201368286 -1169490566 -84241758 -1335136669
            2130670917 1181728596 1476093364 1658845122</internalNodes>
          <leafValues>
            -5.5766981840133667e-01 2.4501951038837433e-01</leafValues></_>
        <_>
          <internalNodes>
            0 -1 84 -177953228 -1745715203 -1074167915 -272859292
            -286573314 -4489987 -1126305810 -1953106213</internalNodes>
          <leafValues>
            -4.0735352039337158e-01 3.0349856615066528e-01</leafValues></_>
        <_>
          <internalNodes>
            0 -1 114 467484740 -344786947 -17055939 41909880 1790929994
            2136834009 -335872097 -392069450</internalNodes>
          <leafValues>
            -4.4583192467689514e-01 2.9028442502021790e-01</leafValues></_>
        <_>
          <internalNodes>
            0 -1 12 -371064920 -1422955027 -34661662 -37554477 700432347
            1724308473 1199036405 -959982120</internalNodes>
          <leafValues>
            -4.0309175848960876e-01 3.2214170694351196e-01</leafValues></_></weakClassifiers></_>
    <!-- stage 9 -->
    <_>
      <maxWeakCount>7</maxWeakCount>
      <stageThreshold>-2.2663304805755615e+00</stageThreshold>
      <weakClassifiers>
        <_>
          <internalNodes>
            0 -1 105 -2098177 -2103329 -651167301 -10485793 -67116805
            -69230391 -70255617 -2098177</internalNodes>
          <leafValues>
            -9.2289340496063232e-01 3.9792388677597046e-01</leafValues></_>
        <_>
          <internalNodes>
            0 -1 79 -4468514 -546504690 2123927635 1904171103
            -1192650070 -1722787712 -1827487778 -80017185</internalNodes>
          <leafValues>
            -7.7024823427200317e-01 1.9396458566188812e-01</leafValues></_>
        <_>
          <internalNodes>
            0 -1 37 -68165938 -774236862 -1069937132 1428643789
            -1189373504 606743579 -1057554709 -217352513</internalNodes>
          <leafValues>
            -5.4993814229965210e-01 4.3194150924682617e-01</leafValues></_>
        <_>
          <internalNodes>
            0 -1 113 -134743662 -135611478 -995327760 -1209293580
            480443808 1141898660 360081291 -680540737</internalNodes>
          <leafValues>
            -4.2831626534461975e-01 4.8686036467552185e-01</leafValues></_>
        <_>
          <internalNodes>
            0 -1 64 -29700456 -694476836 -1371881483 1400716352
            -1822894404 -406972547 -1157732610 -1724710513</internalNodes>
          <leafValues>
            -3.9815017580986023e-01 4.7726207971572876e-01</leafValues></_>
        <_>
          <internalNodes>
            0 -1 96 -87931674 -75544755 38450790 810778330 -177827260
            1649233943 -1494491426 -150237795</internalNodes>
          <leafValues>
            -4.7806474566459656e-01 4.1623479127883911e-01</leafValues></_>
        <_>
          <internalNodes>
            0 -1 78 -579161380 1557942609 -1967465926 1937184125
            -425052980 -124239591 -1696548130 321608175</internalNodes>
          <leafValues>
            -4.6089485287666321e-01 4.0586820244789124e-01</leafValues></_></weakClassifiers></_>
    <!-- stage 10 -->
    <_>
      <maxWeakCount>7</maxWeakCount>
      <stageThreshold>-2.1139502525329590e+00</stageThreshold>
      <weakClassifiers>
        <_>
          <internalNodes>
            0 -1 68 -67108865 -536872961 -44040193 -2105889 -71565313
            -69218049 -4457477 -1</internalNodes>
          <leafValues>
            -9.1756409406661987e-01 5.6999999284744263e-01</leafValues></_>
        <_>
          <internalNodes>
            0 -1 54 -7611398 -3431188 387356121 -570743759 -1077346369
            -1887256120 -1816030213 -542138965</internalNodes>
          <leafValues>
            -7.2374880313873291e-01 2.4693389236927032e-01</leafValues></_>
        <_>
          <internalNodes>
            0 -1 28 -5246738 -798315794 -1577910733 1932863274
            -423967602 -452768177 -1218252069 -141572613</internalNodes>
          <leafValues>
            -4.5530629158020020e-01 4.9920007586479187e-01</leafValues></_>
        <_>
          <internalNodes>
            0 -1 112 -473984830 -1678011744 97344639 360534266
            -1442255478 1064833200 1291909087 -445673785</internalNodes>
          <leafValues>
            -4.3695500493049622e-01 4.5110765099525452e-01</leafValues></_>
        <_>
          <internalNodes>
            0 -1 97 -1138052958 -78713460 -406954830 -206604855 -8749119
            1864682932 1448335050 -707799628</internalNodes>
          <leafValues>
            -4.1607993841171265e-01 4.5408815145492554e-01</leafValues></_>
        <_>
          <internalNodes>
            0 -1 47 -719276128 -1622531196 1078425590 -145780587
            967488630 -823318107 -690510630 -1692465210</internalNodes>
          <leafValues>
            -4.2368358373641968e-01 4.3868330121040344e-01</leafValues></_>
        <_>
          <internalNodes>
            0 -1 14 -606673438 1497752014 -493481294 857042907
            -1444955694 1095464540 -759008311 -415316106</internalNodes>
          <leafValues>
            -4.2623192071914673e-01 3.9702063798904419e-01</leafValues></_></weakClassifiers></_>
    <!-- stage 11 -->
    <_>
      <maxWeakCount>10</maxWeakCount>
      <stageThreshold>-2.0464746952056885e+00</stageThreshold>
      <weakClassifiers>
        <_>
          <internalNodes>
            0 -1 60 -4202497 -9729 -1 -10241 -4456449 -4113 -4456449
            -513</internalNodes>
          <leafValues>
            -9.1944229602813721e-01 1.4285714924335480e-01</leafValues></_>
        <_>
          <internalNodes>
            0 -1 98 -5377 -606344449 -11535917 -11275297 -335615234
            -544289045 1260376763 -10486017</internalNodes>
          <leafValues>
            -6.6850823163986206e-01 2.3762780427932739e-01</leafValues></_>
        <_>
          <internalNodes>
            0 -1 63 -21340968 -697230 1056636541 2037603517 -1422336292
            -1424000899 -1875200517 -7611970</internalNodes>
          <leafValues>
            -4.1407877206802368e-01 3.1602823734283447e-01</leafValues></_>
        <_>
          <internalNodes>
            0 -1 0 648985779 -1001541714 -276829263 -1174667470
            267174182 -1084899337 535721076 -1057532624</internalNodes>
          <leafValues>
            -4.7022333741188049e-01 2.6068717241287231e-01</leafValues></_>
        <_>
          <internalNodes>
            0 -1 36 -353126182 -84740214 1022882290 1408234101
            -1394254386 -12388412 2003127706 -765462817</internalNodes>
          <leafValues>
            -3.4062907099723816e-01 3.7885868549346924e-01</leafValues></_>
        <_>
          <internalNodes>
            0 -1 76 -2034871888 -1080388304 1727844785 -1488240715
            1576259308 -1342358052 229547140 -1624591284</internalNodes>
          <leafValues>
            -4.3221279978752136e-01 3.1379058957099915e-01</leafValues></_>
        <_>
          <internalNodes>
            0 -1 85 -15381476 -78250259 -2114131202 1499027709
            -1289740404 -11043027 -1342529733 -611635269</internalNodes>
          <leafValues>
            -3.3433651924133301e-01 3.8008484244346619e-01</leafValues></_>
        <_>
          <internalNodes>
            0 -1 92 -806356037 -2000781830 -402687 -806158727 -210240621
            545028092 -170408685 -2139359441</internalNodes>
          <leafValues>
            -3.7817654013633728e-01 3.4195324778556824e-01</leafValues></_>
        <_>
          <internalNodes>
            0 -1 69 -16815856 2025776838 894420816 1625125838 -964694016
            -2091419061 2013265681 474971287</internalNodes>
          <leafValues>
            -5.7584881782531738e-01 2.3157320916652679e-01</leafValues></_>
        <_>
          <internalNodes>
            0 -1 77 250546503 -339805929 -545292613 774896415 -316340
            -1132597570 -940984613 -1162687975</internalNodes>
          <leafValues>
            -4.1283726692199707e-01 3.0647635459899902e-01</leafValues></_></weakClassifiers></_>
    <!-- stage 12 -->
    <_>
      <maxWeakCount>9</maxWeakCount>
      <stageThreshold>-2.0386605262756348e+00</stageThreshold>
      <weakClassifiers>
        <_>
          <internalNodes>
            0 -1 73 -8193 -513 -1 -513 -4194305 -1056769 -4194305
            -262145</internalNodes>
          <leafValues>
            -9.1750448942184448e-01 1.2676055729389191e-01</leafValues></_>
        <_>
          <internalNodes>
            0 -1 108 -201590017 -141558833 -243375453 -209719445
            -235143937 -884090913 -749210913 -3147041</internalNodes>
          <leafValues>
            -6.6179049015045166e-01 1.6361971199512482e-01</leafValues></_>
        <_>
          <internalNodes>
            0 -1 100 -8400381 334225314 583217385 594001842 2088277110
            1846368000 1129961291 -830474509</internalNodes>
          <leafValues>
            -4.2488557100296021e-01 2.7837184071540833e-01</leafValues></_>
        <_>
          <internalNodes>
            0 -1 32 -1966427474 -1566410840 -538378445 -291504333
            265568055 -167788826 -981887183 367293476</internalNodes>
          <leafValues>
            -6.3968384265899658e-01 1.8017940223217010e-01</leafValues></_>
        <_>
          <internalNodes>
            0 -1 38 1603223101 -1891947845 -25403428 2137928502
            1014766780 2101093758 -25919497 -119735574</internalNodes>
          <leafValues>
            -3.4660580754280090e-01 3.5354748368263245e-01</leafValues></_>
        <_>
          <internalNodes>
            0 -1 33 -1943475222 -1901068824 -151338270 -423649902
            -1456817989 1199011813 121054054 1457475312</internalNodes>
          <leafValues>
            -5.7274216413497925e-01 1.8845456838607788e-01</leafValues></_>
        <_>
          <internalNodes>
            0 -1 6 -202427721 -8949021 -1351944401 1793548847 -463014284
            -42625292 1193799295 -957487113</internalNodes>
          <leafValues>
            -3.0724096298217773e-01 3.8855135440826416e-01</leafValues></_>
        <_>
          <internalNodes>
            0 -1 70 -1649933192 394069432 -272634881 1607951796
            493542302 -1879703618 -1573336275 697320736</internalNodes>
          <leafValues>
            -5.9597688913345337e-01 2.1855384111404419e-01</leafValues></_>
        <_>
          <internalNodes>
            0 -1 51 -1369567150 2095621229 -2037720833 1801614268
            -1923724778 2070172895 -402997262 2056674250</internalNodes>
          <leafValues>
            -5.4390347003936768e-01 2.1384474635124207e-01</leafValues></_></weakClassifiers></_>
    <!-- stage 13 -->
    <_>
      <maxWeakCount>10</maxWeakCount>
      <stageThreshold>-2.4917578697204590e+00</stageThreshold>
      <weakClassifiers>
        <_>
          <internalNodes>
            0 -1 55 -1 -4609 -4194305 -8193 -1 -4609 -4718593 -1</internalNodes>
          <leafValues>
            -9.1431504487991333e-01 2.6923078298568726e-01</leafValues></_>
        <_>
          <internalNodes>
            0 -1 30 -547356673 -581058860 259996669 -131073 -2097409
            -2299144 -79303685 -279813</internalNodes>
          <leafValues>
            -6.4677131175994873e-01 2.9276648163795471e-01</leafValues></_>
        <_>
          <internalNodes>
            0 -1 103 -586421268 -1310261816 50151462 -33555028
            -450238725 622919035 -679749723 1692393947</internalNodes>
          <leafValues>
            -4.8760056495666504e-01 1.7659187316894531e-01</leafValues></_>
        <_>
          <internalNodes>
            0 -1 89 -823999204 -156991945 184547050 1617586655
            -537610738 1031110469 -289620098 2050633502</internalNodes>
          <leafValues>
            -4.8663929104804993e-01 2.1116203069686890e-01</leafValues></_>
        <_>
          <internalNodes>
            0 -1 86 -1847945776 -1482264920 -1225113103 2062548334
            -1617677073 -1412793346 1135988783 1609444564</internalNodes>
          <leafValues>
            -4.8949027061462402e-01 2.1963502466678619e-01</leafValues></_>
        <_>
          <internalNodes>
            0 -1 2 -459132393 -324062041 -423625503 -332607738
            1928192214 1207394501 359774133 -313478029</internalNodes>
          <leafValues>
            -3.8716503977775574e-01 3.0957520008087158e-01</leafValues></_>
        <_>
          <internalNodes>
            0 -1 34 -1434801182 -1427179544 -1493704544 -676415627
            297789228 1078788012 -2089849068 1442576368</internalNodes>
          <leafValues>
            -5.7287466526031494e-01 1.9692321121692657e-01</leafValues></_>
        <_>
          <internalNodes>
            0 -1 7 -1506904752 -2038530070 653138168 946274024
            2004120656 -80222220 1995921255 1717909215</internalNodes>
          <leafValues>
            -6.6695123910903931e-01 1.6168884932994843e-01</leafValues></_>
        <_>
          <internalNodes>
            0 -1 90 1647201100 -495164147 1593523797 304574075
            -1082614776 1596833567 -848982022 1916319321</internalNodes>
          <leafValues>
            -5.7133680582046509e-01 1.8693596124649048e-01</leafValues></_>
        <_>
          <internalNodes>
            0 -1 42 1934025747 -1358782446 2137193337 -10553113
            -716661783 -604507290 71417663 -1152685639</internalNodes>
          <leafValues>
            -3.2206463813781738e-01 3.6599957942962646e-01</leafValues></_></weakClassifiers></_></stages>
  <features>
    <_>
      <rect>
        0 0 3 3</rect></_>
    <_>
      <rect>
        0 1 1 1</rect></_>
    <_>
      <rect>
        0 3 3 2</rect></_>
    <_>
      <rect>
        0 6 3 6</rect></_>
    <_>
      <rect>
        0 11 1 2</rect></_>
    <_>
      <rect>
        0 15 3 2</rect></_>
    <_>
      <rect>
        1 14 2 2</rect></_>
    <_>
      <rect>
        1 19 4 1</rect></_>
    <_>
      <rect>
        2 0 5 3</rect></_>
    <_>
      <rect>
        2 2 1 2</rect></_>
    <_>
      <rect>
        2 3 2 2</rect></_>
    <_>
      <rect>
        2 3 4 5</rect></_>
    <_>
      <rect>
        2 7 1 1</rect></_>
    <_>
      <rect>
        2 7 7 5</rect></_>
    <_>
      <rect>
        2 12 1 1</rect></_>
    <_>
      <rect>
        2 14 5 3</rect></_>
    <_>
      <rect>
        2 15 2 2</rect></_>
    <_>
      <rect>
        2 17 1 1</rect></_>
    <_>
      <rect>
        2 19 1 1</rect></_>
    <_>
      <rect>
        3 0 1 1</rect></_>
    <_>
      <rect>
        3 1 6 1</rect></_>
    <_>
      <rect>
        3 2 6 5</rect></_>
    <_>
      <rect>
        3 3 6 6</rect></_>
    <_>
      <rect>
        3 4 2 1</rect></_>
    <_>
      <rect>
        3 6 1 4</rect></_>
    <_>
      <rect>
        3 10 1 1</rect></_>
    <_>
      <rect>
        3 11 1 1</rect></_>
    <_>
      <rect>
        3 12 1 1</rect></_>
    <_>
      <rect>
        3 13 1 1</rect></_>
    <_>
      <rect>
        4 1 5 1</rect></_>
    <_>
      <rect>
        4 2 5 1</rect></_>
    <_>
      <rect>
        4 3 3 1</rect></_>
    <_>
      <rect>
        4 4 3 3</rect></_>
    <_>
      <rect>
        4 6 1 1</rect></_>
    <_>
      <rect>
        4 9 1 1</rect></_>
    <_>
      <rect>
        4 10 1 1</rect></_>
    <_>
      <rect>
        4 10 1 2</rect></_>
    <_>
      <rect>
        4 14 1 1</rect></_>
    <_>
      <rect>
        4 15 2 3</rect></_>
    <_>
      <rect>
        4 18 3 1</rect></_>
    <_>
      <rect>
        4 20 5 1</rect></_>
    <_>
      <rect>
        5 1 5 1</rect></_>
    <_>
      <rect>
        5 3 3 1</rect></_>
    <_>
      <rect>
        5 4 1 1</rect></_>
    <_>
      <rect>
        5 16 1 1</rect></_>
    <_>
      <rect>
        5 20 1 1</rect></_>
    <_>
      <rect>
        5 20 5 1</rect></_>
    <_>
      <rect>
        6 3 1 1</rect></_>
    <_>
      <rect>
        6 3 4 1</rect></_>
    <_>
      <rect>
        6 5 1 1</rect></_>
    <_>
      <rect>
        6 15 1 1</rect></_>
    <_>
      <rect>
        6 16 2 1</rect></_>
    <_>
      <rect>
        6 18 4 1</rect></_>
    <_>
      <rect>
        7 3 2 1</rect></_>
    <_>
      <rect>
        7 4 1 1</rect></_>
    <_>
      <rect>
        7 18 2 1</rect></_>
    <_>
      <rect>
        8 0 4 3</rect></_>
    <_>
      <rect>
        8 3 1 1</rect></_>
    <_>
      <rect>
        8 10 5 4</rect></_>
    <_>
      <rect>
        9 2 1 1</rect></_>
    <_>
      <rect>
        9 3 1 1</rect></_>
    <_>
      <rect>
        9 9 4 4</rect></_>
    <_>
      <rect>
        9 11 1 1</rect></_>
    <_>
      <rect>
        9 18 1 1</rect></_>
    <_>
      <rect>
        9 19 1 1</rect></_>
    <_>
      <rect>
        10 1 4 5</rect></_>
    <_>
      <rect>
        10 18 4 1</rect></_>
    <_>
      <rect>
        11 1 2 1</rect></_>
    <_>
      <rect>
        11 3 2 1</rect></_>
    <_>
      <rect>
        11 3 4 1</rect></_>
    <_>
      <rect>
        11 4 1 1</rect></_>
    <_>
      <rect>
        11 11 1 1</rect></_>
    <_>
      <rect>
        11 18 1 1</rect></_>
    <_>
      <rect>
        12 3 1 1</rect></_>
    <_>
      <rect>
        12 8 1 1</rect></_>
    <_>
      <rect>
        12 18 1 1</rect></_>
    <_>
      <rect>
        12 20 1 1</rect></_>
    <_>
      <rect>
        13 0 3 3</rect></_>
    <_>
      <rect>
        13 2 1 1</rect></_>
    <_>
      <rect>
        13 3 1 1</rect></_>
    <_>
      <rect>
        13 17 1 1</rect></_>
    <_>
      <rect>
        13 20 1 1</rect></_>
    <_>
      <rect>
        13 21 1 1</rect></_>
    <_>
      <rect>
        14 1 3 3</rect></_>
    <_>
      <rect>
        14 2 2 6</rect></_>
    <_>
      <rect>
        14 4 1 1</rect></_>
    <_>
      <rect>
        14 18 1 1</rect></_>
    <_>
      <rect>
        15 1 2 3</rect></_>
    <_>
      <rect>
        15 2 3 3</rect></_>
    <_>
      <rect>
        15 5 1 1</rect></_>
    <_>
      <rect>
        15 6 1 1</rect></_>
    <_>
      <rect>
        15 10 3 4</rect></_>
    <_>
      <rect>
        15 14 3 2</rect></_>
    <_>
      <rect>
        15 15 3 2</rect></_>
    <_>
      <rect>
        15 16 1 1</rect></_>
    <_>
      <rect>
        15 17 2 1</rect></_>
    <_>
      <rect>
        16 7 1 1</rect></_>
    <_>
      <rect>
        16 14 1 1</rect></_>
    <_>
      <rect>
        17 5 1 3</rect></_>
    <_>
      <rect>
        17 8 1 1</rect></_>
    <_>
      <rect>
        17 9 1 2</rect></_>
    <_>
      <rect>
        17 10 1 1</rect></_>
    <_>
      <rect>
        17 11 1 1</rect></_>
    <_>
      <rect>
        17 13 1 1</rect></_>
    <_>
      <rect>
        18 2 1 1</rect></_>
    <_>
      <rect>
        18 4 1 3</rect></_>
    <_>
      <rect>
        18 5 1 5</rect></_>
    <_>
      <rect>
        18 6 1 4</rect></_>
    <_>
      <rect>
        18 7 1 2</rect></_>
    <_>
      <rect>
        18 8 1 1</rect></_>
    <_>
      <rect>
        18 9 1 1</rect></_>
    <_>
      <rect>
        18 10 1 1</rect></_>
    <_>
      <rect>
        18 11 1 3</rect></_>
    <_>
      <rect>
        18 13 1 1</rect></_>
    <_>
      <rect>
        19 3 1 1</rect></_>
    <_>
      <rect>
        20 20 1 1</rect></_>
    <_>
      <rect>
        21 19 1 1</rect></_></features></cascade>
</opencv_storage>
