<?xml version="1.0"?>
<opencv_storage>
<stage0>
  <maxWeakCount>7</maxWeakCount>
  <stageThreshold>-1.9592834711074829e+00</stageThreshold>
  <weakClassifiers>
    <_>
      <internalNodes>
        0 -1 3296 -8388609 -2049 -52225 -1 -1 -2293793 -1 -1</internalNodes>
      <leafValues>
        -9.1551280021667480e-01 4.0999999642372131e-01</leafValues></_>
    <_>
      <internalNodes>
        0 -1 2218 -36439074 -171976711 -1014396929 -541362233 -834863105
        1599324670 -1583510881 2136996859</internalNodes>
      <leafValues>
        -7.4949109554290771e-01 1.3288511335849762e-01</leafValues></_>
    <_>
      <internalNodes>
        0 -1 1559 -522001722 1965273000 -271290834 -605614300 243240668
        2121819581 1114587118 1430599543</internalNodes>
      <leafValues>
        -6.5551811456680298e-01 2.3054602742195129e-01</leafValues></_>
    <_>
      <internalNodes>
        0 -1 5113 1564341704 -1248775495 -2049039176 -1355941314
        367894013 690060218 1153239480 960213211</internalNodes>
      <leafValues>
        -5.3158682584762573e-01 3.4627598524093628e-01</leafValues></_>
    <_>
      <internalNodes>
        0 -1 4810 -119013376 -1107480721 -858412681 1060871115
        -1135830579 -1897058385 -352486594 154770186</internalNodes>
      <leafValues>
        -5.9338873624801636e-01 3.2474395632743835e-01</leafValues></_>
    <_>
      <internalNodes>
        0 -1 1933 -644160386 425754226 2079386386 498086450 76297432
        1727951743 2110158812 2021067591</internalNodes>
      <leafValues>
        -5.4608720541000366e-01 3.1037560105323792e-01</leafValues></_>
    <_>
      <internalNodes>
        0 -1 2233 -135857498 -573596182 854488696 -805376080 511893450
        641808359 667489535 1425876455</internalNodes>
      <leafValues>
        -5.3678220510482788e-01 2.9797565937042236e-01</leafValues></_></weakClassifiers></stage0>
</opencv_storage>
