<?xml version="1.0"?>
<opencv_storage>
<stage1>
  <maxWeakCount>8</maxWeakCount>
  <stageThreshold>-2.3842484951019287e+00</stageThreshold>
  <weakClassifiers>
    <_>
      <internalNodes>
        0 -1 2115 -2097153 -1 -2114561 -1 -1 -2228225 -1 -1</internalNodes>
      <leafValues>
        -9.1164451837539673e-01 5.8823531866073608e-01</leafValues></_>
    <_>
      <internalNodes>
        0 -1 7124 -205529265 -72089737 -42476673 -1155793121 -16803873
        -10273 -872428853 -1162088449</internalNodes>
      <leafValues>
        -6.7883300781250000e-01 9.7440749406814575e-02</leafValues></_>
    <_>
      <internalNodes>
        0 -1 64 188493693 796901375 1610571775 -1360072780 159088469
        -8521233 -268475020 -1393545804</internalNodes>
      <leafValues>
        -5.6825459003448486e-01 2.5898528099060059e-01</leafValues></_>
    <_>
      <internalNodes>
        0 -1 2168 -1040910392 2111241758 1031208181 1979038449
        -1426926877 -1342460290 357412255 813512483</internalNodes>
      <leafValues>
        -5.5009937286376953e-01 2.9349955916404724e-01</leafValues></_>
    <_>
      <internalNodes>
        0 -1 6336 947389757 799809341 -286277899 787291492 -1275173026
        -1084293761 -1093763216 -1466681548</internalNodes>
      <leafValues>
        -5.2832782268524170e-01 2.9297104477882385e-01</leafValues></_>
    <_>
      <internalNodes>
        0 -1 6420 -1405985464 -1883275559 -237697 -76126219 -1380573187
        -562102273 -1415594500 750280148</internalNodes>
      <leafValues>
        -5.6645059585571289e-01 2.8704780340194702e-01</leafValues></_>
    <_>
      <internalNodes>
        0 -1 7078 212364785 -1921376272 -151003651 -268927692
        -1095112977 -1343250435 535330165 -1124178731</internalNodes>
      <leafValues>
        -4.2806875705718994e-01 3.5141646862030029e-01</leafValues></_>
    <_>
      <internalNodes>
        0 -1 2514 1827490886 110033743 -153443808 842562899 1306295628
        1179545423 -1082175068 1996226159</internalNodes>
      <leafValues>
        -6.2915235757827759e-01 2.4632157385349274e-01</leafValues></_></weakClassifiers></stage1>
</opencv_storage>
