<?xml version="1.0"?>
<opencv_storage>
<stage2>
  <maxWeakCount>8</maxWeakCount>
  <stageThreshold>-2.4638326168060303e+00</stageThreshold>
  <weakClassifiers>
    <_>
      <internalNodes>
        0 -1 3764 -201326593 -1 -134217729 -1 -1 -16401 -1 -49</internalNodes>
      <leafValues>
        -9.1377872228622437e-01 3.4391534328460693e-01</leafValues></_>
    <_>
      <internalNodes>
        0 -1 3925 -15992833 -6340934 1530753503 2103303839 -319820040
        -4259896 1325263871 -280101</internalNodes>
      <leafValues>
        -6.7343991994857788e-01 1.0687693208456039e-01</leafValues></_>
    <_>
      <internalNodes>
        0 -1 8461 631783285 -1392575067 -335581396 -1364017304
        2138336605 805273599 -4964908 -323720144</internalNodes>
      <leafValues>
        -5.5996650457382202e-01 2.0442031323909760e-01</leafValues></_>
    <_>
      <internalNodes>
        0 -1 5761 -123414972 -552747196 -1102204946 1931226883 150714098
        1979577212 -1598536454 4845839</internalNodes>
      <leafValues>
        -5.5180847644805908e-01 2.4288609623908997e-01</leafValues></_>
    <_>
      <internalNodes>
        0 -1 8128 1860576774 796813127 -486592416 -219501393 -956838074
        392691277 1424946532 1152905202</internalNodes>
      <leafValues>
        -6.7064988613128662e-01 1.9558459520339966e-01</leafValues></_>
    <_>
      <internalNodes>
        0 -1 6528 -1901011684 -1094878019 -1120145409 -1199104648
        -1346838787 -98948 -1514603332 -1128653264</internalNodes>
      <leafValues>
        -4.1538581252098083e-01 3.4042763710021973e-01</leafValues></_>
    <_>
      <internalNodes>
        0 -1 1975 787615236 1022132203 -50450802 1622310829 2122057244
        1182236543 -42181275 -1569685683</internalNodes>
      <leafValues>
        -6.2031352519989014e-01 2.3466409742832184e-01</leafValues></_>
    <_>
      <internalNodes>
        0 -1 2814 189038832 -1716616288 587154419 -181931496 -1508909610
        -1343504388 1204579485 608551838</internalNodes>
      <leafValues>
        -5.4408860206604004e-01 2.4583920836448669e-01</leafValues></_></weakClassifiers></stage2>
</opencv_storage>
