<?xml version="1.0"?>
<opencv_storage>
<stage10>
  <maxWeakCount>7</maxWeakCount>
  <stageThreshold>-2.1139502525329590e+00</stageThreshold>
  <weakClassifiers>
    <_>
      <internalNodes>
        0 -1 6167 -67108865 -536872961 -44040193 -2105889 -71565313
        -69218049 -4457477 -1</internalNodes>
      <leafValues>
        -9.1756409406661987e-01 5.6999999284744263e-01</leafValues></_>
    <_>
      <internalNodes>
        0 -1 4469 -7611398 -3431188 387356121 -570743759 -1077346369
        -1887256120 -1816030213 -542138965</internalNodes>
      <leafValues>
        -7.2374880313873291e-01 2.4693389236927032e-01</leafValues></_>
    <_>
      <internalNodes>
        0 -1 2542 -5246738 -798315794 -1577910733 1932863274 -423967602
        -452768177 -1218252069 -141572613</internalNodes>
      <leafValues>
        -4.5530629158020020e-01 4.9920007586479187e-01</leafValues></_>
    <_>
      <internalNodes>
        0 -1 8138 -473984830 -1678011744 97344639 360534266 -1442255478
        1064833200 1291909087 -445673785</internalNodes>
      <leafValues>
        -4.3695500493049622e-01 4.5110765099525452e-01</leafValues></_>
    <_>
      <internalNodes>
        0 -1 7790 -1138052958 -78713460 -406954830 -206604855 -8749119
        1864682932 1448335050 -707799628</internalNodes>
      <leafValues>
        -4.1607993841171265e-01 4.5408815145492554e-01</leafValues></_>
    <_>
      <internalNodes>
        0 -1 3904 -719276128 -1622531196 1078425590 -145780587 967488630
        -823318107 -690510630 -1692465210</internalNodes>
      <leafValues>
        -4.2368358373641968e-01 4.3868330121040344e-01</leafValues></_>
    <_>
      <internalNodes>
        0 -1 1870 -606673438 1497752014 -493481294 857042907 -1444955694
        1095464540 -759008311 -415316106</internalNodes>
      <leafValues>
        -4.2623192071914673e-01 3.9702063798904419e-01</leafValues></_></weakClassifiers></stage10>
</opencv_storage>
