<?xml version="1.0"?>
<opencv_storage>
<stage7>
  <maxWeakCount>8</maxWeakCount>
  <stageThreshold>-2.0782477855682373e+00</stageThreshold>
  <weakClassifiers>
    <_>
      <internalNodes>
        0 -1 2744 -2097153 -1 -17409 -1 -1 -2228227 -1 -1</internalNodes>
      <leafValues>
        -9.1293770074844360e-01 3.4078213572502136e-01</leafValues></_>
    <_>
      <internalNodes>
        0 -1 3130 -33562641 -637544985 -1564860866 -671129617 -12853297
        2088692847 -101711873 -67371009</internalNodes>
      <leafValues>
        -6.7499125003814697e-01 7.2262629866600037e-02</leafValues></_>
    <_>
      <internalNodes>
        0 -1 7557 2146876722 -1591049224 1978564440 770670392 634705915
        485916127 234509590 1431793619</internalNodes>
      <leafValues>
        -5.7405138015747070e-01 1.4673647284507751e-01</leafValues></_>
    <_>
      <internalNodes>
        0 -1 5547 1024456120 1035818296 -318083744 900398762 503264692
        368213757 1027443724 580543134</internalNodes>
      <leafValues>
        -6.1661064624786377e-01 1.7639315128326416e-01</leafValues></_>
    <_>
      <internalNodes>
        0 -1 3194 -382421328 -117200236 990198013 1442965127 2086584548
        2128414808 257021924 408374391</internalNodes>
      <leafValues>
        -5.2056974172592163e-01 2.4292796850204468e-01</leafValues></_>
    <_>
      <internalNodes>
        0 -1 7081 230198449 -1478606876 -135398472 -357558543
        -1111696153 -1078272189 -589007564 -537109019</internalNodes>
      <leafValues>
        -4.1973030567169189e-01 2.8409197926521301e-01</leafValues></_>
    <_>
      <internalNodes>
        0 -1 3718 -956543776 786974683 -319497206 439516793 -298574328
        1585409877 -331842436 874661093</internalNodes>
      <leafValues>
        -6.9733816385269165e-01 1.8775999546051025e-01</leafValues></_>
    <_>
      <internalNodes>
        0 -1 4894 1486898352 804973986 1071486945 1877678652 -1985209857
        -1493319747 120403888 666379325</internalNodes>
      <leafValues>
        -6.3833296298980713e-01 1.6611735522747040e-01</leafValues></_></weakClassifiers></stage7>
</opencv_storage>
