<?xml version="1.0"?>
<opencv_storage>
<stage5>
  <maxWeakCount>10</maxWeakCount>
  <stageThreshold>-2.3394293785095215e+00</stageThreshold>
  <weakClassifiers>
    <_>
      <internalNodes>
        0 -1 3212 -134220801 -1 -201850881 -1 -67108865 -17 -1 -1048593</internalNodes>
      <leafValues>
        -9.1578811407089233e-01 1.8852458894252777e-01</leafValues></_>
    <_>
      <internalNodes>
        0 -1 2314 -2112517 -1733 1798953343 1566441467 -373325606
        -18092522 -675293205 -536872525</internalNodes>
      <leafValues>
        -6.7507427930831909e-01 7.7657781541347504e-02</leafValues></_>
    <_>
      <internalNodes>
        0 -1 1743 -630088484 1936587245 -405343206 -1154806145
        -1659231236 1830744059 -1082803025 457531370</internalNodes>
      <leafValues>
        -5.1694655418395996e-01 1.7480605840682983e-01</leafValues></_>
    <_>
      <internalNodes>
        0 -1 2458 -345010682 585559663 -155524480 -488313052 2012427521
        1194459054 -1225349627 1694482355</internalNodes>
      <leafValues>
        -5.8672237396240234e-01 1.9790948927402496e-01</leafValues></_>
    <_>
      <internalNodes>
        0 -1 1486 67662880 -1439964431 -67127309 -605100107 401254201
        335538030 -470424203 76812340</internalNodes>
      <leafValues>
        -7.8423386812210083e-01 1.8703040480613708e-01</leafValues></_>
    <_>
      <internalNodes>
        0 -1 4252 -1493955580 1449928173 -1091535122 584219518
        -560194556 1803181389 -98339 708714049</internalNodes>
      <leafValues>
        -6.9644004106521606e-01 1.4682377874851227e-01</leafValues></_>
    <_>
      <internalNodes>
        0 -1 2024 740828581 797753317 -1343258631 -1091764746 1073504037
        804642815 -5444739 -1128896799</internalNodes>
      <leafValues>
        -4.4607490301132202e-01 2.7849894762039185e-01</leafValues></_>
    <_>
      <internalNodes>
        0 -1 7924 2126444620 -1073920306 -352918648 -1876967586
        -25548082 1432354575 -487672090 1981284077</internalNodes>
      <leafValues>
        -5.0405603647232056e-01 2.5484555959701538e-01</leafValues></_>
    <_>
      <internalNodes>
        0 -1 7609 -369045600 589528992 1052735472 -1413300807 804908904
        -1781531169 864022881 485443684</internalNodes>
      <leafValues>
        -6.1485773324966431e-01 2.0262086391448975e-01</leafValues></_>
    <_>
      <internalNodes>
        0 -1 2003 1593464501 -1434642711 -285298962 -1603112966
        -287684780 1031225211 -258052 -1206895100</internalNodes>
      <leafValues>
        -4.9526396393775940e-01 2.5149035453796387e-01</leafValues></_></weakClassifiers></stage5>
</opencv_storage>
