<?xml version="1.0"?>
<opencv_storage>
<stage3>
  <maxWeakCount>9</maxWeakCount>
  <stageThreshold>-2.1853988170623779e+00</stageThreshold>
  <weakClassifiers>
    <_>
      <internalNodes>
        0 -1 7607 -1 -1 -129 -1 -1 -83886081 -1 -1</internalNodes>
      <leafValues>
        -9.1262632608413696e-01 4.0963855385780334e-01</leafValues></_>
    <_>
      <internalNodes>
        0 -1 4300 -189271301 -69522885 -194716931 -579340993 -549474117
        -68207201 -564396289 -549584949</internalNodes>
      <leafValues>
        -6.8252974748611450e-01 6.2778107821941376e-02</leafValues></_>
    <_>
      <internalNodes>
        0 -1 3040 -285217277 -429085977 -251857214 -218563242 -338165938
        203814855 -134742187 -452987309</internalNodes>
      <leafValues>
        -4.6451187133789063e-01 2.4541655182838440e-01</leafValues></_>
    <_>
      <internalNodes>
        0 -1 345 2087762658 2138087402 -151122324 388263550 1735810520
        896876351 -17390082 909446874</internalNodes>
      <leafValues>
        -5.5435591936111450e-01 2.3893974721431732e-01</leafValues></_>
    <_>
      <internalNodes>
        0 -1 5319 -1995417228 -1405984772 -41943555 -1108120099
        225472223 -440680450 455900629 -1632627283</internalNodes>
      <leafValues>
        -4.7253772616386414e-01 2.7499762177467346e-01</leafValues></_>
    <_>
      <internalNodes>
        0 -1 7063 237788320 209747664 -805374874 -1881588356 -4399115
        -843661417 498739424 212743417</internalNodes>
      <leafValues>
        -6.4541673660278320e-01 2.3239424824714661e-01</leafValues></_>
    <_>
      <internalNodes>
        0 -1 8118 1543446284 -143749239 -1493736796 -1602425094
        2095041607 201529167 -1091127306 -186188673</internalNodes>
      <leafValues>
        -4.6376764774322510e-01 2.8388565778732300e-01</leafValues></_>
    <_>
      <internalNodes>
        0 -1 1414 -2145220448 -157098257 -1275277359 -1208641156
        -849492564 -17979473 1405429647 1293358097</internalNodes>
      <leafValues>
        -5.4828518629074097e-01 2.4779719114303589e-01</leafValues></_>
    <_>
      <internalNodes>
        0 -1 6648 208934660 619323083 -17391617 -2030388241 1056862057
        2013265787 -8962492 -1598931340</internalNodes>
      <leafValues>
        -5.5967509746551514e-01 2.3025530576705933e-01</leafValues></_></weakClassifiers></stage3>
</opencv_storage>
