<?xml version="1.0"?>
<opencv_storage>
<stage4>
  <maxWeakCount>4</maxWeakCount>
  <stageThreshold>-2.3469378948211670e+00</stageThreshold>
  <weakClassifiers>
    <_>
      <internalNodes>
        0 -1 7379 -33 -8392193 -346825985 -789633 -4456961 -1311377
        -2360321 -67108865</internalNodes>
      <leafValues>
        -9.6842938661575317e-01 5.3846156597137451e-01</leafValues></_>
    <_>
      <internalNodes>
        0 -1 6551 -142606369 -161 -109054209 -75507201 -1311154
        -16843107 -220464385 -67109889</internalNodes>
      <leafValues>
        -9.1056805849075317e-01 2.8153258562088013e-01</leafValues></_>
    <_>
      <internalNodes>
        0 -1 2193 -1367015433 -7340240 -2299905 -16515125 -339745028
        -4469286 1525676031 -1084514821</internalNodes>
      <leafValues>
        -8.3393418788909912e-01 4.2078590393066406e-01</leafValues></_>
    <_>
      <internalNodes>
        0 -1 3261 -4243671 1878948862 -617382023 -34089985 -1153
        -570434629 -1056804 -1661797377</internalNodes>
      <leafValues>
        -8.8872629404067993e-01 4.6409398317337036e-01</leafValues></_></weakClassifiers></stage4>
</opencv_storage>
