<?xml version="1.0"?>
<opencv_storage>
<stage2>
  <maxWeakCount>4</maxWeakCount>
  <stageThreshold>-2.3437099456787109e+00</stageThreshold>
  <weakClassifiers>
    <_>
      <internalNodes>
        0 -1 6731 -1 -4465698 -2754563 -2097153 -71566849 -7611425
        -10241 -1025</internalNodes>
      <leafValues>
        -9.7145122289657593e-01 2.6315790414810181e-01</leafValues></_>
    <_>
      <internalNodes>
        0 -1 1881 -1 -14680065 -17637377 2144303967 -14086 -75537921
        -70590497 -1</internalNodes>
      <leafValues>
        -8.9223396778106689e-01 4.6059504151344299e-01</leafValues></_>
    <_>
      <internalNodes>
        0 -1 1557 -269549578 -3422486 -573323009 -1075840544 -896808001
        -1061905 2073810427 -134221337</internalNodes>
      <leafValues>
        -9.0769970417022705e-01 3.5114321112632751e-01</leafValues></_>
    <_>
      <internalNodes>
        0 -1 7332 -131146 1006108662 -336658988 -9251 803188471
        -1343235073 -1124108299 -1644298241</internalNodes>
      <leafValues>
        -9.6017730236053467e-01 4.2767488956451416e-01</leafValues></_></weakClassifiers></stage2>
</opencv_storage>
