<?xml version="1.0"?>
<opencv_storage>
<cascade>
  <stageType>BOOST</stageType>
  <featureType>LBP</featureType>
  <height>24</height>
  <width>24</width>
  <stageParams>
    <boostType>GAB</boostType>
    <minHitRate>9.9500000476837158e-01</minHitRate>
    <maxFalseAlarm>5.0000000000000000e-01</maxFalseAlarm>
    <weightTrimRate>9.4999999999999996e-01</weightTrimRate>
    <maxDepth>1</maxDepth>
    <maxWeakCount>100</maxWeakCount></stageParams>
  <featureParams>
    <maxCatCount>256</maxCatCount>
    <featSize>1</featSize></featureParams>
  <stageNum>10</stageNum>
  <stages>
    <!-- stage 0 -->
    <_>
      <maxWeakCount>7</maxWeakCount>
      <stageThreshold>-2.3373517990112305e+00</stageThreshold>
      <weakClassifiers>
        <_>
          <internalNodes>
            0 -1 35 -201329665 -131073 -201458689 -1025 -67125249
            -4202513 -5505025 -1048593</internalNodes>
          <leafValues>
            -8.6502951383590698e-01 5.5844157934188843e-01</leafValues></_>
        <_>
          <internalNodes>
            0 -1 17 -111412530 -171994383 -1022847041 2109306823
            -901977602 1599176955 -1601336689 1057698811</internalNodes>
          <leafValues>
            -6.9931024312973022e-01 2.4562804400920868e-01</leafValues></_>
        <_>
          <internalNodes>
            0 -1 51 -77283260 -552780476 -1102478471 2132607747
            284373746 -37882920 -1598521158 4813711</internalNodes>
          <leafValues>
            -6.2272942066192627e-01 2.7387839555740356e-01</leafValues></_>
        <_>
          <internalNodes>
            0 -1 1 -218322766 -1243652753 -1212565707 -573058435
            -195077636 -1733764166 -571371841 218585931</internalNodes>
          <leafValues>
            -4.2259025573730469e-01 4.4105216860771179e-01</leafValues></_>
        <_>
          <internalNodes>
            0 -1 13 1532165082 -587611528 1039665498 520325737
            -216346888 467180248 1546590941 1594563526</internalNodes>
          <leafValues>
            -4.5743224024772644e-01 3.9734837412834167e-01</leafValues></_>
        <_>
          <internalNodes>
            0 -1 55 -1915609072 959380394 -1840254160 1533577112
            -1920665192 -1904021653 -2050007395 476038139</internalNodes>
          <leafValues>
            -4.6880680322647095e-01 3.7073183059692383e-01</leafValues></_>
        <_>
          <internalNodes>
            0 -1 8 -421272950 -1016694786 -503374336 -40309434 838170286
            817139629 1993237327 629667414</internalNodes>
          <leafValues>
            -5.0555372238159180e-01 3.3490434288978577e-01</leafValues></_></weakClassifiers></_>
    <!-- stage 1 -->
    <_>
      <maxWeakCount>8</maxWeakCount>
      <stageThreshold>-2.1225461959838867e+00</stageThreshold>
      <weakClassifiers>
        <_>
          <internalNodes>
            0 -1 4 -1 -2049 -268435457 -1 -1 -526347 -1 -1</internalNodes>
          <leafValues>
            -8.6157876253128052e-01 5.3846156597137451e-01</leafValues></_>
        <_>
          <internalNodes>
            0 -1 37 -239340928 -12771425 -101655553 -36056849
            -1294623313 -37806081 -1445483265 1078321151</internalNodes>
          <leafValues>
            -6.8665218353271484e-01 4.0442869067192078e-03</leafValues></_>
        <_>
          <internalNodes>
            0 -1 48 2136339896 1035294010 -316003104 -1246822742
            1574942200 357580541 -12743252 803201695</internalNodes>
          <leafValues>
            -5.1280534267425537e-01 2.7182927727699280e-01</leafValues></_>
        <_>
          <internalNodes>
            0 -1 9 -1014117758 -762309086 1706911637 -675152543
            1111524783 -736117833 1279614415 1139246643</internalNodes>
          <leafValues>
            -4.4720092415809631e-01 3.1725868582725525e-01</leafValues></_>
        <_>
          <internalNodes>
            0 -1 86 631537013 -1459683847 -67178707 -826359840
            1869643645 805273599 -770603 -327910352</internalNodes>
          <leafValues>
            -4.6940362453460693e-01 3.1395632028579712e-01</leafValues></_>
        <_>
          <internalNodes>
            0 -1 70 -743448314 1408679771 -588251297 566294119
            -553780339 -92897409 -1028174194 -1296175113</internalNodes>
          <leafValues>
            -3.5341659188270569e-01 4.2959040403366089e-01</leafValues></_>
        <_>
          <internalNodes>
            0 -1 59 -1616378524 385436989 -268440577 1073096112
            268099518 -1342834761 -117921812 699403572</internalNodes>
          <leafValues>
            -6.0794585943222046e-01 2.5312137603759766e-01</leafValues></_>
        <_>
          <internalNodes>
            0 -1 75 -1514167040 289340715 2080202808 -1275393096
            -1157703925 256832963 -35296084 25636806</internalNodes>
          <leafValues>
            -5.7760727405548096e-01 2.5009009242057800e-01</leafValues></_></weakClassifiers></_>
    <!-- stage 2 -->
    <_>
      <maxWeakCount>7</maxWeakCount>
      <stageThreshold>-1.8833067417144775e+00</stageThreshold>
      <weakClassifiers>
        <_>
          <internalNodes>
            0 -1 36 -8388609 -1 -2149377 -1 -1 -2310145 -1 -1</internalNodes>
          <leafValues>
            -8.6100459098815918e-01 5.0239235162734985e-01</leafValues></_>
        <_>
          <internalNodes>
            0 -1 2 188235645 805289471 2147471231 -1360597072
            -1418756267 -8521217 -39051 -319787596</internalNodes>
          <leafValues>
            -6.9923812150955200e-01 -1.3688774779438972e-02</leafValues></_>
        <_>
          <internalNodes>
            0 -1 77 -1107337465 260004783 -1627409178 -1532035082
            -134781435 1683488525 -184884012 -486868105</internalNodes>
          <leafValues>
            -4.6368613839149475e-01 3.0031415820121765e-01</leafValues></_>
        <_>
          <internalNodes>
            0 -1 32 1862266419 -965952797 -218319232 -218567588
            -336071081 203945863 -134744236 -453577103</internalNodes>
          <leafValues>
            -4.3957221508026123e-01 3.4040740132331848e-01</leafValues></_>
        <_>
          <internalNodes>
            0 -1 31 -995842488 -1087275293 -135529079 2145254817
            -998318667 -185157663 1593143167 20275783</internalNodes>
          <leafValues>
            -5.4803907871246338e-01 2.5416874885559082e-01</leafValues></_>
        <_>
          <internalNodes>
            0 -1 80 -1346513054 -1356402833 1925179186 -1563365684
            -826712505 1182232405 520049988 1391720373</internalNodes>
          <leafValues>
            -5.9550380706787109e-01 2.5555545091629028e-01</leafValues></_>
        <_>
          <internalNodes>
            0 -1 63 -1381456464 1068302192 536300256 -537942288
            217779709 185990985 175975613 80322239</internalNodes>
          <leafValues>
            -5.4399961233139038e-01 2.6175126433372498e-01</leafValues></_></weakClassifiers></_>
    <!-- stage 3 -->
    <_>
      <maxWeakCount>9</maxWeakCount>
      <stageThreshold>-2.3786823749542236e+00</stageThreshold>
      <weakClassifiers>
        <_>
          <internalNodes>
            0 -1 27 -201852929 -1 -134348801 -17 -18890753 -275473
            -196609 -1048881</internalNodes>
          <leafValues>
            -8.6379861831665039e-01 3.7795275449752808e-01</leafValues></_>
        <_>
          <internalNodes>
            0 -1 49 -4431875 -172713 -17235971 -8430083 -1145511937
            -163969 -21315589 -4457985</internalNodes>
          <leafValues>
            -5.5499839782714844e-01 2.8353741765022278e-01</leafValues></_>
        <_>
          <internalNodes>
            0 -1 18 -539961126 2040151919 -1382114456 1534747172
            1525962393 1706901333 1585389310 2054230014</internalNodes>
          <leafValues>
            -5.2509295940399170e-01 2.3023670911788940e-01</leafValues></_>
        <_>
          <internalNodes>
            0 -1 52 238030236 -209949314 -1051651 -151487052 -1158013057
            -1074651297 -1386725635 -1078321991</internalNodes>
          <leafValues>
            -4.2548036575317383e-01 3.1728047132492065e-01</leafValues></_>
        <_>
          <internalNodes>
            0 -1 85 1047281535 -1544761362 -1380017327 -961245516
            1960263533 -1476460802 905396084 -1595637979</internalNodes>
          <leafValues>
            -4.9278596043586731e-01 2.8933125734329224e-01</leafValues></_>
        <_>
          <internalNodes>
            0 -1 79 -608236498 -28438897 -419470688 -1585647662
            -35656637 1313543941 -16861194 -189333921</internalNodes>
          <leafValues>
            -3.9803758263587952e-01 3.3267730474472046e-01</leafValues></_>
        <_>
          <internalNodes>
            0 -1 45 -1291821932 -1075938003 -96694276 -227379542
            1035361863 911372111 -621101742 -1373615758</internalNodes>
          <leafValues>
            -5.0244528055191040e-01 2.7845180034637451e-01</leafValues></_>
        <_>
          <internalNodes>
            0 -1 26 1945957072 1001619498 -168364999 1840838123
            -88409187 -1155124884 398847406 235251467</internalNodes>
          <leafValues>
            -4.0596866607666016e-01 3.3339899778366089e-01</leafValues></_>
        <_>
          <internalNodes>
            0 -1 60 687605053 788463421 -419447071 787053684 866916190
            -1216381569 -1899069580 -1934354884</internalNodes>
          <leafValues>
            -5.0987875461578369e-01 2.6504734158515930e-01</leafValues></_></weakClassifiers></_>
    <!-- stage 4 -->
    <_>
      <maxWeakCount>10</maxWeakCount>
      <stageThreshold>-1.8189917802810669e+00</stageThreshold>
      <weakClassifiers>
        <_>
          <internalNodes>
            0 -1 7 -1 -1 -1048577 -13631505 -536873729 -2561 -1 -1</internalNodes>
          <leafValues>
            -8.6652821302413940e-01 2.6143792271614075e-01</leafValues></_>
        <_>
          <internalNodes>
            0 -1 41 -552601601 -6471952 1529688863 1431690911 -294654232
            -1078003008 1323131359 -263781</internalNodes>
          <leafValues>
            -5.7794636487960815e-01 2.3784349858760834e-01</leafValues></_>
        <_>
          <internalNodes>
            0 -1 22 -1124078266 -1748304945 -153378272 850033755
            1608286028 105803599 -1367522906 -155189649</internalNodes>
          <leafValues>
            -4.4801253080368042e-01 2.5203183293342590e-01</leafValues></_>
        <_>
          <internalNodes>
            0 -1 61 204491080 -1355993479 -4305291 -1821222988 765869821
            -822091777 -2121122308 740840836</internalNodes>
          <leafValues>
            -6.3561993837356567e-01 1.8630345165729523e-01</leafValues></_>
        <_>
          <internalNodes>
            0 -1 72 -1476337888 597917600 2126476272 -1434148936
            802025289 -2050032161 855274865 214845492</internalNodes>
          <leafValues>
            -6.7212128639221191e-01 2.0054319500923157e-01</leafValues></_>
        <_>
          <internalNodes>
            0 -1 58 -1901066156 -1095098591 -16992273 -1140920843
            766967769 -1212417 -1195497996 -1440068547</internalNodes>
          <leafValues>
            -4.5257893204689026e-01 2.6709574460983276e-01</leafValues></_>
        <_>
          <internalNodes>
            0 -1 3 2115284686 1448386542 -1098994066 662398094
            -406398819 1047558572 -1087017430 594737690</internalNodes>
          <leafValues>
            -4.9181240797042847e-01 2.5589358806610107e-01</leafValues></_>
        <_>
          <internalNodes>
            0 -1 42 774431140 800517312 918005360 -362480191 -2063657497
            -2047869011 -1212778587 82402773</internalNodes>
          <leafValues>
            -6.4279365539550781e-01 1.9387136399745941e-01</leafValues></_>
        <_>
          <internalNodes>
            0 -1 28 -244056114 2102914316 -142820101 -1208615939
            -1057884452 2103410678 886558714 1689124739</internalNodes>
          <leafValues>
            -4.2947027087211609e-01 3.0690109729766846e-01</leafValues></_>
        <_>
          <internalNodes>
            0 -1 29 -2086115495 -1880719885 -940654665 -160710660
            -1348503557 -553259145 369090745 -706736372</internalNodes>
          <leafValues>
            -3.9255449175834656e-01 3.2571786642074585e-01</leafValues></_></weakClassifiers></_>
    <!-- stage 5 -->
    <_>
      <maxWeakCount>10</maxWeakCount>
      <stageThreshold>-2.0374994277954102e+00</stageThreshold>
      <weakClassifiers>
        <_>
          <internalNodes>
            0 -1 67 -1 -67371013 -540673 -1 -1 -1 -603988001 -1</internalNodes>
          <leafValues>
            -8.6328637599945068e-01 3.7599998712539673e-01</leafValues></_>
        <_>
          <internalNodes>
            0 -1 44 -730864933 2069572155 -245050627 1566041895
            -768634693 -1683016229 -565060421 -551559205</internalNodes>
          <leafValues>
            -5.9307360649108887e-01 1.7062778770923615e-01</leafValues></_>
        <_>
          <internalNodes>
            0 -1 20 -269758974 577170987 -1229266304 -218202570
            2113092610 120717230 -1208490112 1962934198</internalNodes>
          <leafValues>
            -5.8175373077392578e-01 1.7191833257675171e-01</leafValues></_>
        <_>
          <internalNodes>
            0 -1 25 1054830454 -1090683681 -135349297 582627306
            1876844364 -520257738 -547297650 -1170194699</internalNodes>
          <leafValues>
            -4.4730412960052490e-01 2.5868156552314758e-01</leafValues></_>
        <_>
          <internalNodes>
            0 -1 78 -210253205 -38625608 1599885513 1964939006
            -1888331019 -1170047847 320547066 -14680481</internalNodes>
          <leafValues>
            -2.3911100625991821e-01 4.8571211099624634e-01</leafValues></_>
        <_>
          <internalNodes>
            0 -1 57 1752449024 1592032091 670973925 -1147568581
            -553863681 2146688894 -84100658 710643027</internalNodes>
          <leafValues>
            -4.6982011198997498e-01 2.6102459430694580e-01</leafValues></_>
        <_>
          <internalNodes>
            0 -1 6 799767863 661585903 -16419 -352583943 -1149933707
            2130640875 -2057480367 -1090750476</internalNodes>
          <leafValues>
            -3.7974265217781067e-01 3.3518362045288086e-01</leafValues></_>
        <_>
          <internalNodes>
            0 -1 84 -2048725786 745549746 -356549124 -1591361738
            825869741 133035857 1290783944 2041511239</internalNodes>
          <leafValues>
            -4.7794923186302185e-01 2.6626852154731750e-01</leafValues></_>
        <_>
          <internalNodes>
            0 -1 83 182275334 -1209860135 -17121635 8289906 1656584262
            2139062263 -285540963 -266240848</internalNodes>
          <leafValues>
            -4.8389658331871033e-01 2.5429815053939819e-01</leafValues></_>
        <_>
          <internalNodes>
            0 -1 11 1728029818 -227819997 1858533918 -15765526
            1928740317 1672977406 1518024558 -327715307</internalNodes>
          <leafValues>
            -4.1035079956054688e-01 3.0284097790718079e-01</leafValues></_></weakClassifiers></_>
    <!-- stage 6 -->
    <_>
      <maxWeakCount>10</maxWeakCount>
      <stageThreshold>-1.8516917228698730e+00</stageThreshold>
      <weakClassifiers>
        <_>
          <internalNodes>
            0 -1 16 -5242881 -1 -1 -1 -1 -1 -1 -10753</internalNodes>
          <leafValues>
            -8.6610090732574463e-01 2.8813558816909790e-01</leafValues></_>
        <_>
          <internalNodes>
            0 -1 39 -797459745 -677401729 -436666409 -36306963
            -103241029 -1077992529 -2752529 -15759029</internalNodes>
          <leafValues>
            -5.4749280214309692e-01 2.8011167049407959e-01</leafValues></_>
        <_>
          <internalNodes>
            0 -1 0 -297355324 2142027698 1366538045 -67899542 759607293
            -537044995 1558529950 1104871795</internalNodes>
          <leafValues>
            -4.4060081243515015e-01 2.3839174211025238e-01</leafValues></_>
        <_>
          <internalNodes>
            0 -1 68 -2052010224 -552653848 -404868320 -306303688
            264226811 -2101019282 100381880 530732041</internalNodes>
          <leafValues>
            -5.3564834594726563e-01 2.1197257936000824e-01</leafValues></_>
        <_>
          <internalNodes>
            0 -1 23 1316897894 1592759663 -1229271126 -535397086
            -168358828 1450402909 -189071614 1702092757</internalNodes>
          <leafValues>
            -5.4095274209976196e-01 2.4842964112758636e-01</leafValues></_>
        <_>
          <internalNodes>
            0 -1 34 1074547836 1481128950 -345221 1064450818 1430534288
            1073512262 -1108338056 1248997635</internalNodes>
          <leafValues>
            -6.1729311943054199e-01 1.7169997096061707e-01</leafValues></_>
        <_>
          <internalNodes>
            0 -1 66 -1901542928 473636816 -172555 -268634690 -1346509018
            -1347437575 266368336 -1265208107</internalNodes>
          <leafValues>
            -4.6152552962303162e-01 2.6200267672538757e-01</leafValues></_>
        <_>
          <internalNodes>
            0 -1 62 -1397695156 -71926323 -1195659395 -1467673224
            -1078298952 -107010 -323179332 -1172168898</internalNodes>
          <leafValues>
            -4.2169931530952454e-01 2.8914144635200500e-01</leafValues></_>
        <_>
          <internalNodes>
            0 -1 38 624047392 578924320 -201895184 -1397981776
            -2058717449 1122986991 398418787 150734225</internalNodes>
          <leafValues>
            -7.5217592716217041e-01 1.6707322001457214e-01</leafValues></_>
        <_>
          <internalNodes>
            0 -1 65 220364593 750710323 -1367753029 -1459688013
            2135522608 1551892431 -1376620192 -1494330276</internalNodes>
          <leafValues>
            -4.7842589020729065e-01 2.4682527780532837e-01</leafValues></_></weakClassifiers></_>
    <!-- stage 7 -->
    <_>
      <maxWeakCount>9</maxWeakCount>
      <stageThreshold>-1.8703266382217407e+00</stageThreshold>
      <weakClassifiers>
        <_>
          <internalNodes>
            0 -1 30 -547356673 -2228257 1065335807 -1 -2097153 -2556164
            -68157445 -1285</internalNodes>
          <leafValues>
            -8.6874997615814209e-01 2.1764706075191498e-01</leafValues></_>
        <_>
          <internalNodes>
            0 -1 19 -2374725 -8651981 188471677 1566178811 -369119014
            -18108844 -742400278 -537921085</internalNodes>
          <leafValues>
            -5.7943707704544067e-01 2.3625883460044861e-01</leafValues></_>
        <_>
          <internalNodes>
            0 -1 81 -406858525 -1146498144 130894973 -1786809991
            -1416695928 1060835504 1560860571 -973090873</internalNodes>
          <leafValues>
            -3.3046394586563110e-01 3.5831379890441895e-01</leafValues></_>
        <_>
          <internalNodes>
            0 -1 24 635203453 2109496701 1006141373 799017808 1861508956
            1065188725 -1099404568 -1105838800</internalNodes>
          <leafValues>
            -5.0047624111175537e-01 2.4497829377651215e-01</leafValues></_>
        <_>
          <internalNodes>
            0 -1 74 -1406470175 -1355928115 -402662222 -1565575848
            -1342537759 790941108 1457215040 -724068940</internalNodes>
          <leafValues>
            -4.3461340665817261e-01 2.5785282254219055e-01</leafValues></_>
        <_>
          <internalNodes>
            0 -1 73 1824416512 -1714008160 -168325440 1643036532
            891254409 85385119 1165755612 75460043</internalNodes>
          <leafValues>
            -5.5650073289871216e-01 2.3804214596748352e-01</leafValues></_>
        <_>
          <internalNodes>
            0 -1 14 758653877 801668983 -1073774727 -1695752842
            1073643317 1861615543 -273880219 -1405702464</internalNodes>
          <leafValues>
            -4.4060850143432617e-01 2.5186580419540405e-01</leafValues></_>
        <_>
          <internalNodes>
            0 -1 76 1588558028 1073563342 1790861970 -1872822435
            2138712778 90177295 -487680274 1716778853</internalNodes>
          <leafValues>
            -4.9363499879837036e-01 2.4594233930110931e-01</leafValues></_>
        <_>
          <internalNodes>
            0 -1 53 -220320736 2065153891 1324924590 -848449793
            -1459715050 -570444438 -1804999442 691910270</internalNodes>
          <leafValues>
            -5.3410285711288452e-01 2.2890813648700714e-01</leafValues></_></weakClassifiers></_>
    <!-- stage 8 -->
    <_>
      <maxWeakCount>8</maxWeakCount>
      <stageThreshold>-2.2331416606903076e+00</stageThreshold>
      <weakClassifiers>
        <_>
          <internalNodes>
            0 -1 69 -536870913 -5 -1 -5 -1 -1 -536870913 -5</internalNodes>
          <leafValues>
            -8.6287748813629150e-01 4.2016807198524475e-01</leafValues></_>
        <_>
          <internalNodes>
            0 -1 10 -19925061 -37235213 -2024865955 -1645219721
            2126484411 -553786192 -809514565 -571476645</internalNodes>
          <leafValues>
            -5.5067861080169678e-01 2.5801068544387817e-01</leafValues></_>
        <_>
          <internalNodes>
            0 -1 46 1118870564 -81248363 1928494835 270687852 1996017188
            1867247175 2143186664 507120707</internalNodes>
          <leafValues>
            -6.4388334751129150e-01 1.3186773657798767e-01</leafValues></_>
        <_>
          <internalNodes>
            0 -1 12 -308057182 686078522 -201334046 -1308629520
            606916229 102096645 -2064194106 1148114020</internalNodes>
          <leafValues>
            -5.8755540847778320e-01 1.7869372665882111e-01</leafValues></_>
        <_>
          <internalNodes>
            0 -1 47 -1366637224 -1916384027 -1342210051 -9451627
            -1357333505 -1090719793 730529787 -1180496523</internalNodes>
          <leafValues>
            -3.6490544676780701e-01 3.1975066661834717e-01</leafValues></_>
        <_>
          <internalNodes>
            0 -1 43 582245380 880573877 -286285974 -1318036776
            1862671680 -8702131 -1174530233 640296178</internalNodes>
          <leafValues>
            -6.6106230020523071e-01 1.7694948613643646e-01</leafValues></_>
        <_>
          <internalNodes>
            0 -1 21 1660779810 1044968954 -352677150 -1262194976
            1728017757 107457372 1476354484 1649866726</internalNodes>
          <leafValues>
            -5.8642446994781494e-01 1.9814322888851166e-01</leafValues></_>
        <_>
          <internalNodes>
            0 -1 50 -166146536 -694476963 -1103446047 -411484724
            -1151576931 -407037955 -1157732482 -1120203786</internalNodes>
          <leafValues>
            -3.7408518791198730e-01 3.0490157008171082e-01</leafValues></_></weakClassifiers></_>
    <!-- stage 9 -->
    <_>
      <maxWeakCount>9</maxWeakCount>
      <stageThreshold>-1.8225238323211670e+00</stageThreshold>
      <weakClassifiers>
        <_>
          <internalNodes>
            0 -1 15 -1 -1 -4211713 -1 -1 -2293761 -67108865 -1</internalNodes>
          <leafValues>
            -8.5798156261444092e-01 6.3313609361648560e-01</leafValues></_>
        <_>
          <internalNodes>
            0 -1 33 -8388625 -570436153 -352711106 -671130641 -48504885
            2088684671 -301989889 -262465</internalNodes>
          <leafValues>
            -5.4786175489425659e-01 2.6689881086349487e-01</leafValues></_>
        <_>
          <internalNodes>
            0 -1 56 -890793288 1131522041 1172143440 1302330352
            -1885340792 -1737845351 -19062911 266205960</internalNodes>
          <leafValues>
            -5.0605100393295288e-01 1.9386617839336395e-01</leafValues></_>
        <_>
          <internalNodes>
            0 -1 71 1341033355 680426806 -1075250432 -851771902
            1660384659 8152959 -1252766446 6551333</internalNodes>
          <leafValues>
            -5.6473827362060547e-01 1.9129531085491180e-01</leafValues></_>
        <_>
          <internalNodes>
            0 -1 64 -273641412 -43171993 -1090538789 1920458054
            -1113056598 -34415291 -1691210021 -1156379041</internalNodes>
          <leafValues>
            -3.4484764933586121e-01 3.3330491185188293e-01</leafValues></_>
        <_>
          <internalNodes>
            0 -1 40 -709984208 473540994 -561231108 -1153993683
            1771858143 1561034164 1696650412 -1884748933</internalNodes>
          <leafValues>
            -4.1203099489212036e-01 2.8485894203186035e-01</leafValues></_>
        <_>
          <internalNodes>
            0 -1 82 1156253773 712961662 2147449686 -1292050443
            -95005110 -1116946818 -557974039 -85426404</internalNodes>
          <leafValues>
            -3.9373826980590820e-01 2.9515537619590759e-01</leafValues></_>
        <_>
          <internalNodes>
            0 -1 54 -617444856 150797908 1461643483 319511934 2048796800
            -638149566 1349700488 1121409910</internalNodes>
          <leafValues>
            -5.4901349544525146e-01 2.1573291718959808e-01</leafValues></_>
        <_>
          <internalNodes>
            0 -1 5 -184615369 -1461801033 804703854 -1565606153
            2121860734 1719104605 -1213661740 -998883916</internalNodes>
          <leafValues>
            -4.6925786137580872e-01 2.4236136674880981e-01</leafValues></_></weakClassifiers></_></stages>
  <features>
    <_>
      <rect>
        0 0 5 3</rect></_>
    <_>
      <rect>
        0 0 8 3</rect></_>
    <_>
      <rect>
        0 1 1 1</rect></_>
    <_>
      <rect>
        0 7 3 5</rect></_>
    <_>
      <rect>
        0 15 3 2</rect></_>
    <_>
      <rect>
        0 19 2 1</rect></_>
    <_>
      <rect>
        1 1 1 1</rect></_>
    <_>
      <rect>
        1 3 3 2</rect></_>
    <_>
      <rect>
        1 5 3 4</rect></_>
    <_>
      <rect>
        2 1 4 4</rect></_>
    <_>
      <rect>
        2 5 1 5</rect></_>
    <_>
      <rect>
        2 6 3 4</rect></_>
    <_>
      <rect>
        2 8 1 1</rect></_>
    <_>
      <rect>
        2 9 6 5</rect></_>
    <_>
      <rect>
        3 0 1 1</rect></_>
    <_>
      <rect>
        3 1 6 1</rect></_>
    <_>
      <rect>
        3 2 1 1</rect></_>
    <_>
      <rect>
        3 3 6 6</rect></_>
    <_>
      <rect>
        3 5 4 6</rect></_>
    <_>
      <rect>
        3 6 1 4</rect></_>
    <_>
      <rect>
        3 10 1 1</rect></_>
    <_>
      <rect>
        3 11 1 1</rect></_>
    <_>
      <rect>
        3 12 1 1</rect></_>
    <_>
      <rect>
        3 14 1 1</rect></_>
    <_>
      <rect>
        3 18 1 2</rect></_>
    <_>
      <rect>
        3 19 1 1</rect></_>
    <_>
      <rect>
        3 19 5 1</rect></_>
    <_>
      <rect>
        3 20 6 1</rect></_>
    <_>
      <rect>
        4 1 6 6</rect></_>
    <_>
      <rect>
        4 2 1 1</rect></_>
    <_>
      <rect>
        4 2 5 1</rect></_>
    <_>
      <rect>
        4 3 4 4</rect></_>
    <_>
      <rect>
        4 10 1 1</rect></_>
    <_>
      <rect>
        4 14 1 1</rect></_>
    <_>
      <rect>
        4 15 4 3</rect></_>
    <_>
      <rect>
        4 20 5 1</rect></_>
    <_>
      <rect>
        5 1 5 1</rect></_>
    <_>
      <rect>
        5 3 5 3</rect></_>
    <_>
      <rect>
        5 4 1 1</rect></_>
    <_>
      <rect>
        5 19 5 1</rect></_>
    <_>
      <rect>
        6 2 2 1</rect></_>
    <_>
      <rect>
        6 3 4 1</rect></_>
    <_>
      <rect>
        6 5 1 1</rect></_>
    <_>
      <rect>
        6 16 1 1</rect></_>
    <_>
      <rect>
        6 18 4 1</rect></_>
    <_>
      <rect>
        7 16 1 1</rect></_>
    <_>
      <rect>
        7 18 1 1</rect></_>
    <_>
      <rect>
        9 3 1 1</rect></_>
    <_>
      <rect>
        9 9 4 4</rect></_>
    <_>
      <rect>
        9 18 1 1</rect></_>
    <_>
      <rect>
        9 19 1 1</rect></_>
    <_>
      <rect>
        10 1 4 5</rect></_>
    <_>
      <rect>
        10 2 1 1</rect></_>
    <_>
      <rect>
        10 3 4 5</rect></_>
    <_>
      <rect>
        10 4 3 1</rect></_>
    <_>
      <rect>
        10 17 4 1</rect></_>
    <_>
      <rect>
        10 18 4 1</rect></_>
    <_>
      <rect>
        11 0 3 3</rect></_>
    <_>
      <rect>
        11 2 1 1</rect></_>
    <_>
      <rect>
        11 4 1 1</rect></_>
    <_>
      <rect>
        11 11 1 1</rect></_>
    <_>
      <rect>
        11 18 1 1</rect></_>
    <_>
      <rect>
        12 3 1 1</rect></_>
    <_>
      <rect>
        12 12 4 4</rect></_>
    <_>
      <rect>
        13 3 1 1</rect></_>
    <_>
      <rect>
        13 11 1 1</rect></_>
    <_>
      <rect>
        13 20 1 1</rect></_>
    <_>
      <rect>
        14 3 3 2</rect></_>
    <_>
      <rect>
        14 17 1 1</rect></_>
    <_>
      <rect>
        15 1 2 3</rect></_>
    <_>
      <rect>
        15 2 3 3</rect></_>
    <_>
      <rect>
        15 14 3 2</rect></_>
    <_>
      <rect>
        15 16 1 1</rect></_>
    <_>
      <rect>
        15 17 2 1</rect></_>
    <_>
      <rect>
        16 14 1 1</rect></_>
    <_>
      <rect>
        16 18 2 1</rect></_>
    <_>
      <rect>
        17 8 1 1</rect></_>
    <_>
      <rect>
        17 10 1 1</rect></_>
    <_>
      <rect>
        18 6 1 4</rect></_>
    <_>
      <rect>
        18 9 1 1</rect></_>
    <_>
      <rect>
        18 11 1 1</rect></_>
    <_>
      <rect>
        18 11 1 3</rect></_>
    <_>
      <rect>
        19 2 1 1</rect></_>
    <_>
      <rect>
        19 3 1 1</rect></_>
    <_>
      <rect>
        20 11 1 2</rect></_>
    <_>
      <rect>
        20 20 1 1</rect></_>
    <_>
      <rect>
        21 19 1 1</rect></_></features></cascade>
</opencv_storage>
