<?xml version="1.0"?>
<opencv_storage>
<stage7>
  <maxWeakCount>9</maxWeakCount>
  <stageThreshold>-1.8703266382217407e+00</stageThreshold>
  <weakClassifiers>
    <_>
      <internalNodes>
        0 -1 2786 -547356673 -2228257 1065335807 -1 -2097153 -2556164
        -68157445 -1285</internalNodes>
      <leafValues>
        -8.6874997615814209e-01 2.1764706075191498e-01</leafValues></_>
    <_>
      <internalNodes>
        0 -1 2314 -2374725 -8651981 188471677 1566178811 -369119014
        -18108844 -742400278 -537921085</internalNodes>
      <leafValues>
        -5.7943707704544067e-01 2.3625883460044861e-01</leafValues></_>
    <_>
      <internalNodes>
        0 -1 8138 -406858525 -1146498144 130894973 -1786809991
        -1416695928 1060835504 1560860571 -973090873</internalNodes>
      <leafValues>
        -3.3046394586563110e-01 3.5831379890441895e-01</leafValues></_>
    <_>
      <internalNodes>
        0 -1 2634 635203453 2109496701 1006141373 799017808 1861508956
        1065188725 -1099404568 -1105838800</internalNodes>
      <leafValues>
        -5.0047624111175537e-01 2.4497829377651215e-01</leafValues></_>
    <_>
      <internalNodes>
        0 -1 7790 -1406470175 -1355928115 -402662222 -1565575848
        -1342537759 790941108 1457215040 -724068940</internalNodes>
      <leafValues>
        -4.3461340665817261e-01 2.5785282254219055e-01</leafValues></_>
    <_>
      <internalNodes>
        0 -1 7617 1824416512 -1714008160 -168325440 1643036532 891254409
        85385119 1165755612 75460043</internalNodes>
      <leafValues>
        -5.5650073289871216e-01 2.3804214596748352e-01</leafValues></_>
    <_>
      <internalNodes>
        0 -1 2024 758653877 801668983 -1073774727 -1695752842 1073643317
        1861615543 -273880219 -1405702464</internalNodes>
      <leafValues>
        -4.4060850143432617e-01 2.5186580419540405e-01</leafValues></_>
    <_>
      <internalNodes>
        0 -1 7924 1588558028 1073563342 1790861970 -1872822435
        2138712778 90177295 -487680274 1716778853</internalNodes>
      <leafValues>
        -4.9363499879837036e-01 2.4594233930110931e-01</leafValues></_>
    <_>
      <internalNodes>
        0 -1 5817 -220320736 2065153891 1324924590 -848449793
        -1459715050 -570444438 -1804999442 691910270</internalNodes>
      <leafValues>
        -5.3410285711288452e-01 2.2890813648700714e-01</leafValues></_></weakClassifiers></stage7>
</opencv_storage>
