<?xml version="1.0"?>
<opencv_storage>
<stage9>
  <maxWeakCount>9</maxWeakCount>
  <stageThreshold>-1.8225238323211670e+00</stageThreshold>
  <weakClassifiers>
    <_>
      <internalNodes>
        0 -1 2115 -1 -1 -4211713 -1 -1 -2293761 -67108865 -1</internalNodes>
      <leafValues>
        -8.5798156261444092e-01 6.3313609361648560e-01</leafValues></_>
    <_>
      <internalNodes>
        0 -1 3130 -8388625 -570436153 -352711106 -671130641 -48504885
        2088684671 -301989889 -262465</internalNodes>
      <leafValues>
        -5.4786175489425659e-01 2.6689881086349487e-01</leafValues></_>
    <_>
      <internalNodes>
        0 -1 6058 -890793288 1131522041 1172143440 1302330352
        -1885340792 -1737845351 -19062911 266205960</internalNodes>
      <leafValues>
        -5.0605100393295288e-01 1.9386617839336395e-01</leafValues></_>
    <_>
      <internalNodes>
        0 -1 7598 1341033355 680426806 -1075250432 -851771902 1660384659
        8152959 -1252766446 6551333</internalNodes>
      <leafValues>
        -5.6473827362060547e-01 1.9129531085491180e-01</leafValues></_>
    <_>
      <internalNodes>
        0 -1 6874 -273641412 -43171993 -1090538789 1920458054
        -1113056598 -34415291 -1691210021 -1156379041</internalNodes>
      <leafValues>
        -3.4484764933586121e-01 3.3330491185188293e-01</leafValues></_>
    <_>
      <internalNodes>
        0 -1 3869 -709984208 473540994 -561231108 -1153993683 1771858143
        1561034164 1696650412 -1884748933</internalNodes>
      <leafValues>
        -4.1203099489212036e-01 2.8485894203186035e-01</leafValues></_>
    <_>
      <internalNodes>
        0 -1 8203 1156253773 712961662 2147449686 -1292050443 -95005110
        -1116946818 -557974039 -85426404</internalNodes>
      <leafValues>
        -3.9373826980590820e-01 2.9515537619590759e-01</leafValues></_>
    <_>
      <internalNodes>
        0 -1 5832 -617444856 150797908 1461643483 319511934 2048796800
        -638149566 1349700488 1121409910</internalNodes>
      <leafValues>
        -5.4901349544525146e-01 2.1573291718959808e-01</leafValues></_>
    <_>
      <internalNodes>
        0 -1 713 -184615369 -1461801033 804703854 -1565606153 2121860734
        1719104605 -1213661740 -998883916</internalNodes>
      <leafValues>
        -4.6925786137580872e-01 2.4236136674880981e-01</leafValues></_></weakClassifiers></stage9>
</opencv_storage>
