<?xml version="1.0"?>
<opencv_storage>
<stage8>
  <maxWeakCount>8</maxWeakCount>
  <stageThreshold>-2.2331416606903076e+00</stageThreshold>
  <weakClassifiers>
    <_>
      <internalNodes>
        0 -1 7393 -536870913 -5 -1 -5 -1 -1 -536870913 -5</internalNodes>
      <leafValues>
        -8.6287748813629150e-01 4.2016807198524475e-01</leafValues></_>
    <_>
      <internalNodes>
        0 -1 1629 -19925061 -37235213 -2024865955 -1645219721 2126484411
        -553786192 -809514565 -571476645</internalNodes>
      <leafValues>
        -5.5067861080169678e-01 2.5801068544387817e-01</leafValues></_>
    <_>
      <internalNodes>
        0 -1 4759 1118870564 -81248363 1928494835 270687852 1996017188
        1867247175 2143186664 507120707</internalNodes>
      <leafValues>
        -6.4388334751129150e-01 1.3186773657798767e-01</leafValues></_>
    <_>
      <internalNodes>
        0 -1 1744 -308057182 686078522 -201334046 -1308629520 606916229
        102096645 -2064194106 1148114020</internalNodes>
      <leafValues>
        -5.8755540847778320e-01 1.7869372665882111e-01</leafValues></_>
    <_>
      <internalNodes>
        0 -1 5354 -1366637224 -1916384027 -1342210051 -9451627
        -1357333505 -1090719793 730529787 -1180496523</internalNodes>
      <leafValues>
        -3.6490544676780701e-01 3.1975066661834717e-01</leafValues></_>
    <_>
      <internalNodes>
        0 -1 4270 582245380 880573877 -286285974 -1318036776 1862671680
        -8702131 -1174530233 640296178</internalNodes>
      <leafValues>
        -6.6106230020523071e-01 1.7694948613643646e-01</leafValues></_>
    <_>
      <internalNodes>
        0 -1 2486 1660779810 1044968954 -352677150 -1262194976
        1728017757 107457372 1476354484 1649866726</internalNodes>
      <leafValues>
        -5.8642446994781494e-01 1.9814322888851166e-01</leafValues></_>
    <_>
      <internalNodes>
        0 -1 5689 -166146536 -694476963 -1103446047 -411484724
        -1151576931 -407037955 -1157732482 -1120203786</internalNodes>
      <leafValues>
        -3.7408518791198730e-01 3.0490157008171082e-01</leafValues></_></weakClassifiers></stage8>
</opencv_storage>
