<?xml version="1.0"?>
<opencv_storage>
<stage2>
  <maxWeakCount>7</maxWeakCount>
  <stageThreshold>-1.8833067417144775e+00</stageThreshold>
  <weakClassifiers>
    <_>
      <internalNodes>
        0 -1 3296 -8388609 -1 -2149377 -1 -1 -2310145 -1 -1</internalNodes>
      <leafValues>
        -8.6100459098815918e-01 5.0239235162734985e-01</leafValues></_>
    <_>
      <internalNodes>
        0 -1 64 188235645 805289471 2147471231 -1360597072 -1418756267
        -8521217 -39051 -319787596</internalNodes>
      <leafValues>
        -6.9923812150955200e-01 -1.3688774779438972e-02</leafValues></_>
    <_>
      <internalNodes>
        0 -1 7944 -1107337465 260004783 -1627409178 -1532035082
        -134781435 1683488525 -184884012 -486868105</internalNodes>
      <leafValues>
        -4.6368613839149475e-01 3.0031415820121765e-01</leafValues></_>
    <_>
      <internalNodes>
        0 -1 3040 1862266419 -965952797 -218319232 -218567588 -336071081
        203945863 -134744236 -453577103</internalNodes>
      <leafValues>
        -4.3957221508026123e-01 3.4040740132331848e-01</leafValues></_>
    <_>
      <internalNodes>
        0 -1 2824 -995842488 -1087275293 -135529079 2145254817
        -998318667 -185157663 1593143167 20275783</internalNodes>
      <leafValues>
        -5.4803907871246338e-01 2.5416874885559082e-01</leafValues></_>
    <_>
      <internalNodes>
        0 -1 8136 -1346513054 -1356402833 1925179186 -1563365684
        -826712505 1182232405 520049988 1391720373</internalNodes>
      <leafValues>
        -5.9550380706787109e-01 2.5555545091629028e-01</leafValues></_>
    <_>
      <internalNodes>
        0 -1 6735 -1381456464 1068302192 536300256 -537942288 217779709
        185990985 175975613 80322239</internalNodes>
      <leafValues>
        -5.4399961233139038e-01 2.6175126433372498e-01</leafValues></_></weakClassifiers></stage2>
</opencv_storage>
