<?xml version="1.0"?>
<opencv_storage>
<stage10>
  <maxWeakCount>10</maxWeakCount>
  <stageThreshold>-1.9270520210266113e+00</stageThreshold>
  <weakClassifiers>
    <_>
      <internalNodes>
        0 -1 6788 -1 -8705 -4194305 -3 -1073741825 -1 -1079246849 -1</internalNodes>
      <leafValues>
        -8.6719560623168945e-01 2.5878593325614929e-01</leafValues></_>
    <_>
      <internalNodes>
        0 -1 8108 -203694385 1937756111 -1057508694 -209977458
        -218666290 1162559327 -226511878 -8658945</internalNodes>
      <leafValues>
        -6.0133409500122070e-01 1.0769943147897720e-01</leafValues></_>
    <_>
      <internalNodes>
        0 -1 4469 -158667504 -1077236500 -717846534 -554093003 233340863
        -1882799111 935703537 -1615192781</internalNodes>
      <leafValues>
        -4.3078628182411194e-01 2.4100406467914581e-01</leafValues></_>
    <_>
      <internalNodes>
        0 -1 245 -356059729 -560058712 2081337094 -273945841 669479863
        1148613831 341755158 1691853954</internalNodes>
      <leafValues>
        -4.4126769900321960e-01 2.4437382817268372e-01</leafValues></_>
    <_>
      <internalNodes>
        0 -1 4894 -928366416 -2031162080 937271277 1873482428 -911443459
        -1493320779 401110961 -2034629187</internalNodes>
      <leafValues>
        -4.5592761039733887e-01 2.4383492767810822e-01</leafValues></_>
    <_>
      <internalNodes>
        0 -1 7465 -587328248 850157167 150994682 1920608735 -537086458
        2104852295 -289620100 2058513688</internalNodes>
      <leafValues>
        -5.2178943157196045e-01 2.4307525157928467e-01</leafValues></_>
    <_>
      <internalNodes>
        0 -1 2701 2049051138 -1367969924 135610103 -1153826961
        -944260364 -1594358736 483864092 67459063</internalNodes>
      <leafValues>
        -5.6972301006317139e-01 1.9340644776821136e-01</leafValues></_>
    <_>
      <internalNodes>
        0 -1 8144 -1494260084 -444137590 587147378 -1292208149
        -1371539707 184597850 -671660039 -687866411</internalNodes>
      <leafValues>
        -4.1319686174392700e-01 2.7202627062797546e-01</leafValues></_>
    <_>
      <internalNodes>
        0 -1 2003 -1881516395 -1989189911 -285294866 -2077069316
        -285587851 1031618427 2121273340 -1506664940</internalNodes>
      <leafValues>
        -4.8233050107955933e-01 2.4062304198741913e-01</leafValues></_>
    <_>
      <internalNodes>
        0 -1 3089 -398863274 367816619 -1783397694 271021615 -178813734
        29377672 288511484 1501550442</internalNodes>
      <leafValues>
        -4.5706331729888916e-01 2.5165596604347229e-01</leafValues></_></weakClassifiers></stage10>
</opencv_storage>
