<?xml version="1.0"?>
<opencv_storage>
<stage1>
  <maxWeakCount>8</maxWeakCount>
  <stageThreshold>-2.1225461959838867e+00</stageThreshold>
  <weakClassifiers>
    <_>
      <internalNodes>
        0 -1 647 -1 -2049 -268435457 -1 -1 -526347 -1 -1</internalNodes>
      <leafValues>
        -8.6157876253128052e-01 5.3846156597137451e-01</leafValues></_>
    <_>
      <internalNodes>
        0 -1 3382 -239340928 -12771425 -101655553 -36056849 -1294623313
        -37806081 -1445483265 1078321151</internalNodes>
      <leafValues>
        -6.8665218353271484e-01 4.0442869067192078e-03</leafValues></_>
    <_>
      <internalNodes>
        0 -1 5547 2136339896 1035294010 -316003104 -1246822742
        1574942200 357580541 -12743252 803201695</internalNodes>
      <leafValues>
        -5.1280534267425537e-01 2.7182927727699280e-01</leafValues></_>
    <_>
      <internalNodes>
        0 -1 1460 -1014117758 -762309086 1706911637 -675152543
        1111524783 -736117833 1279614415 1139246643</internalNodes>
      <leafValues>
        -4.4720092415809631e-01 3.1725868582725525e-01</leafValues></_>
    <_>
      <internalNodes>
        0 -1 8461 631537013 -1459683847 -67178707 -826359840 1869643645
        805273599 -770603 -327910352</internalNodes>
      <leafValues>
        -4.6940362453460693e-01 3.1395632028579712e-01</leafValues></_>
    <_>
      <internalNodes>
        0 -1 7421 -743448314 1408679771 -588251297 566294119 -553780339
        -92897409 -1028174194 -1296175113</internalNodes>
      <leafValues>
        -3.5341659188270569e-01 4.2959040403366089e-01</leafValues></_>
    <_>
      <internalNodes>
        0 -1 6188 -1616378524 385436989 -268440577 1073096112 268099518
        -1342834761 -117921812 699403572</internalNodes>
      <leafValues>
        -6.0794585943222046e-01 2.5312137603759766e-01</leafValues></_>
    <_>
      <internalNodes>
        0 -1 7812 -1514167040 289340715 2080202808 -1275393096
        -1157703925 256832963 -35296084 25636806</internalNodes>
      <leafValues>
        -5.7760727405548096e-01 2.5009009242057800e-01</leafValues></_></weakClassifiers></stage1>
</opencv_storage>
