<?xml version="1.0"?>
<opencv_storage>
<stage6>
  <maxWeakCount>10</maxWeakCount>
  <stageThreshold>-1.8516917228698730e+00</stageThreshold>
  <weakClassifiers>
    <_>
      <internalNodes>
        0 -1 2129 -5242881 -1 -1 -1 -1 -1 -1 -10753</internalNodes>
      <leafValues>
        -8.6610090732574463e-01 2.8813558816909790e-01</leafValues></_>
    <_>
      <internalNodes>
        0 -1 3758 -797459745 -677401729 -436666409 -36306963 -103241029
        -1077992529 -2752529 -15759029</internalNodes>
      <leafValues>
        -5.4749280214309692e-01 2.8011167049407959e-01</leafValues></_>
    <_>
      <internalNodes>
        0 -1 34 -297355324 2142027698 1366538045 -67899542 759607293
        -537044995 1558529950 1104871795</internalNodes>
      <leafValues>
        -4.4060081243515015e-01 2.3839174211025238e-01</leafValues></_>
    <_>
      <internalNodes>
        0 -1 7339 -2052010224 -552653848 -404868320 -306303688 264226811
        -2101019282 100381880 530732041</internalNodes>
      <leafValues>
        -5.3564834594726563e-01 2.1197257936000824e-01</leafValues></_>
    <_>
      <internalNodes>
        0 -1 2563 1316897894 1592759663 -1229271126 -535397086
        -168358828 1450402909 -189071614 1702092757</internalNodes>
      <leafValues>
        -5.4095274209976196e-01 2.4842964112758636e-01</leafValues></_>
    <_>
      <internalNodes>
        0 -1 3159 1074547836 1481128950 -345221 1064450818 1430534288
        1073512262 -1108338056 1248997635</internalNodes>
      <leafValues>
        -6.1729311943054199e-01 1.7169997096061707e-01</leafValues></_>
    <_>
      <internalNodes>
        0 -1 7078 -1901542928 473636816 -172555 -268634690 -1346509018
        -1347437575 266368336 -1265208107</internalNodes>
      <leafValues>
        -4.6152552962303162e-01 2.6200267672538757e-01</leafValues></_>
    <_>
      <internalNodes>
        0 -1 6528 -1397695156 -71926323 -1195659395 -1467673224
        -1078298952 -107010 -323179332 -1172168898</internalNodes>
      <leafValues>
        -4.2169931530952454e-01 2.8914144635200500e-01</leafValues></_>
    <_>
      <internalNodes>
        0 -1 3394 624047392 578924320 -201895184 -1397981776 -2058717449
        1122986991 398418787 150734225</internalNodes>
      <leafValues>
        -7.5217592716217041e-01 1.6707322001457214e-01</leafValues></_>
    <_>
      <internalNodes>
        0 -1 7006 220364593 750710323 -1367753029 -1459688013 2135522608
        1551892431 -1376620192 -1494330276</internalNodes>
      <leafValues>
        -4.7842589020729065e-01 2.4682527780532837e-01</leafValues></_></weakClassifiers></stage6>
</opencv_storage>
