<?xml version="1.0"?>
<opencv_storage>
<cascade>
  <stageType>BOOST</stageType>
  <featureType>HAAR</featureType>
  <height>24</height>
  <width>24</width>
  <stageParams>
    <boostType>GAB</boostType>
    <minHitRate>9.9500000476837158e-01</minHitRate>
    <maxFalseAlarm>5.0000000000000000e-01</maxFalseAlarm>
    <weightTrimRate>9.4999999999999996e-01</weightTrimRate>
    <maxDepth>1</maxDepth>
    <maxWeakCount>100</maxWeakCount></stageParams>
  <featureParams>
    <maxCatCount>0</maxCatCount>
    <featSize>1</featSize>
    <mode>BASIC</mode></featureParams>
  <stageNum>17</stageNum>
  <stages>
    <!-- stage 0 -->
    <_>
      <maxWeakCount>5</maxWeakCount>
      <stageThreshold>-2.5675446987152100e+00</stageThreshold>
      <weakClassifiers>
        <_>
          <internalNodes>
            0 -1 91 -3.9462454617023468e-02</internalNodes>
          <leafValues>
            -3.7362638115882874e-01 -9.7448360919952393e-01</leafValues></_>
        <_>
          <internalNodes>
            0 -1 40 -2.4690529331564903e-02</internalNodes>
          <leafValues>
            1.2129502743482590e-01 -8.7560403347015381e-01</leafValues></_>
        <_>
          <internalNodes>
            0 -1 25 6.6978961229324341e-02</internalNodes>
          <leafValues>
            -5.4872715473175049e-01 7.5635093450546265e-01</leafValues></_>
        <_>
          <internalNodes>
            0 -1 98 2.4557504802942276e-02</internalNodes>
          <leafValues>
            -3.9395707845687866e-01 6.9740658998489380e-01</leafValues></_>
        <_>
          <internalNodes>
            0 -1 103 -1.5689583960920572e-03</internalNodes>
          <leafValues>
            5.4097032546997070e-01 -3.7563002109527588e-01</leafValues></_></weakClassifiers></_>
    <!-- stage 1 -->
    <_>
      <maxWeakCount>7</maxWeakCount>
      <stageThreshold>-2.5909101963043213e+00</stageThreshold>
      <weakClassifiers>
        <_>
          <internalNodes>
            0 -1 59 -1.1820827610790730e-02</internalNodes>
          <leafValues>
            4.4444444775581360e-01 -9.6302121877670288e-01</leafValues></_>
        <_>
          <internalNodes>
            0 -1 30 6.4726941287517548e-02</internalNodes>
          <leafValues>
            -8.5659724473953247e-01 3.5027167201042175e-01</leafValues></_>
        <_>
          <internalNodes>
            0 -1 84 8.5660502314567566e-02</internalNodes>
          <leafValues>
            -5.3604716062545776e-01 6.1924439668655396e-01</leafValues></_>
        <_>
          <internalNodes>
            0 -1 77 2.7832778170704842e-02</internalNodes>
          <leafValues>
            -4.3924498558044434e-01 6.0827600955963135e-01</leafValues></_>
        <_>
          <internalNodes>
            0 -1 132 1.8326819408684969e-03</internalNodes>
          <leafValues>
            2.7604359388351440e-01 -7.2524279356002808e-01</leafValues></_>
        <_>
          <internalNodes>
            0 -1 73 -2.1967910230159760e-02</internalNodes>
          <leafValues>
            5.7752305269241333e-01 -3.3831426501274109e-01</leafValues></_>
        <_>
          <internalNodes>
            0 -1 24 -2.7636351296678185e-04</internalNodes>
          <leafValues>
            -7.7530694007873535e-01 2.6627102494239807e-01</leafValues></_></weakClassifiers></_>
    <!-- stage 2 -->
    <_>
      <maxWeakCount>7</maxWeakCount>
      <stageThreshold>-2.0493330955505371e+00</stageThreshold>
      <weakClassifiers>
        <_>
          <internalNodes>
            0 -1 10 1.7518325150012970e-01</internalNodes>
          <leafValues>
            -9.1417551040649414e-01 3.4782609343528748e-01</leafValues></_>
        <_>
          <internalNodes>
            0 -1 97 -7.2372262366116047e-03</internalNodes>
          <leafValues>
            6.2800383567810059e-01 -6.7083060741424561e-01</leafValues></_>
        <_>
          <internalNodes>
            0 -1 45 1.5865687280893326e-02</internalNodes>
          <leafValues>
            -4.0155425667762756e-01 5.6902486085891724e-01</leafValues></_>
        <_>
          <internalNodes>
            0 -1 29 -1.6320273280143738e-02</internalNodes>
          <leafValues>
            6.7764168977737427e-01 -3.2145419716835022e-01</leafValues></_>
        <_>
          <internalNodes>
            0 -1 22 -1.7568834125995636e-02</internalNodes>
          <leafValues>
            4.9734628200531006e-01 -3.3990702033042908e-01</leafValues></_>
        <_>
          <internalNodes>
            0 -1 23 -5.3152604959905148e-04</internalNodes>
          <leafValues>
            -8.6593365669250488e-01 2.2878564894199371e-01</leafValues></_>
        <_>
          <internalNodes>
            0 -1 109 2.2538895718753338e-03</internalNodes>
          <leafValues>
            -3.4331035614013672e-01 5.5082970857620239e-01</leafValues></_></weakClassifiers></_>
    <!-- stage 3 -->
    <_>
      <maxWeakCount>7</maxWeakCount>
      <stageThreshold>-2.0521271228790283e+00</stageThreshold>
      <weakClassifiers>
        <_>
          <internalNodes>
            0 -1 52 -1.3833529315888882e-02</internalNodes>
          <leafValues>
            6.0000002384185791e-01 -9.1175061464309692e-01</leafValues></_>
        <_>
          <internalNodes>
            0 -1 38 -8.0898933112621307e-02</internalNodes>
          <leafValues>
            4.7671195864677429e-01 -7.0348906517028809e-01</leafValues></_>
        <_>
          <internalNodes>
            0 -1 68 -7.2722919285297394e-03</internalNodes>
          <leafValues>
            7.0172154903411865e-01 -3.4808617830276489e-01</leafValues></_>
        <_>
          <internalNodes>
            0 -1 127 7.3353049810975790e-04</internalNodes>
          <leafValues>
            2.1820382773876190e-01 -9.1468793153762817e-01</leafValues></_>
        <_>
          <internalNodes>
            0 -1 76 -5.3138621151447296e-02</internalNodes>
          <leafValues>
            6.6875171661376953e-01 -2.8930762410163879e-01</leafValues></_>
        <_>
          <internalNodes>
            0 -1 88 7.5571229681372643e-03</internalNodes>
          <leafValues>
            -2.4145501852035522e-01 6.4545518159866333e-01</leafValues></_>
        <_>
          <internalNodes>
            0 -1 127 -1.1215668637305498e-03</internalNodes>
          <leafValues>
            -9.1272073984146118e-01 2.2375756502151489e-01</leafValues></_></weakClassifiers></_>
    <!-- stage 4 -->
    <_>
      <maxWeakCount>9</maxWeakCount>
      <stageThreshold>-2.3176996707916260e+00</stageThreshold>
      <weakClassifiers>
        <_>
          <internalNodes>
            0 -1 87 -1.0765578597784042e-02</internalNodes>
          <leafValues>
            5.8823531866073608e-01 -9.1083413362503052e-01</leafValues></_>
        <_>
          <internalNodes>
            0 -1 80 -7.9104024916887283e-03</internalNodes>
          <leafValues>
            5.3988653421401978e-01 -6.6573816537857056e-01</leafValues></_>
        <_>
          <internalNodes>
            0 -1 41 -1.1569434776902199e-02</internalNodes>
          <leafValues>
            5.0457441806793213e-01 -3.8297468423843384e-01</leafValues></_>
        <_>
          <internalNodes>
            0 -1 0 3.5742104053497314e-02</internalNodes>
          <leafValues>
            -3.0217581987380981e-01 5.5767250061035156e-01</leafValues></_>
        <_>
          <internalNodes>
            0 -1 37 -4.8838858492672443e-04</internalNodes>
          <leafValues>
            -7.3157787322998047e-01 2.3225438594818115e-01</leafValues></_>
        <_>
          <internalNodes>
            0 -1 51 4.9616359174251556e-03</internalNodes>
          <leafValues>
            -2.7897945046424866e-01 5.6479310989379883e-01</leafValues></_>
        <_>
          <internalNodes>
            0 -1 110 -1.3570149894803762e-03</internalNodes>
          <leafValues>
            -7.3170840740203857e-01 2.1309007704257965e-01</leafValues></_>
        <_>
          <internalNodes>
            0 -1 49 1.4905318617820740e-02</internalNodes>
          <leafValues>
            -3.0168056488037109e-01 4.8692491650581360e-01</leafValues></_>
        <_>
          <internalNodes>
            0 -1 35 1.2432215735316277e-03</internalNodes>
          <leafValues>
            1.8036475777626038e-01 -9.6243542432785034e-01</leafValues></_></weakClassifiers></_>
    <!-- stage 5 -->
    <_>
      <maxWeakCount>8</maxWeakCount>
      <stageThreshold>-1.8984274864196777e+00</stageThreshold>
      <weakClassifiers>
        <_>
          <internalNodes>
            0 -1 39 1.7248891294002533e-01</internalNodes>
          <leafValues>
            -9.2229235172271729e-01 3.1147539615631104e-01</leafValues></_>
        <_>
          <internalNodes>
            0 -1 102 6.8880096077919006e-02</internalNodes>
          <leafValues>
            -6.9909930229187012e-01 2.9633963108062744e-01</leafValues></_>
        <_>
          <internalNodes>
            0 -1 44 9.7317412495613098e-02</internalNodes>
          <leafValues>
            -3.3480969071388245e-01 6.6000092029571533e-01</leafValues></_>
        <_>
          <internalNodes>
            0 -1 67 6.8281948566436768e-02</internalNodes>
          <leafValues>
            -1.9347721338272095e-01 7.4323338270187378e-01</leafValues></_>
        <_>
          <internalNodes>
            0 -1 34 1.3684993609786034e-03</internalNodes>
          <leafValues>
            1.8158830702304840e-01 -9.1938102245330811e-01</leafValues></_>
        <_>
          <internalNodes>
            0 -1 89 -2.9969811439514160e-03</internalNodes>
          <leafValues>
            6.3453155755996704e-01 -2.4637670814990997e-01</leafValues></_>
        <_>
          <internalNodes>
            0 -1 58 -2.4624303914606571e-03</internalNodes>
          <leafValues>
            6.1261165142059326e-01 -3.1741043925285339e-01</leafValues></_>
        <_>
          <internalNodes>
            0 -1 78 3.4519642591476440e-02</internalNodes>
          <leafValues>
            -2.4571114778518677e-01 6.3344991207122803e-01</leafValues></_></weakClassifiers></_>
    <!-- stage 6 -->
    <_>
      <maxWeakCount>7</maxWeakCount>
      <stageThreshold>-1.6703761816024780e+00</stageThreshold>
      <weakClassifiers>
        <_>
          <internalNodes>
            0 -1 6 7.4648454785346985e-02</internalNodes>
          <leafValues>
            -9.3103450536727905e-01 -1.4285714924335480e-01</leafValues></_>
        <_>
          <internalNodes>
            0 -1 48 6.1874106526374817e-02</internalNodes>
          <leafValues>
            -6.9935333728790283e-01 2.9208928346633911e-01</leafValues></_>
        <_>
          <internalNodes>
            0 -1 8 -6.9575667381286621e-02</internalNodes>
          <leafValues>
            7.5546145439147949e-01 -3.1085675954818726e-01</leafValues></_>
        <_>
          <internalNodes>
            0 -1 129 -9.0745498891919851e-04</internalNodes>
          <leafValues>
            -8.9753520488739014e-01 1.9315469264984131e-01</leafValues></_>
        <_>
          <internalNodes>
            0 -1 65 3.2536193728446960e-02</internalNodes>
          <leafValues>
            2.0002770423889160e-01 -7.2503459453582764e-01</leafValues></_>
        <_>
          <internalNodes>
            0 -1 90 -8.5307806730270386e-02</internalNodes>
          <leafValues>
            6.5619510412216187e-01 -2.7384757995605469e-01</leafValues></_>
        <_>
          <internalNodes>
            0 -1 19 -1.1621692683547735e-03</internalNodes>
          <leafValues>
            -9.1478461027145386e-01 2.0713284611701965e-01</leafValues></_></weakClassifiers></_>
    <!-- stage 7 -->
    <_>
      <maxWeakCount>8</maxWeakCount>
      <stageThreshold>-2.1110002994537354e+00</stageThreshold>
      <weakClassifiers>
        <_>
          <internalNodes>
            0 -1 15 1.4991638064384460e-01</internalNodes>
          <leafValues>
            -9.2266273498535156e-01 6.4935065805912018e-02</leafValues></_>
        <_>
          <internalNodes>
            0 -1 121 5.9319576248526573e-03</internalNodes>
          <leafValues>
            -6.4381963014602661e-01 7.9088431596755981e-01</leafValues></_>
        <_>
          <internalNodes>
            0 -1 9 -9.2341616749763489e-02</internalNodes>
          <leafValues>
            -7.7335745096206665e-01 1.9254398345947266e-01</leafValues></_>
        <_>
          <internalNodes>
            0 -1 17 1.0416892357170582e-02</internalNodes>
          <leafValues>
            -4.3043053150177002e-01 4.7213456034660339e-01</leafValues></_>
        <_>
          <internalNodes>
            0 -1 63 -1.5788756310939789e-02</internalNodes>
          <leafValues>
            -7.0538699626922607e-01 2.2739030420780182e-01</leafValues></_>
        <_>
          <internalNodes>
            0 -1 43 8.6025329073891044e-04</internalNodes>
          <leafValues>
            -3.2994681596755981e-01 4.8592069745063782e-01</leafValues></_>
        <_>
          <internalNodes>
            0 -1 13 6.1734877526760101e-02</internalNodes>
          <leafValues>
            -2.1879425644874573e-01 6.5867954492568970e-01</leafValues></_>
        <_>
          <internalNodes>
            0 -1 85 -3.0202429741621017e-02</internalNodes>
          <leafValues>
            -9.4993579387664795e-01 1.9496548175811768e-01</leafValues></_></weakClassifiers></_>
    <!-- stage 8 -->
    <_>
      <maxWeakCount>7</maxWeakCount>
      <stageThreshold>-2.0452315807342529e+00</stageThreshold>
      <weakClassifiers>
        <_>
          <internalNodes>
            0 -1 99 -8.9670326560735703e-03</internalNodes>
          <leafValues>
            2.3076923191547394e-01 -9.1489362716674805e-01</leafValues></_>
        <_>
          <internalNodes>
            0 -1 36 5.2454717457294464e-02</internalNodes>
          <leafValues>
            -7.3980230093002319e-01 9.7890935838222504e-02</leafValues></_>
        <_>
          <internalNodes>
            0 -1 120 -8.1995816435664892e-04</internalNodes>
          <leafValues>
            4.2885774374008179e-01 -4.3934968113899231e-01</leafValues></_>
        <_>
          <internalNodes>
            0 -1 113 5.3556649945676327e-03</internalNodes>
          <leafValues>
            -2.3071350157260895e-01 6.8641728162765503e-01</leafValues></_>
        <_>
          <internalNodes>
            0 -1 114 -1.3918259646743536e-03</internalNodes>
          <leafValues>
            6.1930108070373535e-01 -2.4465346336364746e-01</leafValues></_>
        <_>
          <internalNodes>
            0 -1 57 -4.4275742024183273e-02</internalNodes>
          <leafValues>
            -4.8371997475624084e-01 3.2781663537025452e-01</leafValues></_>
        <_>
          <internalNodes>
            0 -1 96 1.2542678043246269e-02</internalNodes>
          <leafValues>
            1.9636435806751251e-01 -8.5555303096771240e-01</leafValues></_></weakClassifiers></_>
    <!-- stage 9 -->
    <_>
      <maxWeakCount>8</maxWeakCount>
      <stageThreshold>-1.8005048036575317e+00</stageThreshold>
      <weakClassifiers>
        <_>
          <internalNodes>
            0 -1 105 1.6036193817853928e-02</internalNodes>
          <leafValues>
            -9.0530848503112793e-01 4.4827586412429810e-01</leafValues></_>
        <_>
          <internalNodes>
            0 -1 60 -1.2580402195453644e-01</internalNodes>
          <leafValues>
            1.5869034826755524e-01 -6.9573807716369629e-01</leafValues></_>
        <_>
          <internalNodes>
            0 -1 42 9.9805626086890697e-04</internalNodes>
          <leafValues>
            -4.5786571502685547e-01 3.2563143968582153e-01</leafValues></_>
        <_>
          <internalNodes>
            0 -1 92 -9.6892798319458961e-04</internalNodes>
          <leafValues>
            5.4083693027496338e-01 -2.7245813608169556e-01</leafValues></_>
        <_>
          <internalNodes>
            0 -1 107 1.9651532638818026e-03</internalNodes>
          <leafValues>
            -2.5384116172790527e-01 5.0221633911132813e-01</leafValues></_>
        <_>
          <internalNodes>
            0 -1 106 -2.9762243502773345e-04</internalNodes>
          <leafValues>
            4.9410665035247803e-01 -3.0437564849853516e-01</leafValues></_>
        <_>
          <internalNodes>
            0 -1 3 8.0994740128517151e-02</internalNodes>
          <leafValues>
            -2.0467762649059296e-01 6.8113708496093750e-01</leafValues></_>
        <_>
          <internalNodes>
            0 -1 62 1.0843535419553518e-03</internalNodes>
          <leafValues>
            -2.4579460918903351e-01 5.7983261346817017e-01</leafValues></_></weakClassifiers></_>
    <!-- stage 10 -->
    <_>
      <maxWeakCount>8</maxWeakCount>
      <stageThreshold>-1.9921667575836182e+00</stageThreshold>
      <weakClassifiers>
        <_>
          <internalNodes>
            0 -1 118 -1.7701338976621628e-02</internalNodes>
          <leafValues>
            4.6153846383094788e-01 -9.0353393554687500e-01</leafValues></_>
        <_>
          <internalNodes>
            0 -1 83 1.0179808735847473e-01</internalNodes>
          <leafValues>
            -6.7700833082199097e-01 1.0253055393695831e-01</leafValues></_>
        <_>
          <internalNodes>
            0 -1 64 7.6955735683441162e-02</internalNodes>
          <leafValues>
            -2.6928055286407471e-01 7.2495502233505249e-01</leafValues></_>
        <_>
          <internalNodes>
            0 -1 21 -5.6067444384098053e-02</internalNodes>
          <leafValues>
            4.8871994018554688e-01 -3.3490729331970215e-01</leafValues></_>
        <_>
          <internalNodes>
            0 -1 18 8.5359363583847880e-04</internalNodes>
          <leafValues>
            2.5354292988777161e-01 -6.0663694143295288e-01</leafValues></_>
        <_>
          <internalNodes>
            0 -1 81 3.4994501620531082e-03</internalNodes>
          <leafValues>
            -2.2803524136543274e-01 6.2966734170913696e-01</leafValues></_>
        <_>
          <internalNodes>
            0 -1 79 8.7209814228117466e-04</internalNodes>
          <leafValues>
            2.4301043152809143e-01 -8.0435979366302490e-01</leafValues></_>
        <_>
          <internalNodes>
            0 -1 131 -3.9742882363498211e-03</internalNodes>
          <leafValues>
            -6.9512784481048584e-01 1.4778815209865570e-01</leafValues></_></weakClassifiers></_>
    <!-- stage 11 -->
    <_>
      <maxWeakCount>8</maxWeakCount>
      <stageThreshold>-2.1384849548339844e+00</stageThreshold>
      <weakClassifiers>
        <_>
          <internalNodes>
            0 -1 104 -1.2974140234291553e-02</internalNodes>
          <leafValues>
            7.9999998211860657e-02 -9.1014492511749268e-01</leafValues></_>
        <_>
          <internalNodes>
            0 -1 111 -8.5508920252323151e-02</internalNodes>
          <leafValues>
            2.2246658802032471e-01 -6.4127922058105469e-01</leafValues></_>
        <_>
          <internalNodes>
            0 -1 46 1.7479449743404984e-03</internalNodes>
          <leafValues>
            -3.2652941346168518e-01 4.0463629364967346e-01</leafValues></_>
        <_>
          <internalNodes>
            0 -1 128 -4.3654581531882286e-05</internalNodes>
          <leafValues>
            4.1456213593482971e-01 -3.1142684817314148e-01</leafValues></_>
        <_>
          <internalNodes>
            0 -1 27 2.9242150485515594e-02</internalNodes>
          <leafValues>
            -2.4790462851524353e-01 5.2561765909194946e-01</leafValues></_>
        <_>
          <internalNodes>
            0 -1 66 -2.6621511206030846e-02</internalNodes>
          <leafValues>
            -8.5589993000030518e-01 1.6295914351940155e-01</leafValues></_>
        <_>
          <internalNodes>
            0 -1 55 3.3086925745010376e-02</internalNodes>
          <leafValues>
            2.2602960467338562e-01 -7.1312546730041504e-01</leafValues></_>
        <_>
          <internalNodes>
            0 -1 5 2.1797581575810909e-03</internalNodes>
          <leafValues>
            1.2297736853361130e-01 -8.2115674018859863e-01</leafValues></_></weakClassifiers></_>
    <!-- stage 12 -->
    <_>
      <maxWeakCount>9</maxWeakCount>
      <stageThreshold>-2.1068832874298096e+00</stageThreshold>
      <weakClassifiers>
        <_>
          <internalNodes>
            0 -1 126 1.1407403275370598e-02</internalNodes>
          <leafValues>
            -9.0895885229110718e-01 -5.4545454680919647e-02</leafValues></_>
        <_>
          <internalNodes>
            0 -1 53 -1.5949454903602600e-01</internalNodes>
          <leafValues>
            2.0780408382415771e-01 -6.6773253679275513e-01</leafValues></_>
        <_>
          <internalNodes>
            0 -1 20 1.2771214824169874e-03</internalNodes>
          <leafValues>
            9.6291989088058472e-02 -6.8587839603424072e-01</leafValues></_>
        <_>
          <internalNodes>
            0 -1 2 -1.1756290495395660e-01</internalNodes>
          <leafValues>
            -8.4179955720901489e-01 1.2069545686244965e-01</leafValues></_>
        <_>
          <internalNodes>
            0 -1 12 1.9596282392740250e-02</internalNodes>
          <leafValues>
            3.5225826501846313e-01 -5.3896045684814453e-01</leafValues></_>
        <_>
          <internalNodes>
            0 -1 108 9.5791220664978027e-03</internalNodes>
          <leafValues>
            -3.3123600482940674e-01 3.9241945743560791e-01</leafValues></_>
        <_>
          <internalNodes>
            0 -1 100 -9.9865682423114777e-03</internalNodes>
          <leafValues>
            7.6552039384841919e-01 -1.6543485224246979e-01</leafValues></_>
        <_>
          <internalNodes>
            0 -1 28 -1.6896616667509079e-02</internalNodes>
          <leafValues>
            -7.8978741168975830e-01 1.7618352174758911e-01</leafValues></_>
        <_>
          <internalNodes>
            0 -1 86 2.0977384410798550e-03</internalNodes>
          <leafValues>
            1.1226843297481537e-01 -9.7292870283126831e-01</leafValues></_></weakClassifiers></_>
    <!-- stage 13 -->
    <_>
      <maxWeakCount>8</maxWeakCount>
      <stageThreshold>-1.8504899740219116e+00</stageThreshold>
      <weakClassifiers>
        <_>
          <internalNodes>
            0 -1 107 1.6902627423405647e-02</internalNodes>
          <leafValues>
            -9.0014266967773438e-01 7.6470589637756348e-01</leafValues></_>
        <_>
          <internalNodes>
            0 -1 112 9.1850329190492630e-03</internalNodes>
          <leafValues>
            -6.0224866867065430e-01 4.3598777055740356e-01</leafValues></_>
        <_>
          <internalNodes>
            0 -1 26 8.9358299970626831e-02</internalNodes>
          <leafValues>
            -3.3278915286064148e-01 4.9502009153366089e-01</leafValues></_>
        <_>
          <internalNodes>
            0 -1 33 -3.8373161805793643e-04</internalNodes>
          <leafValues>
            -7.4184399843215942e-01 1.8920047581195831e-01</leafValues></_>
        <_>
          <internalNodes>
            0 -1 1 -5.8310136198997498e-02</internalNodes>
          <leafValues>
            -5.7152295112609863e-01 2.0737746357917786e-01</leafValues></_>
        <_>
          <internalNodes>
            0 -1 123 6.5142521634697914e-04</internalNodes>
          <leafValues>
            1.7638328671455383e-01 -7.1992731094360352e-01</leafValues></_>
        <_>
          <internalNodes>
            0 -1 82 1.1626077815890312e-02</internalNodes>
          <leafValues>
            1.9320750236511230e-01 -6.6669172048568726e-01</leafValues></_>
        <_>
          <internalNodes>
            0 -1 124 4.0806934703141451e-04</internalNodes>
          <leafValues>
            1.4956633746623993e-01 -7.6736652851104736e-01</leafValues></_></weakClassifiers></_>
    <!-- stage 14 -->
    <_>
      <maxWeakCount>8</maxWeakCount>
      <stageThreshold>-2.6618626117706299e+00</stageThreshold>
      <weakClassifiers>
        <_>
          <internalNodes>
            0 -1 118 -1.9073978066444397e-02</internalNodes>
          <leafValues>
            -2.9411765933036804e-01 -9.5975536108016968e-01</leafValues></_>
        <_>
          <internalNodes>
            0 -1 54 -8.7987147271633148e-03</internalNodes>
          <leafValues>
            3.0373439192771912e-01 -7.8326505422592163e-01</leafValues></_>
        <_>
          <internalNodes>
            0 -1 72 -4.2633200064301491e-03</internalNodes>
          <leafValues>
            2.1907913684844971e-01 -4.7661584615707397e-01</leafValues></_>
        <_>
          <internalNodes>
            0 -1 31 2.9460327699780464e-02</internalNodes>
          <leafValues>
            1.7803230881690979e-01 -5.9040176868438721e-01</leafValues></_>
        <_>
          <internalNodes>
            0 -1 117 -2.6703113690018654e-04</internalNodes>
          <leafValues>
            3.0102172493934631e-01 -3.2536154985427856e-01</leafValues></_>
        <_>
          <internalNodes>
            0 -1 75 -6.6085040569305420e-02</internalNodes>
          <leafValues>
            -8.1318110227584839e-01 1.7711563408374786e-01</leafValues></_>
        <_>
          <internalNodes>
            0 -1 4 6.4484059810638428e-02</internalNodes>
          <leafValues>
            -2.1985985338687897e-01 5.9484356641769409e-01</leafValues></_>
        <_>
          <internalNodes>
            0 -1 56 4.1107557713985443e-02</internalNodes>
          <leafValues>
            -2.9842227697372437e-01 4.0348130464553833e-01</leafValues></_></weakClassifiers></_>
    <!-- stage 15 -->
    <_>
      <maxWeakCount>11</maxWeakCount>
      <stageThreshold>-2.2617425918579102e+00</stageThreshold>
      <weakClassifiers>
        <_>
          <internalNodes>
            0 -1 125 1.6860537230968475e-02</internalNodes>
          <leafValues>
            -9.4992637634277344e-01 -2.1739129722118378e-01</leafValues></_>
        <_>
          <internalNodes>
            0 -1 69 7.8717153519392014e-03</internalNodes>
          <leafValues>
            -7.4548846483230591e-01 9.7207859158515930e-02</leafValues></_>
        <_>
          <internalNodes>
            0 -1 95 8.6902722250670195e-04</internalNodes>
          <leafValues>
            -3.6968639492988586e-01 3.7453466653823853e-01</leafValues></_>
        <_>
          <internalNodes>
            0 -1 93 -1.2341569364070892e-01</internalNodes>
          <leafValues>
            -7.1130138635635376e-01 1.4129653573036194e-01</leafValues></_>
        <_>
          <internalNodes>
            0 -1 7 -5.2764542400836945e-02</internalNodes>
          <leafValues>
            5.1437485218048096e-01 -2.4656532704830170e-01</leafValues></_>
        <_>
          <internalNodes>
            0 -1 11 1.0812049731612206e-02</internalNodes>
          <leafValues>
            2.2280864417552948e-01 -6.6267031431198120e-01</leafValues></_>
        <_>
          <internalNodes>
            0 -1 116 4.5030034380033612e-04</internalNodes>
          <leafValues>
            -3.4063261747360229e-01 4.1829583048820496e-01</leafValues></_>
        <_>
          <internalNodes>
            0 -1 101 -4.0819503366947174e-02</internalNodes>
          <leafValues>
            6.0190141201019287e-01 -1.9912438094615936e-01</leafValues></_>
        <_>
          <internalNodes>
            0 -1 130 2.4196091108024120e-03</internalNodes>
          <leafValues>
            1.8469795584678650e-01 -6.3056761026382446e-01</leafValues></_>
        <_>
          <internalNodes>
            0 -1 94 1.1061835102736950e-03</internalNodes>
          <leafValues>
            -2.3412729799747467e-01 4.5380240678787231e-01</leafValues></_>
        <_>
          <internalNodes>
            0 -1 61 -6.2720060348510742e-02</internalNodes>
          <leafValues>
            3.8338184356689453e-01 -2.5106579065322876e-01</leafValues></_></weakClassifiers></_>
    <!-- stage 16 -->
    <_>
      <maxWeakCount>12</maxWeakCount>
      <stageThreshold>-2.3674449920654297e+00</stageThreshold>
      <weakClassifiers>
        <_>
          <internalNodes>
            0 -1 50 2.4030338972806931e-02</internalNodes>
          <leafValues>
            -9.4824218750000000e-01 1.6666667163372040e-01</leafValues></_>
        <_>
          <internalNodes>
            0 -1 47 1.1214146390557289e-02</internalNodes>
          <leafValues>
            -7.2852486371994019e-01 5.2009111642837524e-01</leafValues></_>
        <_>
          <internalNodes>
            0 -1 122 1.3325531035661697e-03</internalNodes>
          <leafValues>
            -3.3263429999351501e-01 5.5814170837402344e-01</leafValues></_>
        <_>
          <internalNodes>
            0 -1 115 -1.4150443021208048e-03</internalNodes>
          <leafValues>
            5.8146321773529053e-01 -1.7769798636436462e-01</leafValues></_>
        <_>
          <internalNodes>
            0 -1 119 5.6177137594204396e-05</internalNodes>
          <leafValues>
            -3.4411552548408508e-01 3.1965553760528564e-01</leafValues></_>
        <_>
          <internalNodes>
            0 -1 11 -1.7629772424697876e-02</internalNodes>
          <leafValues>
            -9.6611720323562622e-01 9.8917134106159210e-02</leafValues></_>
        <_>
          <internalNodes>
            0 -1 32 -4.5294043957255781e-05</internalNodes>
          <leafValues>
            3.2102042436599731e-01 -2.8263378143310547e-01</leafValues></_>
        <_>
          <internalNodes>
            0 -1 70 6.1751510947942734e-02</internalNodes>
          <leafValues>
            -1.6042809188365936e-01 5.9448242187500000e-01</leafValues></_>
        <_>
          <internalNodes>
            0 -1 14 -7.2014123201370239e-02</internalNodes>
          <leafValues>
            -5.6835412979125977e-01 1.9456301629543304e-01</leafValues></_>
        <_>
          <internalNodes>
            0 -1 16 -3.3306788653135300e-02</internalNodes>
          <leafValues>
            3.8613492250442505e-01 -3.4588101506233215e-01</leafValues></_>
        <_>
          <internalNodes>
            0 -1 74 -2.1939451107755303e-04</internalNodes>
          <leafValues>
            3.5008519887924194e-01 -2.6014208793640137e-01</leafValues></_>
        <_>
          <internalNodes>
            0 -1 71 -4.4725675252266228e-04</internalNodes>
          <leafValues>
            3.4662166237831116e-01 -2.7282810211181641e-01</leafValues></_></weakClassifiers></_></stages>
  <features>
    <_>
      <rects>
        <_>
          0 0 8 16 -1.</_>
        <_>
          0 0 4 8 2.</_>
        <_>
          4 8 4 8 2.</_></rects>
      <tilted>0</tilted></_>
    <_>
      <rects>
        <_>
          0 0 16 24 -1.</_>
        <_>
          0 0 8 12 2.</_>
        <_>
          8 12 8 12 2.</_></rects>
      <tilted>0</tilted></_>
    <_>
      <rects>
        <_>
          0 0 20 17 -1.</_>
        <_>
          10 0 10 17 2.</_></rects>
      <tilted>0</tilted></_>
    <_>
      <rects>
        <_>
          0 2 6 19 -1.</_>
        <_>
          3 2 3 19 2.</_></rects>
      <tilted>0</tilted></_>
    <_>
      <rects>
        <_>
          0 3 16 14 -1.</_>
        <_>
          0 3 8 7 2.</_>
        <_>
          8 10 8 7 2.</_></rects>
      <tilted>0</tilted></_>
    <_>
      <rects>
        <_>
          0 4 2 4 -1.</_>
        <_>
          0 6 2 2 2.</_></rects>
      <tilted>0</tilted></_>
    <_>
      <rects>
        <_>
          0 4 6 18 -1.</_>
        <_>
          3 4 3 18 2.</_></rects>
      <tilted>0</tilted></_>
    <_>
      <rects>
        <_>
          0 4 16 6 -1.</_>
        <_>
          0 4 8 3 2.</_>
        <_>
          8 7 8 3 2.</_></rects>
      <tilted>0</tilted></_>
    <_>
      <rects>
        <_>
          0 5 9 12 -1.</_>
        <_>
          3 5 3 12 3.</_></rects>
      <tilted>0</tilted></_>
    <_>
      <rects>
        <_>
          0 5 12 18 -1.</_>
        <_>
          0 11 12 6 3.</_></rects>
      <tilted>0</tilted></_>
    <_>
      <rects>
        <_>
          0 6 12 11 -1.</_>
        <_>
          4 6 4 11 3.</_></rects>
      <tilted>0</tilted></_>
    <_>
      <rects>
        <_>
          0 6 9 6 -1.</_>
        <_>
          0 8 9 2 3.</_></rects>
      <tilted>0</tilted></_>
    <_>
      <rects>
        <_>
          0 6 24 8 -1.</_>
        <_>
          12 6 12 8 2.</_></rects>
      <tilted>0</tilted></_>
    <_>
      <rects>
        <_>
          0 7 9 11 -1.</_>
        <_>
          3 7 3 11 3.</_></rects>
      <tilted>0</tilted></_>
    <_>
      <rects>
        <_>
          0 7 24 16 -1.</_>
        <_>
          0 15 24 8 2.</_></rects>
      <tilted>0</tilted></_>
    <_>
      <rects>
        <_>
          0 8 14 16 -1.</_>
        <_>
          0 8 7 8 2.</_>
        <_>
          7 16 7 8 2.</_></rects>
      <tilted>0</tilted></_>
    <_>
      <rects>
        <_>
          0 12 8 12 -1.</_>
        <_>
          0 18 8 6 2.</_></rects>
      <tilted>0</tilted></_>
    <_>
      <rects>
        <_>
          0 13 12 6 -1.</_>
        <_>
          0 13 6 3 2.</_>
        <_>
          6 16 6 3 2.</_></rects>
      <tilted>0</tilted></_>
    <_>
      <rects>
        <_>
          0 14 1 6 -1.</_>
        <_>
          0 17 1 3 2.</_></rects>
      <tilted>0</tilted></_>
    <_>
      <rects>
        <_>
          0 16 2 2 -1.</_>
        <_>
          0 17 2 1 2.</_></rects>
      <tilted>0</tilted></_>
    <_>
      <rects>
        <_>
          0 16 4 3 -1.</_>
        <_>
          0 17 4 1 3.</_></rects>
      <tilted>0</tilted></_>
    <_>
      <rects>
        <_>
          0 18 22 6 -1.</_>
        <_>
          0 21 22 3 2.</_></rects>
      <tilted>0</tilted></_>
    <_>
      <rects>
        <_>
          0 20 20 4 -1.</_>
        <_>
          0 22 20 2 2.</_></rects>
      <tilted>0</tilted></_>
    <_>
      <rects>
        <_>
          1 0 1 3 -1.</_>
        <_>
          1 1 1 1 3.</_></rects>
      <tilted>0</tilted></_>
    <_>
      <rects>
        <_>
          1 1 1 3 -1.</_>
        <_>
          1 2 1 1 3.</_></rects>
      <tilted>0</tilted></_>
    <_>
      <rects>
        <_>
          1 2 12 10 -1.</_>
        <_>
          1 2 6 5 2.</_>
        <_>
          7 7 6 5 2.</_></rects>
      <tilted>0</tilted></_>
    <_>
      <rects>
        <_>
          1 3 9 18 -1.</_>
        <_>
          4 3 3 18 3.</_></rects>
      <tilted>0</tilted></_>
    <_>
      <rects>
        <_>
          1 10 8 10 -1.</_>
        <_>
          1 10 4 5 2.</_>
        <_>
          5 15 4 5 2.</_></rects>
      <tilted>0</tilted></_>
    <_>
      <rects>
        <_>
          2 0 20 2 -1.</_>
        <_>
          12 0 10 2 2.</_></rects>
      <tilted>0</tilted></_>
    <_>
      <rects>
        <_>
          2 12 8 10 -1.</_>
        <_>
          2 12 4 5 2.</_>
        <_>
          6 17 4 5 2.</_></rects>
      <tilted>0</tilted></_>
    <_>
      <rects>
        <_>
          2 13 12 10 -1.</_>
        <_>
          2 13 6 5 2.</_>
        <_>
          8 18 6 5 2.</_></rects>
      <tilted>0</tilted></_>
    <_>
      <rects>
        <_>
          2 13 20 7 -1.</_>
        <_>
          12 13 10 7 2.</_></rects>
      <tilted>0</tilted></_>
    <_>
      <rects>
        <_>
          2 19 2 2 -1.</_>
        <_>
          2 19 1 1 2.</_>
        <_>
          3 20 1 1 2.</_></rects>
      <tilted>0</tilted></_>
    <_>
      <rects>
        <_>
          3 0 3 1 -1.</_>
        <_>
          4 0 1 1 3.</_></rects>
      <tilted>0</tilted></_>
    <_>
      <rects>
        <_>
          3 0 2 2 -1.</_>
        <_>
          4 0 1 2 2.</_></rects>
      <tilted>0</tilted></_>
    <_>
      <rects>
        <_>
          3 0 2 2 -1.</_>
        <_>
          3 1 2 1 2.</_></rects>
      <tilted>0</tilted></_>
    <_>
      <rects>
        <_>
          3 0 21 6 -1.</_>
        <_>
          3 3 21 3 2.</_></rects>
      <tilted>0</tilted></_>
    <_>
      <rects>
        <_>
          3 1 2 2 -1.</_>
        <_>
          4 1 1 2 2.</_></rects>
      <tilted>0</tilted></_>
    <_>
      <rects>
        <_>
          3 1 10 14 -1.</_>
        <_>
          3 1 5 7 2.</_>
        <_>
          8 8 5 7 2.</_></rects>
      <tilted>0</tilted></_>
    <_>
      <rects>
        <_>
          4 0 14 12 -1.</_>
        <_>
          4 4 14 4 3.</_></rects>
      <tilted>0</tilted></_>
    <_>
      <rects>
        <_>
          4 1 6 12 -1.</_>
        <_>
          4 1 3 6 2.</_>
        <_>
          7 7 3 6 2.</_></rects>
      <tilted>0</tilted></_>
    <_>
      <rects>
        <_>
          4 4 10 4 -1.</_>
        <_>
          4 4 5 2 2.</_>
        <_>
          9 6 5 2 2.</_></rects>
      <tilted>0</tilted></_>
    <_>
      <rects>
        <_>
          4 6 6 1 -1.</_>
        <_>
          6 6 2 1 3.</_></rects>
      <tilted>0</tilted></_>
    <_>
      <rects>
        <_>
          4 7 4 2 -1.</_>
        <_>
          4 7 2 1 2.</_>
        <_>
          6 8 2 1 2.</_></rects>
      <tilted>0</tilted></_>
    <_>
      <rects>
        <_>
          4 8 15 9 -1.</_>
        <_>
          9 8 5 9 3.</_></rects>
      <tilted>0</tilted></_>
    <_>
      <rects>
        <_>
          4 12 6 10 -1.</_>
        <_>
          4 12 3 5 2.</_>
        <_>
          7 17 3 5 2.</_></rects>
      <tilted>0</tilted></_>
    <_>
      <rects>
        <_>
          4 13 2 2 -1.</_>
        <_>
          5 13 1 2 2.</_></rects>
      <tilted>0</tilted></_>
    <_>
      <rects>
        <_>
          4 16 3 2 -1.</_>
        <_>
          5 16 1 2 3.</_></rects>
      <tilted>0</tilted></_>
    <_>
      <rects>
        <_>
          5 0 16 6 -1.</_>
        <_>
          5 3 16 3 2.</_></rects>
      <tilted>0</tilted></_>
    <_>
      <rects>
        <_>
          5 1 10 6 -1.</_>
        <_>
          5 3 10 2 3.</_></rects>
      <tilted>0</tilted></_>
    <_>
      <rects>
        <_>
          5 2 4 3 -1.</_>
        <_>
          5 3 4 1 3.</_></rects>
      <tilted>0</tilted></_>
    <_>
      <rects>
        <_>
          5 4 11 2 -1.</_>
        <_>
          5 5 11 1 2.</_></rects>
      <tilted>0</tilted></_>
    <_>
      <rects>
        <_>
          5 5 8 2 -1.</_>
        <_>
          5 5 4 1 2.</_>
        <_>
          9 6 4 1 2.</_></rects>
      <tilted>0</tilted></_>
    <_>
      <rects>
        <_>
          5 7 15 11 -1.</_>
        <_>
          10 7 5 11 3.</_></rects>
      <tilted>0</tilted></_>
    <_>
      <rects>
        <_>
          6 4 2 3 -1.</_>
        <_>
          6 5 2 1 3.</_></rects>
      <tilted>0</tilted></_>
    <_>
      <rects>
        <_>
          6 5 10 16 -1.</_>
        <_>
          6 5 5 8 2.</_>
        <_>
          11 13 5 8 2.</_></rects>
      <tilted>0</tilted></_>
    <_>
      <rects>
        <_>
          6 9 15 12 -1.</_>
        <_>
          6 15 15 6 2.</_></rects>
      <tilted>0</tilted></_>
    <_>
      <rects>
        <_>
          7 2 12 22 -1.</_>
        <_>
          7 13 12 11 2.</_></rects>
      <tilted>0</tilted></_>
    <_>
      <rects>
        <_>
          7 4 6 2 -1.</_>
        <_>
          7 4 3 1 2.</_>
        <_>
          10 5 3 1 2.</_></rects>
      <tilted>0</tilted></_>
    <_>
      <rects>
        <_>
          7 5 6 2 -1.</_>
        <_>
          7 5 3 1 2.</_>
        <_>
          10 6 3 1 2.</_></rects>
      <tilted>0</tilted></_>
    <_>
      <rects>
        <_>
          7 5 11 15 -1.</_>
        <_>
          7 10 11 5 3.</_></rects>
      <tilted>0</tilted></_>
    <_>
      <rects>
        <_>
          7 5 11 12 -1.</_>
        <_>
          7 11 11 6 2.</_></rects>
      <tilted>0</tilted></_>
    <_>
      <rects>
        <_>
          7 7 1 2 -1.</_>
        <_>
          7 8 1 1 2.</_></rects>
      <tilted>0</tilted></_>
    <_>
      <rects>
        <_>
          8 0 9 10 -1.</_>
        <_>
          11 0 3 10 3.</_></rects>
      <tilted>0</tilted></_>
    <_>
      <rects>
        <_>
          8 1 7 16 -1.</_>
        <_>
          8 9 7 8 2.</_></rects>
      <tilted>0</tilted></_>
    <_>
      <rects>
        <_>
          8 1 8 22 -1.</_>
        <_>
          8 12 8 11 2.</_></rects>
      <tilted>0</tilted></_>
    <_>
      <rects>
        <_>
          8 2 6 22 -1.</_>
        <_>
          8 2 3 11 2.</_>
        <_>
          11 13 3 11 2.</_></rects>
      <tilted>0</tilted></_>
    <_>
      <rects>
        <_>
          8 15 9 9 -1.</_>
        <_>
          8 18 9 3 3.</_></rects>
      <tilted>0</tilted></_>
    <_>
      <rects>
        <_>
          8 20 10 2 -1.</_>
        <_>
          8 20 5 1 2.</_>
        <_>
          13 21 5 1 2.</_></rects>
      <tilted>0</tilted></_>
    <_>
      <rects>
        <_>
          9 4 6 2 -1.</_>
        <_>
          9 4 3 1 2.</_>
        <_>
          12 5 3 1 2.</_></rects>
      <tilted>0</tilted></_>
    <_>
      <rects>
        <_>
          9 12 12 12 -1.</_>
        <_>
          9 12 6 6 2.</_>
        <_>
          15 18 6 6 2.</_></rects>
      <tilted>0</tilted></_>
    <_>
      <rects>
        <_>
          9 17 2 4 -1.</_>
        <_>
          9 17 1 2 2.</_>
        <_>
          10 19 1 2 2.</_></rects>
      <tilted>0</tilted></_>
    <_>
      <rects>
        <_>
          9 17 10 2 -1.</_>
        <_>
          9 17 5 1 2.</_>
        <_>
          14 18 5 1 2.</_></rects>
      <tilted>0</tilted></_>
    <_>
      <rects>
        <_>
          9 19 12 4 -1.</_>
        <_>
          9 21 12 2 2.</_></rects>
      <tilted>0</tilted></_>
    <_>
      <rects>
        <_>
          9 20 2 2 -1.</_>
        <_>
          9 20 1 1 2.</_>
        <_>
          10 21 1 1 2.</_></rects>
      <tilted>0</tilted></_>
    <_>
      <rects>
        <_>
          10 1 14 22 -1.</_>
        <_>
          10 1 7 11 2.</_>
        <_>
          17 12 7 11 2.</_></rects>
      <tilted>0</tilted></_>
    <_>
      <rects>
        <_>
          10 2 14 10 -1.</_>
        <_>
          10 2 7 5 2.</_>
        <_>
          17 7 7 5 2.</_></rects>
      <tilted>0</tilted></_>
    <_>
      <rects>
        <_>
          10 3 14 8 -1.</_>
        <_>
          10 3 7 4 2.</_>
        <_>
          17 7 7 4 2.</_></rects>
      <tilted>0</tilted></_>
    <_>
      <rects>
        <_>
          10 11 12 5 -1.</_>
        <_>
          14 11 4 5 3.</_></rects>
      <tilted>0</tilted></_>
    <_>
      <rects>
        <_>
          10 12 3 3 -1.</_>
        <_>
          10 13 3 1 3.</_></rects>
      <tilted>0</tilted></_>
    <_>
      <rects>
        <_>
          10 17 8 2 -1.</_>
        <_>
          10 17 4 1 2.</_>
        <_>
          14 18 4 1 2.</_></rects>
      <tilted>0</tilted></_>
    <_>
      <rects>
        <_>
          10 21 4 2 -1.</_>
        <_>
          10 22 4 1 2.</_></rects>
      <tilted>0</tilted></_>
    <_>
      <rects>
        <_>
          11 0 3 24 -1.</_>
        <_>
          11 12 3 12 2.</_></rects>
      <tilted>0</tilted></_>
    <_>
      <rects>
        <_>
          11 0 12 16 -1.</_>
        <_>
          11 0 6 8 2.</_>
        <_>
          17 8 6 8 2.</_></rects>
      <tilted>0</tilted></_>
    <_>
      <rects>
        <_>
          11 8 12 16 -1.</_>
        <_>
          11 8 6 8 2.</_>
        <_>
          17 16 6 8 2.</_></rects>
      <tilted>0</tilted></_>
    <_>
      <rects>
        <_>
          11 10 13 6 -1.</_>
        <_>
          11 13 13 3 2.</_></rects>
      <tilted>0</tilted></_>
    <_>
      <rects>
        <_>
          11 13 3 2 -1.</_>
        <_>
          11 14 3 1 2.</_></rects>
      <tilted>0</tilted></_>
    <_>
      <rects>
        <_>
          11 18 6 2 -1.</_>
        <_>
          11 18 3 1 2.</_>
        <_>
          14 19 3 1 2.</_></rects>
      <tilted>0</tilted></_>
    <_>
      <rects>
        <_>
          12 2 2 6 -1.</_>
        <_>
          12 4 2 2 3.</_></rects>
      <tilted>0</tilted></_>
    <_>
      <rects>
        <_>
          12 3 3 3 -1.</_>
        <_>
          12 4 3 1 3.</_></rects>
      <tilted>0</tilted></_>
    <_>
      <rects>
        <_>
          12 9 12 14 -1.</_>
        <_>
          12 9 6 7 2.</_>
        <_>
          18 16 6 7 2.</_></rects>
      <tilted>0</tilted></_>
    <_>
      <rects>
        <_>
          12 13 8 10 -1.</_>
        <_>
          12 13 4 5 2.</_>
        <_>
          16 18 4 5 2.</_></rects>
      <tilted>0</tilted></_>
    <_>
      <rects>
        <_>
          12 17 1 3 -1.</_>
        <_>
          12 18 1 1 3.</_></rects>
      <tilted>0</tilted></_>
    <_>
      <rects>
        <_>
          13 0 11 24 -1.</_>
        <_>
          13 8 11 8 3.</_></rects>
      <tilted>0</tilted></_>
    <_>
      <rects>
        <_>
          13 3 2 2 -1.</_>
        <_>
          14 3 1 2 2.</_></rects>
      <tilted>0</tilted></_>
    <_>
      <rects>
        <_>
          13 4 2 2 -1.</_>
        <_>
          13 4 1 1 2.</_>
        <_>
          14 5 1 1 2.</_></rects>
      <tilted>0</tilted></_>
    <_>
      <rects>
        <_>
          13 11 11 6 -1.</_>
        <_>
          13 14 11 3 2.</_></rects>
      <tilted>0</tilted></_>
    <_>
      <rects>
        <_>
          13 17 6 2 -1.</_>
        <_>
          13 17 3 1 2.</_>
        <_>
          16 18 3 1 2.</_></rects>
      <tilted>0</tilted></_>
    <_>
      <rects>
        <_>
          14 4 8 12 -1.</_>
        <_>
          14 4 4 6 2.</_>
        <_>
          18 10 4 6 2.</_></rects>
      <tilted>0</tilted></_>
    <_>
      <rects>
        <_>
          14 16 6 2 -1.</_>
        <_>
          14 16 3 1 2.</_>
        <_>
          17 17 3 1 2.</_></rects>
      <tilted>0</tilted></_>
    <_>
      <rects>
        <_>
          14 18 3 3 -1.</_>
        <_>
          14 19 3 1 3.</_></rects>
      <tilted>0</tilted></_>
    <_>
      <rects>
        <_>
          15 1 8 14 -1.</_>
        <_>
          15 1 4 7 2.</_>
        <_>
          19 8 4 7 2.</_></rects>
      <tilted>0</tilted></_>
    <_>
      <rects>
        <_>
          15 4 9 13 -1.</_>
        <_>
          18 4 3 13 3.</_></rects>
      <tilted>0</tilted></_>
    <_>
      <rects>
        <_>
          15 7 4 4 -1.</_>
        <_>
          15 7 2 2 2.</_>
        <_>
          17 9 2 2 2.</_></rects>
      <tilted>0</tilted></_>
    <_>
      <rects>
        <_>
          15 18 3 3 -1.</_>
        <_>
          15 19 3 1 3.</_></rects>
      <tilted>0</tilted></_>
    <_>
      <rects>
        <_>
          15 19 3 3 -1.</_>
        <_>
          15 20 3 1 3.</_></rects>
      <tilted>0</tilted></_>
    <_>
      <rects>
        <_>
          16 5 2 2 -1.</_>
        <_>
          16 5 1 1 2.</_>
        <_>
          17 6 1 1 2.</_></rects>
      <tilted>0</tilted></_>
    <_>
      <rects>
        <_>
          16 6 3 3 -1.</_>
        <_>
          17 6 1 3 3.</_></rects>
      <tilted>0</tilted></_>
    <_>
      <rects>
        <_>
          17 8 4 11 -1.</_>
        <_>
          19 8 2 11 2.</_></rects>
      <tilted>0</tilted></_>
    <_>
      <rects>
        <_>
          17 18 6 1 -1.</_>
        <_>
          19 18 2 1 3.</_></rects>
      <tilted>0</tilted></_>
    <_>
      <rects>
        <_>
          18 1 6 1 -1.</_>
        <_>
          21 1 3 1 2.</_></rects>
      <tilted>0</tilted></_>
    <_>
      <rects>
        <_>
          18 3 6 20 -1.</_>
        <_>
          21 3 3 20 2.</_></rects>
      <tilted>0</tilted></_>
    <_>
      <rects>
        <_>
          18 7 3 3 -1.</_>
        <_>
          19 7 1 3 3.</_></rects>
      <tilted>0</tilted></_>
    <_>
      <rects>
        <_>
          18 7 2 8 -1.</_>
        <_>
          18 7 1 4 2.</_>
        <_>
          19 11 1 4 2.</_></rects>
      <tilted>0</tilted></_>
    <_>
      <rects>
        <_>
          18 8 2 4 -1.</_>
        <_>
          18 8 1 2 2.</_>
        <_>
          19 10 1 2 2.</_></rects>
      <tilted>0</tilted></_>
    <_>
      <rects>
        <_>
          18 15 2 2 -1.</_>
        <_>
          18 15 1 1 2.</_>
        <_>
          19 16 1 1 2.</_></rects>
      <tilted>0</tilted></_>
    <_>
      <rects>
        <_>
          18 18 2 1 -1.</_>
        <_>
          19 18 1 1 2.</_></rects>
      <tilted>0</tilted></_>
    <_>
      <rects>
        <_>
          18 20 2 2 -1.</_>
        <_>
          19 20 1 2 2.</_></rects>
      <tilted>0</tilted></_>
    <_>
      <rects>
        <_>
          19 6 2 8 -1.</_>
        <_>
          19 6 1 4 2.</_>
        <_>
          20 10 1 4 2.</_></rects>
      <tilted>0</tilted></_>
    <_>
      <rects>
        <_>
          19 8 1 2 -1.</_>
        <_>
          19 9 1 1 2.</_></rects>
      <tilted>0</tilted></_>
    <_>
      <rects>
        <_>
          19 11 1 4 -1.</_>
        <_>
          19 13 1 2 2.</_></rects>
      <tilted>0</tilted></_>
    <_>
      <rects>
        <_>
          19 11 2 4 -1.</_>
        <_>
          19 11 1 2 2.</_>
        <_>
          20 13 1 2 2.</_></rects>
      <tilted>0</tilted></_>
    <_>
      <rects>
        <_>
          19 14 2 2 -1.</_>
        <_>
          19 14 1 1 2.</_>
        <_>
          20 15 1 1 2.</_></rects>
      <tilted>0</tilted></_>
    <_>
      <rects>
        <_>
          19 22 3 2 -1.</_>
        <_>
          20 22 1 2 3.</_></rects>
      <tilted>0</tilted></_>
    <_>
      <rects>
        <_>
          20 0 3 1 -1.</_>
        <_>
          21 0 1 1 3.</_></rects>
      <tilted>0</tilted></_>
    <_>
      <rects>
        <_>
          20 6 2 8 -1.</_>
        <_>
          20 6 1 4 2.</_>
        <_>
          21 10 1 4 2.</_></rects>
      <tilted>0</tilted></_>
    <_>
      <rects>
        <_>
          20 7 2 8 -1.</_>
        <_>
          20 7 1 4 2.</_>
        <_>
          21 11 1 4 2.</_></rects>
      <tilted>0</tilted></_>
    <_>
      <rects>
        <_>
          21 0 2 2 -1.</_>
        <_>
          21 1 2 1 2.</_></rects>
      <tilted>0</tilted></_>
    <_>
      <rects>
        <_>
          21 7 3 2 -1.</_>
        <_>
          21 8 3 1 2.</_></rects>
      <tilted>0</tilted></_>
    <_>
      <rects>
        <_>
          22 7 2 2 -1.</_>
        <_>
          22 8 2 1 2.</_></rects>
      <tilted>0</tilted></_>
    <_>
      <rects>
        <_>
          22 17 2 6 -1.</_>
        <_>
          22 19 2 2 3.</_></rects>
      <tilted>0</tilted></_>
    <_>
      <rects>
        <_>
          23 0 1 12 -1.</_>
        <_>
          23 4 1 4 3.</_></rects>
      <tilted>0</tilted></_>
    <_>
      <rects>
        <_>
          23 2 1 8 -1.</_>
        <_>
          23 6 1 4 2.</_></rects>
      <tilted>0</tilted></_></features></cascade>
</opencv_storage>
