<?xml version="1.0"?>
<opencv_storage>
<stage2>
  <maxWeakCount>7</maxWeakCount>
  <stageThreshold>-2.0493330955505371e+00</stageThreshold>
  <weakClassifiers>
    <_>
      <internalNodes>
        0 -1 6057 1.7518325150012970e-01</internalNodes>
      <leafValues>
        -9.1417551040649414e-01 3.4782609343528748e-01</leafValues></_>
    <_>
      <internalNodes>
        0 -1 133311 -7.2372262366116047e-03</internalNodes>
      <leafValues>
        6.2800383567810059e-01 -6.7083060741424561e-01</leafValues></_>
    <_>
      <internalNodes>
        0 -1 57771 1.5865687280893326e-02</internalNodes>
      <leafValues>
        -4.0155425667762756e-01 5.6902486085891724e-01</leafValues></_>
    <_>
      <internalNodes>
        0 -1 35047 -1.6320273280143738e-02</internalNodes>
      <leafValues>
        6.7764168977737427e-01 -3.2145419716835022e-01</leafValues></_>
    <_>
      <internalNodes>
        0 -1 13163 -1.7568834125995636e-02</internalNodes>
      <leafValues>
        4.9734628200531006e-01 -3.3990702033042908e-01</leafValues></_>
    <_>
      <internalNodes>
        0 -1 13395 -5.3152604959905148e-04</internalNodes>
      <leafValues>
        -8.6593365669250488e-01 2.2878564894199371e-01</leafValues></_>
    <_>
      <internalNodes>
        0 -1 151676 2.2538895718753338e-03</internalNodes>
      <leafValues>
        -3.4331035614013672e-01 5.5082970857620239e-01</leafValues></_></weakClassifiers></stage2>
</opencv_storage>
