<?xml version="1.0"?>
<opencv_storage>
<stage11>
  <maxWeakCount>8</maxWeakCount>
  <stageThreshold>-2.1384849548339844e+00</stageThreshold>
  <weakClassifiers>
    <_>
      <internalNodes>
        0 -1 143770 -1.2974140234291553e-02</internalNodes>
      <leafValues>
        7.9999998211860657e-02 -9.1014492511749268e-01</leafValues></_>
    <_>
      <internalNodes>
        0 -1 152851 -8.5508920252323151e-02</internalNodes>
      <leafValues>
        2.2246658802032471e-01 -6.4127922058105469e-01</leafValues></_>
    <_>
      <internalNodes>
        0 -1 58125 1.7479449743404984e-03</internalNodes>
      <leafValues>
        -3.2652941346168518e-01 4.0463629364967346e-01</leafValues></_>
    <_>
      <internalNodes>
        0 -1 160523 -4.3654581531882286e-05</internalNodes>
      <leafValues>
        4.1456213593482971e-01 -3.1142684817314148e-01</leafValues></_>
    <_>
      <internalNodes>
        0 -1 21719 2.9242150485515594e-02</internalNodes>
      <leafValues>
        -2.4790462851524353e-01 5.2561765909194946e-01</leafValues></_>
    <_>
      <internalNodes>
        0 -1 91423 -2.6621511206030846e-02</internalNodes>
      <leafValues>
        -8.5589993000030518e-01 1.6295914351940155e-01</leafValues></_>
    <_>
      <internalNodes>
        0 -1 74739 3.3086925745010376e-02</internalNodes>
      <leafValues>
        2.2602960467338562e-01 -7.1312546730041504e-01</leafValues></_>
    <_>
      <internalNodes>
        0 -1 4152 2.1797581575810909e-03</internalNodes>
      <leafValues>
        1.2297736853361130e-01 -8.2115674018859863e-01</leafValues></_></weakClassifiers></stage11>
</opencv_storage>
