<?xml version="1.0"?>
<opencv_storage>
<stage5>
  <maxWeakCount>8</maxWeakCount>
  <stageThreshold>-1.8984274864196777e+00</stageThreshold>
  <weakClassifiers>
    <_>
      <internalNodes>
        0 -1 50247 1.7248891294002533e-01</internalNodes>
      <leafValues>
        -9.2229235172271729e-01 3.1147539615631104e-01</leafValues></_>
    <_>
      <internalNodes>
        0 -1 140882 6.8880096077919006e-02</internalNodes>
      <leafValues>
        -6.9909930229187012e-01 2.9633963108062744e-01</leafValues></_>
    <_>
      <internalNodes>
        0 -1 55790 9.7317412495613098e-02</internalNodes>
      <leafValues>
        -3.3480969071388245e-01 6.6000092029571533e-01</leafValues></_>
    <_>
      <internalNodes>
        0 -1 97605 6.8281948566436768e-02</internalNodes>
      <leafValues>
        -1.9347721338272095e-01 7.4323338270187378e-01</leafValues></_>
    <_>
      <internalNodes>
        0 -1 37985 1.3684993609786034e-03</internalNodes>
      <leafValues>
        1.8158830702304840e-01 -9.1938102245330811e-01</leafValues></_>
    <_>
      <internalNodes>
        0 -1 123051 -2.9969811439514160e-03</internalNodes>
      <leafValues>
        6.3453155755996704e-01 -2.4637670814990997e-01</leafValues></_>
    <_>
      <internalNodes>
        0 -1 83659 -2.4624303914606571e-03</internalNodes>
      <leafValues>
        6.1261165142059326e-01 -3.1741043925285339e-01</leafValues></_>
    <_>
      <internalNodes>
        0 -1 112313 3.4519642591476440e-02</internalNodes>
      <leafValues>
        -2.4571114778518677e-01 6.3344991207122803e-01</leafValues></_></weakClassifiers></stage5>
</opencv_storage>
