<?xml version="1.0"?>
<opencv_storage>
<stage1>
  <maxWeakCount>19</maxWeakCount>
  <stageThreshold>-1.5953017473220825e+00</stageThreshold>
  <weakClassifiers>
    <_>
      <internalNodes>
        0 -1 121075 5.1879584789276123e-03</internalNodes>
      <leafValues>
        -4.5385777950286865e-01 5.6179773807525635e-01</leafValues></_>
    <_>
      <internalNodes>
        0 -1 120941 -6.0246647335588932e-03</internalNodes>
      <leafValues>
        7.6744180917739868e-01 -1.6570870578289032e-01</leafValues></_>
    <_>
      <internalNodes>
        0 -1 113424 -3.8885041140019894e-03</internalNodes>
      <leafValues>
        4.0774950385093689e-01 -2.0983129739761353e-01</leafValues></_>
    <_>
      <internalNodes>
        0 -1 66697 2.5476254522800446e-03</internalNodes>
      <leafValues>
        -1.6073971986770630e-01 5.4191267490386963e-01</leafValues></_>
    <_>
      <internalNodes>
        0 -1 70405 -8.7847318500280380e-03</internalNodes>
      <leafValues>
        5.3811705112457275e-01 -1.6000497341156006e-01</leafValues></_>
    <_>
      <internalNodes>
        0 -1 116175 6.7776152864098549e-03</internalNodes>
      <leafValues>
        -1.2080115079879761e-01 7.1207922697067261e-01</leafValues></_>
    <_>
      <internalNodes>
        0 -1 108722 -2.6382855139672756e-03</internalNodes>
      <leafValues>
        5.3059673309326172e-01 -1.6434417665004730e-01</leafValues></_>
    <_>
      <internalNodes>
        0 -1 113470 7.2827637195587158e-03</internalNodes>
      <leafValues>
        -1.5166346728801727e-01 4.6588250994682312e-01</leafValues></_>
    <_>
      <internalNodes>
        0 -1 44989 7.6925861649215221e-03</internalNodes>
      <leafValues>
        -8.4262110292911530e-02 6.8449032306671143e-01</leafValues></_>
    <_>
      <internalNodes>
        0 -1 44982 7.3397760279476643e-03</internalNodes>
      <leafValues>
        -1.0363186895847321e-01 7.2378349304199219e-01</leafValues></_>
    <_>
      <internalNodes>
        0 -1 161183 -5.7412381283938885e-04</internalNodes>
      <leafValues>
        -5.2223849296569824e-01 1.5486247837543488e-01</leafValues></_>
    <_>
      <internalNodes>
        0 -1 154292 -1.8846993334591389e-03</internalNodes>
      <leafValues>
        3.5311841964721680e-01 -1.9032274186611176e-01</leafValues></_>
    <_>
      <internalNodes>
        0 -1 56573 5.6248642504215240e-02</internalNodes>
      <leafValues>
        -1.4898386597633362e-01 5.0912469625473022e-01</leafValues></_>
    <_>
      <internalNodes>
        0 -1 155430 2.2383048781193793e-04</internalNodes>
      <leafValues>
        1.8819597363471985e-01 -3.8582783937454224e-01</leafValues></_>
    <_>
      <internalNodes>
        0 -1 146900 -2.0155776292085648e-03</internalNodes>
      <leafValues>
        3.3173295855522156e-01 -2.1845866739749908e-01</leafValues></_>
    <_>
      <internalNodes>
        0 -1 60099 1.2049284763634205e-02</internalNodes>
      <leafValues>
        -1.0452692955732346e-01 6.2823766469955444e-01</leafValues></_>
    <_>
      <internalNodes>
        0 -1 103341 -2.8836343437433243e-02</internalNodes>
      <leafValues>
        4.7755137085914612e-01 -1.3840281963348389e-01</leafValues></_>
    <_>
      <internalNodes>
        0 -1 40361 -8.9749723672866821e-02</internalNodes>
      <leafValues>
        -4.5683330297470093e-01 2.0504684746265411e-01</leafValues></_>
    <_>
      <internalNodes>
        0 -1 1383 5.2812539041042328e-02</internalNodes>
      <leafValues>
        -1.8541277945041656e-01 4.5816671848297119e-01</leafValues></_></weakClassifiers></stage1>
</opencv_storage>
