<?xml version="1.0"?>
<opencv_storage>
<stage0>
  <maxWeakCount>12</maxWeakCount>
  <stageThreshold>-1.5778478384017944e+00</stageThreshold>
  <weakClassifiers>
    <_>
      <internalNodes>
        0 -1 140553 -4.1779160499572754e-02</internalNodes>
      <leafValues>
        4.8062014579772949e-01 -5.0241547822952271e-01</leafValues></_>
    <_>
      <internalNodes>
        0 -1 140882 3.8257829844951630e-02</internalNodes>
      <leafValues>
        -2.6699876785278320e-01 7.6535338163375854e-01</leafValues></_>
    <_>
      <internalNodes>
        0 -1 27634 -2.0997691899538040e-02</internalNodes>
      <leafValues>
        6.1177021265029907e-01 -1.5091657638549805e-01</leafValues></_>
    <_>
      <internalNodes>
        0 -1 51167 3.1079184263944626e-02</internalNodes>
      <leafValues>
        -1.5964558720588684e-01 7.3728406429290771e-01</leafValues></_>
    <_>
      <internalNodes>
        0 -1 18878 1.0077496990561485e-02</internalNodes>
      <leafValues>
        -1.2711854279041290e-01 7.1315449476242065e-01</leafValues></_>
    <_>
      <internalNodes>
        0 -1 37178 2.8683744370937347e-02</internalNodes>
      <leafValues>
        -1.7373429238796234e-01 6.5335887670516968e-01</leafValues></_>
    <_>
      <internalNodes>
        0 -1 105769 -1.9125595688819885e-02</internalNodes>
      <leafValues>
        5.7890456914901733e-01 -1.6380418837070465e-01</leafValues></_>
    <_>
      <internalNodes>
        0 -1 13623 4.5286573469638824e-02</internalNodes>
      <leafValues>
        -1.5222945809364319e-01 6.6251909732818604e-01</leafValues></_>
    <_>
      <internalNodes>
        0 -1 3322 -3.0282307416200638e-02</internalNodes>
      <leafValues>
        6.3103497028350830e-01 -2.1934969723224640e-01</leafValues></_>
    <_>
      <internalNodes>
        0 -1 43848 -2.7991540729999542e-02</internalNodes>
      <leafValues>
        6.1903536319732666e-01 -1.4820373058319092e-01</leafValues></_>
    <_>
      <internalNodes>
        0 -1 64372 1.2703990563750267e-02</internalNodes>
      <leafValues>
        -1.7187768220901489e-01 5.3789407014846802e-01</leafValues></_>
    <_>
      <internalNodes>
        0 -1 97570 1.6444813460111618e-02</internalNodes>
      <leafValues>
        -1.9193854928016663e-01 4.8330733180046082e-01</leafValues></_></weakClassifiers></stage0>
</opencv_storage>
