<?xml version="1.0"?>
<opencv_storage>
<stage8>
  <maxWeakCount>27</maxWeakCount>
  <stageThreshold>-1.3096948862075806e+00</stageThreshold>
  <weakClassifiers>
    <_>
      <internalNodes>
        0 -1 56700 -5.9681395068764687e-03</internalNodes>
      <leafValues>
        3.9877301454544067e-01 -4.2258787155151367e-01</leafValues></_>
    <_>
      <internalNodes>
        0 -1 42278 5.4999012500047684e-03</internalNodes>
      <leafValues>
        -1.6134569048881531e-01 5.3186249732971191e-01</leafValues></_>
    <_>
      <internalNodes>
        0 -1 33224 3.4947721287608147e-03</internalNodes>
      <leafValues>
        -1.4316713809967041e-01 3.6307796835899353e-01</leafValues></_>
    <_>
      <internalNodes>
        0 -1 160469 3.7643653340637684e-03</internalNodes>
      <leafValues>
        -1.1478900164365768e-01 4.7813427448272705e-01</leafValues></_>
    <_>
      <internalNodes>
        0 -1 25806 8.9773198124021292e-04</internalNodes>
      <leafValues>
        1.1319173872470856e-01 -4.9024286866188049e-01</leafValues></_>
    <_>
      <internalNodes>
        0 -1 127508 -5.7789655402302742e-03</internalNodes>
      <leafValues>
        6.3020062446594238e-01 -6.0338709503412247e-02</leafValues></_>
    <_>
      <internalNodes>
        0 -1 28123 3.5546883940696716e-02</internalNodes>
      <leafValues>
        -1.4856812357902527e-01 5.1651602983474731e-01</leafValues></_>
    <_>
      <internalNodes>
        0 -1 13373 -4.0082761552184820e-04</internalNodes>
      <leafValues>
        -3.7190070748329163e-01 1.2665109336376190e-01</leafValues></_>
    <_>
      <internalNodes>
        0 -1 154656 -5.7277344167232513e-03</internalNodes>
      <leafValues>
        6.4427918195724487e-01 -6.1262678354978561e-02</leafValues></_>
    <_>
      <internalNodes>
        0 -1 161165 4.8676563892513514e-04</internalNodes>
      <leafValues>
        1.1617118120193481e-01 -4.4242015480995178e-01</leafValues></_>
    <_>
      <internalNodes>
        0 -1 60172 8.2639437168836594e-03</internalNodes>
      <leafValues>
        -7.9144656658172607e-02 5.5861556529998779e-01</leafValues></_>
    <_>
      <internalNodes>
        0 -1 161137 -5.2702673710882664e-03</internalNodes>
      <leafValues>
        -8.0652719736099243e-01 5.8483798056840897e-02</leafValues></_>
    <_>
      <internalNodes>
        0 -1 103941 -1.0369601659476757e-03</internalNodes>
      <leafValues>
        2.2432038187980652e-01 -2.1684040129184723e-01</leafValues></_>
    <_>
      <internalNodes>
        0 -1 158402 -1.9377418793737888e-03</internalNodes>
      <leafValues>
        3.2383236289024353e-01 -1.4934636652469635e-01</leafValues></_>
    <_>
      <internalNodes>
        0 -1 84773 -6.0593243688344955e-03</internalNodes>
      <leafValues>
        7.5123041868209839e-01 -5.4950702935457230e-02</leafValues></_>
    <_>
      <internalNodes>
        0 -1 108608 9.7883706912398338e-03</internalNodes>
      <leafValues>
        6.3994310796260834e-02 -8.5844433307647705e-01</leafValues></_>
    <_>
      <internalNodes>
        0 -1 81218 8.2754436880350113e-03</internalNodes>
      <leafValues>
        -1.0476704686880112e-01 4.5727366209030151e-01</leafValues></_>
    <_>
      <internalNodes>
        0 -1 64928 2.9752785339951515e-03</internalNodes>
      <leafValues>
        -1.1695405095815659e-01 3.9962625503540039e-01</leafValues></_>
    <_>
      <internalNodes>
        0 -1 127479 -7.0021282881498337e-03</internalNodes>
      <leafValues>
        -7.1050131320953369e-01 6.2814600765705109e-02</leafValues></_>
    <_>
      <internalNodes>
        0 -1 66690 -3.6219093017280102e-03</internalNodes>
      <leafValues>
        4.4453746080398560e-01 -1.0445167869329453e-01</leafValues></_>
    <_>
      <internalNodes>
        0 -1 11285 -5.3377971053123474e-02</internalNodes>
      <leafValues>
        4.2927873134613037e-01 -9.3765564262866974e-02</leafValues></_>
    <_>
      <internalNodes>
        0 -1 122557 2.6579902041703463e-03</internalNodes>
      <leafValues>
        -1.2829864025115967e-01 3.4950321912765503e-01</leafValues></_>
    <_>
      <internalNodes>
        0 -1 110287 -2.1561337634921074e-02</internalNodes>
      <leafValues>
        3.1091836094856262e-01 -1.5373529493808746e-01</leafValues></_>
    <_>
      <internalNodes>
        0 -1 103371 7.3398925364017487e-02</internalNodes>
      <leafValues>
        -1.2932051718235016e-01 4.5603480935096741e-01</leafValues></_>
    <_>
      <internalNodes>
        0 -1 86422 -8.7538808584213257e-03</internalNodes>
      <leafValues>
        5.0753158330917358e-01 -8.2172200083732605e-02</leafValues></_>
    <_>
      <internalNodes>
        0 -1 158295 6.7842854186892509e-03</internalNodes>
      <leafValues>
        -1.1325377970933914e-01 3.8240501284599304e-01</leafValues></_>
    <_>
      <internalNodes>
        0 -1 161144 1.8396441009826958e-04</internalNodes>
      <leafValues>
        1.6330622136592865e-01 -3.0714622139930725e-01</leafValues></_></weakClassifiers></stage8>
</opencv_storage>
