<?xml version="1.0"?>
<opencv_storage>
<stage0>
  <maxWeakCount>28</maxWeakCount>
  <stageThreshold>-1.7502505779266357e+00</stageThreshold>
  <weakClassifiers>
    <_>
      <internalNodes>
        0 -1 60102 -1.5557879582047462e-02</internalNodes>
      <leafValues>
        5.6641745567321777e-01 -4.0657368302345276e-01</leafValues></_>
    <_>
      <internalNodes>
        0 -1 60099 1.1968581005930901e-02</internalNodes>
      <leafValues>
        -1.8517158925533295e-01 6.9209748506546021e-01</leafValues></_>
    <_>
      <internalNodes>
        0 -1 141772 -3.0652031302452087e-02</internalNodes>
      <leafValues>
        5.5499589443206787e-01 -1.2772305309772491e-01</leafValues></_>
    <_>
      <internalNodes>
        0 -1 141780 4.1364915668964386e-02</internalNodes>
      <leafValues>
        -2.1273811161518097e-01 5.9472966194152832e-01</leafValues></_>
    <_>
      <internalNodes>
        0 -1 81353 -2.7613721787929535e-02</internalNodes>
      <leafValues>
        5.4023444652557373e-01 -9.3192048370838165e-02</leafValues></_>
    <_>
      <internalNodes>
        0 -1 99118 2.3277148604393005e-02</internalNodes>
      <leafValues>
        -2.0843686163425446e-01 5.7986283302307129e-01</leafValues></_>
    <_>
      <internalNodes>
        0 -1 88752 -2.5918506085872650e-02</internalNodes>
      <leafValues>
        4.8489880561828613e-01 -1.3857118785381317e-01</leafValues></_>
    <_>
      <internalNodes>
        0 -1 79568 2.9895558953285217e-02</internalNodes>
      <leafValues>
        -1.5648671984672546e-01 5.5903857946395874e-01</leafValues></_>
    <_>
      <internalNodes>
        0 -1 4329 -5.1682122051715851e-02</internalNodes>
      <leafValues>
        5.1073402166366577e-01 -1.2597607076168060e-01</leafValues></_>
    <_>
      <internalNodes>
        0 -1 19717 2.7966022491455078e-02</internalNodes>
      <leafValues>
        -1.2761922180652618e-01 5.1091080904006958e-01</leafValues></_>
    <_>
      <internalNodes>
        0 -1 55554 3.9189755916595459e-03</internalNodes>
      <leafValues>
        -9.1984510421752930e-02 4.9975311756134033e-01</leafValues></_>
    <_>
      <internalNodes>
        0 -1 101422 5.4821342229843140e-02</internalNodes>
      <leafValues>
        -8.3434022963047028e-02 5.1297378540039063e-01</leafValues></_>
    <_>
      <internalNodes>
        0 -1 116180 1.3113874942064285e-02</internalNodes>
      <leafValues>
        -7.3166631162166595e-02 5.9599381685256958e-01</leafValues></_>
    <_>
      <internalNodes>
        0 -1 116658 -3.8637001998722553e-03</internalNodes>
      <leafValues>
        5.7155632972717285e-01 -8.1239171326160431e-02</leafValues></_>
    <_>
      <internalNodes>
        0 -1 2 4.6105057117529213e-04</internalNodes>
      <leafValues>
        1.7037926614284515e-01 -3.3436840772628784e-01</leafValues></_>
    <_>
      <internalNodes>
        0 -1 2 -3.4004013286903501e-04</internalNodes>
      <leafValues>
        -3.8859724998474121e-01 1.0085056722164154e-01</leafValues></_>
    <_>
      <internalNodes>
        0 -1 28712 1.2219136580824852e-02</internalNodes>
      <leafValues>
        -7.9769901931285858e-02 5.1034307479858398e-01</leafValues></_>
    <_>
      <internalNodes>
        0 -1 29565 -9.7310468554496765e-03</internalNodes>
      <leafValues>
        4.8986145853996277e-01 -9.2631183564662933e-02</leafValues></_>
    <_>
      <internalNodes>
        0 -1 13299 -1.1206276249140501e-03</internalNodes>
      <leafValues>
        -5.5173355340957642e-01 7.8224577009677887e-02</leafValues></_>
    <_>
      <internalNodes>
        0 -1 13299 4.0027650538831949e-04</internalNodes>
      <leafValues>
        1.1145453155040741e-01 -3.6807093024253845e-01</leafValues></_>
    <_>
      <internalNodes>
        0 -1 155845 -1.5816364437341690e-02</internalNodes>
      <leafValues>
        5.6102901697158813e-01 -6.6348984837532043e-02</leafValues></_>
    <_>
      <internalNodes>
        0 -1 112304 1.9894227385520935e-02</internalNodes>
      <leafValues>
        -8.6498789489269257e-02 4.3933227658271790e-01</leafValues></_>
    <_>
      <internalNodes>
        0 -1 110319 -3.1598675996065140e-02</internalNodes>
      <leafValues>
        3.6569437384605408e-01 -1.0151387006044388e-01</leafValues></_>
    <_>
      <internalNodes>
        0 -1 153181 -7.3475968092679977e-03</internalNodes>
      <leafValues>
        3.8225907087326050e-01 -9.4908013939857483e-02</leafValues></_>
    <_>
      <internalNodes>
        0 -1 149201 -8.1755984574556351e-03</internalNodes>
      <leafValues>
        3.9197683334350586e-01 -1.0729778558015823e-01</leafValues></_>
    <_>
      <internalNodes>
        0 -1 159720 -4.4056138722226024e-04</internalNodes>
      <leafValues>
        -3.2844814658164978e-01 1.1468619108200073e-01</leafValues></_>
    <_>
      <internalNodes>
        0 -1 3025 7.7030775137245655e-03</internalNodes>
      <leafValues>
        -1.1342454701662064e-01 2.9495897889137268e-01</leafValues></_>
    <_>
      <internalNodes>
        0 -1 62716 -6.5154070034623146e-03</internalNodes>
      <leafValues>
        3.7051871418952942e-01 -1.0481460392475128e-01</leafValues></_></weakClassifiers></stage0>
</opencv_storage>
