<?xml version="1.0"?>
<opencv_storage>
<stage5>
  <maxWeakCount>95</maxWeakCount>
  <stageThreshold>-1.6291867494583130e+00</stageThreshold>
  <weakClassifiers>
    <_>
      <internalNodes>
        0 -1 98284 4.5276153832674026e-03</internalNodes>
      <leafValues>
        -3.6732706427574158e-01 3.1116390228271484e-01</leafValues></_>
    <_>
      <internalNodes>
        0 -1 121075 5.9912186115980148e-03</internalNodes>
      <leafValues>
        -1.1708061397075653e-01 5.1557534933090210e-01</leafValues></_>
    <_>
      <internalNodes>
        0 -1 46088 -3.0459412373602390e-03</internalNodes>
      <leafValues>
        3.6144962906837463e-01 -1.0968437790870667e-01</leafValues></_>
    <_>
      <internalNodes>
        0 -1 43712 6.9439252838492393e-03</internalNodes>
      <leafValues>
        -7.8076809644699097e-02 5.3509241342544556e-01</leafValues></_>
    <_>
      <internalNodes>
        0 -1 44640 2.0308774709701538e-01</internalNodes>
      <leafValues>
        -4.5022018253803253e-02 6.8056488037109375e-01</leafValues></_>
    <_>
      <internalNodes>
        0 -1 66371 -4.9340024590492249e-02</internalNodes>
      <leafValues>
        3.2440167665481567e-01 -1.2121605873107910e-01</leafValues></_>
    <_>
      <internalNodes>
        0 -1 123454 -2.5851023383438587e-03</internalNodes>
      <leafValues>
        3.0362498760223389e-01 -9.1895870864391327e-02</leafValues></_>
    <_>
      <internalNodes>
        0 -1 116661 5.2607525140047073e-03</internalNodes>
      <leafValues>
        -8.1564381718635559e-02 4.0745186805725098e-01</leafValues></_>
    <_>
      <internalNodes>
        0 -1 151886 -9.2525780200958252e-04</internalNodes>
      <leafValues>
        -3.6108857393264771e-01 7.9374991357326508e-02</leafValues></_>
    <_>
      <internalNodes>
        0 -1 151886 2.4557276628911495e-04</internalNodes>
      <leafValues>
        1.3383902609348297e-01 -2.4893060326576233e-01</leafValues></_>
    <_>
      <internalNodes>
        0 -1 44481 -1.6167100518941879e-02</internalNodes>
      <leafValues>
        2.2210697829723358e-01 -1.1882818490266800e-01</leafValues></_>
    <_>
      <internalNodes>
        0 -1 49460 -7.3556642746552825e-04</internalNodes>
      <leafValues>
        -3.0700203776359558e-01 8.1901811063289642e-02</leafValues></_>
    <_>
      <internalNodes>
        0 -1 73207 -3.3043231815099716e-03</internalNodes>
      <leafValues>
        2.9387035965919495e-01 -8.6768783628940582e-02</leafValues></_>
    <_>
      <internalNodes>
        0 -1 49460 2.6429854915477335e-04</internalNodes>
      <leafValues>
        1.2144420295953751e-01 -2.1182772517204285e-01</leafValues></_>
    <_>
      <internalNodes>
        0 -1 98284 -1.6408703522756696e-03</internalNodes>
      <leafValues>
        2.1754224598407745e-01 -1.0613753646612167e-01</leafValues></_>
    <_>
      <internalNodes>
        0 -1 2132 1.9554193131625652e-03</internalNodes>
      <leafValues>
        4.7329004853963852e-02 -5.5485332012176514e-01</leafValues></_>
    <_>
      <internalNodes>
        0 -1 159122 7.3618264868855476e-03</internalNodes>
      <leafValues>
        -6.3887909054756165e-02 4.0135502815246582e-01</leafValues></_>
    <_>
      <internalNodes>
        0 -1 71448 3.6773353815078735e-02</internalNodes>
      <leafValues>
        -7.2193615138530731e-02 2.9211589694023132e-01</leafValues></_>
    <_>
      <internalNodes>
        0 -1 150994 -3.6709103733301163e-03</internalNodes>
      <leafValues>
        2.8056585788726807e-01 -7.1583189070224762e-02</leafValues></_>
    <_>
      <internalNodes>
        0 -1 151137 2.3577073588967323e-03</internalNodes>
      <leafValues>
        -7.7837660908699036e-02 3.0920732021331787e-01</leafValues></_>
    <_>
      <internalNodes>
        0 -1 50265 -2.4934144690632820e-02</internalNodes>
      <leafValues>
        1.9196517765522003e-01 -1.0560032725334167e-01</leafValues></_>
    <_>
      <internalNodes>
        0 -1 159734 1.8842299468815327e-03</internalNodes>
      <leafValues>
        3.8215633481740952e-02 -4.5216745138168335e-01</leafValues></_>
    <_>
      <internalNodes>
        0 -1 114495 3.3195856958627701e-03</internalNodes>
      <leafValues>
        -6.6167727112770081e-02 2.7363365888595581e-01</leafValues></_>
    <_>
      <internalNodes>
        0 -1 9691 1.0127497836947441e-02</internalNodes>
      <leafValues>
        3.8494251668453217e-02 -4.7528338432312012e-01</leafValues></_>
    <_>
      <internalNodes>
        0 -1 41520 -5.7764551602303982e-03</internalNodes>
      <leafValues>
        2.2889593243598938e-01 -7.6519772410392761e-02</leafValues></_>
    <_>
      <internalNodes>
        0 -1 13373 2.2177197970449924e-03</internalNodes>
      <leafValues>
        3.8824889808893204e-02 -4.6053284406661987e-01</leafValues></_>
    <_>
      <internalNodes>
        0 -1 156915 -2.8223930858075619e-03</internalNodes>
      <leafValues>
        2.1564953029155731e-01 -7.9632170498371124e-02</leafValues></_>
    <_>
      <internalNodes>
        0 -1 2 -3.6373012699186802e-04</internalNodes>
      <leafValues>
        -2.2494097054004669e-01 7.7523373067378998e-02</leafValues></_>
    <_>
      <internalNodes>
        0 -1 2 3.1814421527087688e-04</internalNodes>
      <leafValues>
        9.4311311841011047e-02 -2.7244216203689575e-01</leafValues></_>
    <_>
      <internalNodes>
        0 -1 127765 -1.9187587313354015e-03</internalNodes>
      <leafValues>
        2.2589050233364105e-01 -8.1753268837928772e-02</leafValues></_>
    <_>
      <internalNodes>
        0 -1 161183 -1.4961222186684608e-03</internalNodes>
      <leafValues>
        -3.8787129521369934e-01 4.5502558350563049e-02</leafValues></_>
    <_>
      <internalNodes>
        0 -1 8408 7.3704481124877930e-02</internalNodes>
      <leafValues>
        -6.0856703668832779e-02 2.7462738752365112e-01</leafValues></_>
    <_>
      <internalNodes>
        0 -1 156139 8.2659712061285973e-03</internalNodes>
      <leafValues>
        -5.0538010895252228e-02 3.3281859755516052e-01</leafValues></_>
    <_>
      <internalNodes>
        0 -1 127999 -4.8486846499145031e-03</internalNodes>
      <leafValues>
        4.3841600418090820e-01 -3.7334989756345749e-02</leafValues></_>
    <_>
      <internalNodes>
        0 -1 106116 1.2133333832025528e-02</internalNodes>
      <leafValues>
        2.7526345103979111e-02 -6.4248055219650269e-01</leafValues></_>
    <_>
      <internalNodes>
        0 -1 7642 -3.5292748361825943e-02</internalNodes>
      <leafValues>
        2.0179788768291473e-01 -8.4380105137825012e-02</leafValues></_>
    <_>
      <internalNodes>
        0 -1 15878 3.1472262926399708e-03</internalNodes>
      <leafValues>
        -8.1317216157913208e-02 1.9024968147277832e-01</leafValues></_>
    <_>
      <internalNodes>
        0 -1 25719 1.2960132444277406e-03</internalNodes>
      <leafValues>
        4.1968993842601776e-02 -3.9091685414314270e-01</leafValues></_>
    <_>
      <internalNodes>
        0 -1 3329 2.5284741073846817e-02</internalNodes>
      <leafValues>
        -7.9068556427955627e-02 1.9082960486412048e-01</leafValues></_>
    <_>
      <internalNodes>
        0 -1 3329 -2.4243704974651337e-02</internalNodes>
      <leafValues>
        1.9720400869846344e-01 -7.9272806644439697e-02</leafValues></_>
    <_>
      <internalNodes>
        0 -1 127408 -1.7784717492759228e-03</internalNodes>
      <leafValues>
        1.5676024556159973e-01 -9.1158345341682434e-02</leafValues></_>
    <_>
      <internalNodes>
        0 -1 162305 1.2367044109851122e-03</internalNodes>
      <leafValues>
        5.4674543440341949e-02 -2.7377131581306458e-01</leafValues></_>
    <_>
      <internalNodes>
        0 -1 133142 1.7119366675615311e-03</internalNodes>
      <leafValues>
        -7.7625781297683716e-02 1.9773100316524506e-01</leafValues></_>
    <_>
      <internalNodes>
        0 -1 120764 1.4305440708994865e-02</internalNodes>
      <leafValues>
        1.6818832606077194e-02 -8.2806700468063354e-01</leafValues></_>
    <_>
      <internalNodes>
        0 -1 153147 -3.0128019861876965e-03</internalNodes>
      <leafValues>
        2.1067777276039124e-01 -7.2596944868564606e-02</leafValues></_>
    <_>
      <internalNodes>
        0 -1 151886 -1.4057185035198927e-04</internalNodes>
      <leafValues>
        -1.7032168805599213e-01 9.3474537134170532e-02</leafValues></_>
    <_>
      <internalNodes>
        0 -1 149652 -2.7029481716454029e-03</internalNodes>
      <leafValues>
        2.1405896544456482e-01 -6.7603364586830139e-02</leafValues></_>
    <_>
      <internalNodes>
        0 -1 120766 -8.8025787845253944e-03</internalNodes>
      <leafValues>
        -4.8893937468528748e-01 3.2811284065246582e-02</leafValues></_>
    <_>
      <internalNodes>
        0 -1 36725 -2.9971301555633545e-02</internalNodes>
      <leafValues>
        2.8551948070526123e-01 -5.3267192095518112e-02</leafValues></_>
    <_>
      <internalNodes>
        0 -1 48961 2.3931087926030159e-02</internalNodes>
      <leafValues>
        -8.0428779125213623e-02 1.8014727532863617e-01</leafValues></_>
    <_>
      <internalNodes>
        0 -1 92846 3.5011456348001957e-03</internalNodes>
      <leafValues>
        -7.4536360800266266e-02 1.9543448090553284e-01</leafValues></_>
    <_>
      <internalNodes>
        0 -1 92781 -2.8030024841427803e-03</internalNodes>
      <leafValues>
        1.7821820080280304e-01 -8.4079049527645111e-02</leafValues></_>
    <_>
      <internalNodes>
        0 -1 143013 -1.7316404730081558e-02</internalNodes>
      <leafValues>
        -6.1567878723144531e-01 2.4420870468020439e-02</leafValues></_>
    <_>
      <internalNodes>
        0 -1 3135 -4.3685818091034889e-03</internalNodes>
      <leafValues>
        -6.7330765724182129e-01 1.8045736476778984e-02</leafValues></_>
    <_>
      <internalNodes>
        0 -1 150673 2.8487020172178745e-03</internalNodes>
      <leafValues>
        -6.8941019475460052e-02 2.1991315484046936e-01</leafValues></_>
    <_>
      <internalNodes>
        0 -1 154367 -1.1207519099116325e-02</internalNodes>
      <leafValues>
        -5.9158229827880859e-01 2.6628699153661728e-02</leafValues></_>
    <_>
      <internalNodes>
        0 -1 90582 7.4374186806380749e-03</internalNodes>
      <leafValues>
        2.4311518296599388e-02 -5.1128339767456055e-01</leafValues></_>
    <_>
      <internalNodes>
        0 -1 157101 -3.9144903421401978e-02</internalNodes>
      <leafValues>
        2.4239821732044220e-01 -5.6785106658935547e-02</leafValues></_>
    <_>
      <internalNodes>
        0 -1 109991 -4.3796468526124954e-02</internalNodes>
      <leafValues>
        2.1571701765060425e-01 -6.2725611031055450e-02</leafValues></_>
    <_>
      <internalNodes>
        0 -1 93441 -5.2864026278257370e-02</internalNodes>
      <leafValues>
        2.6929882168769836e-01 -4.9255263060331345e-02</leafValues></_>
    <_>
      <internalNodes>
        0 -1 89603 3.1609362922608852e-03</internalNodes>
      <leafValues>
        -6.6916152834892273e-02 2.0898698270320892e-01</leafValues></_>
    <_>
      <internalNodes>
        0 -1 161187 -1.8268950225319713e-04</internalNodes>
      <leafValues>
        -1.8310120701789856e-01 7.6341696083545685e-02</leafValues></_>
    <_>
      <internalNodes>
        0 -1 57675 -3.6645822692662477e-03</internalNodes>
      <leafValues>
        2.6490864157676697e-01 -5.1452975720167160e-02</leafValues></_>
    <_>
      <internalNodes>
        0 -1 155228 -4.7926371917128563e-04</internalNodes>
      <leafValues>
        -2.0478220283985138e-01 6.3837468624114990e-02</leafValues></_>
    <_>
      <internalNodes>
        0 -1 155228 2.6359007460996509e-04</internalNodes>
      <leafValues>
        9.1708526015281677e-02 -1.9857031106948853e-01</leafValues></_>
    <_>
      <internalNodes>
        0 -1 150089 1.2462483718991280e-03</internalNodes>
      <leafValues>
        -6.9580100476741791e-02 1.9640125334262848e-01</leafValues></_>
    <_>
      <internalNodes>
        0 -1 159115 8.1724468618631363e-03</internalNodes>
      <leafValues>
        -3.3409357070922852e-02 3.6992457509040833e-01</leafValues></_>
    <_>
      <internalNodes>
        0 -1 159234 6.5466185333207250e-04</internalNodes>
      <leafValues>
        -9.0150117874145508e-02 1.4225822687149048e-01</leafValues></_>
    <_>
      <internalNodes>
        0 -1 154466 9.7084548324346542e-03</internalNodes>
      <leafValues>
        2.9036842286586761e-02 -5.6075811386108398e-01</leafValues></_>
    <_>
      <internalNodes>
        0 -1 89058 5.8079655282199383e-03</internalNodes>
      <leafValues>
        3.4998312592506409e-02 -3.3521491289138794e-01</leafValues></_>
    <_>
      <internalNodes>
        0 -1 116532 8.4868641570210457e-03</internalNodes>
      <leafValues>
        1.3978779315948486e-02 -8.3582013845443726e-01</leafValues></_>
    <_>
      <internalNodes>
        0 -1 6923 -1.2850284576416016e-01</internalNodes>
      <leafValues>
        -4.4327780604362488e-01 2.3584030568599701e-02</leafValues></_>
    <_>
      <internalNodes>
        0 -1 64963 -3.3384584821760654e-03</internalNodes>
      <leafValues>
        1.5892826020717621e-01 -8.0608993768692017e-02</leafValues></_>
    <_>
      <internalNodes>
        0 -1 15369 1.8039257265627384e-03</internalNodes>
      <leafValues>
        3.0509425327181816e-02 -4.1316169500350952e-01</leafValues></_>
    <_>
      <internalNodes>
        0 -1 21581 -7.1795429103076458e-03</internalNodes>
      <leafValues>
        2.9929539561271667e-01 -4.5286942273378372e-02</leafValues></_>
    <_>
      <internalNodes>
        0 -1 154180 -1.0895768180489540e-02</internalNodes>
      <leafValues>
        -7.2831094264984131e-01 1.7580168321728706e-02</leafValues></_>
    <_>
      <internalNodes>
        0 -1 93469 -3.5791709087789059e-03</internalNodes>
      <leafValues>
        1.2748244404792786e-01 -9.6946701407432556e-02</leafValues></_>
    <_>
      <internalNodes>
        0 -1 56603 -3.3858427777886391e-03</internalNodes>
      <leafValues>
        1.5801221132278442e-01 -8.2003094255924225e-02</leafValues></_>
    <_>
      <internalNodes>
        0 -1 50689 1.2189304456114769e-02</internalNodes>
      <leafValues>
        -5.1795400679111481e-02 2.2573356330394745e-01</leafValues></_>
    <_>
      <internalNodes>
        0 -1 98976 -8.7080299854278564e-03</internalNodes>
      <leafValues>
        3.2495659589767456e-01 -3.7765789777040482e-02</leafValues></_>
    <_>
      <internalNodes>
        0 -1 11883 1.8790401518344879e-03</internalNodes>
      <leafValues>
        4.3520614504814148e-02 -3.1303095817565918e-01</leafValues></_>
    <_>
      <internalNodes>
        0 -1 89285 5.9611424803733826e-03</internalNodes>
      <leafValues>
        -3.9902612566947937e-02 3.2030415534973145e-01</leafValues></_>
    <_>
      <internalNodes>
        0 -1 13396 1.4583121519535780e-03</internalNodes>
      <leafValues>
        3.0074303969740868e-02 -4.1141492128372192e-01</leafValues></_>
    <_>
      <internalNodes>
        0 -1 89284 1.6871578991413116e-03</internalNodes>
      <leafValues>
        -7.6925598084926605e-02 1.6516584157943726e-01</leafValues></_>
    <_>
      <internalNodes>
        0 -1 93580 -1.5745857963338494e-03</internalNodes>
      <leafValues>
        1.3172353804111481e-01 -9.1187275946140289e-02</leafValues></_>
    <_>
      <internalNodes>
        0 -1 2 -1.7885728448163718e-04</internalNodes>
      <leafValues>
        -1.5550084412097931e-01 7.8018650412559509e-02</leafValues></_>
    <_>
      <internalNodes>
        0 -1 123696 -1.6561571974307299e-03</internalNodes>
      <leafValues>
        1.4323180913925171e-01 -8.3980247378349304e-02</leafValues></_>
    <_>
      <internalNodes>
        0 -1 83441 -6.7152984440326691e-02</internalNodes>
      <leafValues>
        -6.3563483953475952e-01 2.0376818254590034e-02</leafValues></_>
    <_>
      <internalNodes>
        0 -1 139202 -5.8968439698219299e-03</internalNodes>
      <leafValues>
        -5.5972325801849365e-01 1.9140906631946564e-02</leafValues></_>
    <_>
      <internalNodes>
        0 -1 162312 1.5237461775541306e-03</internalNodes>
      <leafValues>
        4.0968876332044601e-02 -2.7897793054580688e-01</leafValues></_>
    <_>
      <internalNodes>
        0 -1 127891 4.7236932441592216e-03</internalNodes>
      <leafValues>
        -7.2228252887725830e-02 1.7530308663845062e-01</leafValues></_>
    <_>
      <internalNodes>
        0 -1 162289 -4.5323334634304047e-03</internalNodes>
      <leafValues>
        -6.2998259067535400e-01 1.9611453637480736e-02</leafValues></_>
    <_>
      <internalNodes>
        0 -1 4158 3.4603555686771870e-03</internalNodes>
      <leafValues>
        -7.5605191290378571e-02 1.6369748115539551e-01</leafValues></_>
    <_>
      <internalNodes>
        0 -1 114524 -3.0017565935850143e-02</internalNodes>
      <leafValues>
        -6.2434297800064087e-01 1.8742537125945091e-02</leafValues></_>
    <_>
      <internalNodes>
        0 -1 89399 -4.0213568136096001e-03</internalNodes>
      <leafValues>
        1.5225461125373840e-01 -7.6287589967250824e-02</leafValues></_></weakClassifiers></stage5>
</opencv_storage>
