<?xml version="1.0"?>
<opencv_storage>
<stage6>
  <maxWeakCount>100</maxWeakCount>
  <stageThreshold>-1.6371066570281982e+00</stageThreshold>
  <weakClassifiers>
    <_>
      <internalNodes>
        0 -1 154250 -7.9178418964147568e-03</internalNodes>
      <leafValues>
        4.2388758063316345e-01 -3.5718217492103577e-01</leafValues></_>
    <_>
      <internalNodes>
        0 -1 154250 4.2494274675846100e-03</internalNodes>
      <leafValues>
        -1.9706112146377563e-01 4.4667363166809082e-01</leafValues></_>
    <_>
      <internalNodes>
        0 -1 116106 -4.5115877874195576e-03</internalNodes>
      <leafValues>
        4.6610081195831299e-01 -3.7381384521722794e-02</leafValues></_>
    <_>
      <internalNodes>
        0 -1 122913 3.2329251989722252e-03</internalNodes>
      <leafValues>
        -1.0577744990587234e-01 4.6776920557022095e-01</leafValues></_>
    <_>
      <internalNodes>
        0 -1 89285 -7.1881064213812351e-03</internalNodes>
      <leafValues>
        5.2182340621948242e-01 -3.8407459855079651e-02</leafValues></_>
    <_>
      <internalNodes>
        0 -1 121255 -7.4905222281813622e-03</internalNodes>
      <leafValues>
        5.5349385738372803e-01 -6.9419659674167633e-02</leafValues></_>
    <_>
      <internalNodes>
        0 -1 157602 7.7356962719932199e-04</internalNodes>
      <leafValues>
        6.5908841788768768e-02 -3.5495236515998840e-01</leafValues></_>
    <_>
      <internalNodes>
        0 -1 157602 -2.4136767024174333e-04</internalNodes>
      <leafValues>
        -2.6271718740463257e-01 1.5786758065223694e-01</leafValues></_>
    <_>
      <internalNodes>
        0 -1 68134 -4.1678017005324364e-03</internalNodes>
      <leafValues>
        3.3142462372779846e-01 -7.4710756540298462e-02</leafValues></_>
    <_>
      <internalNodes>
        0 -1 68558 5.0504179671406746e-03</internalNodes>
      <leafValues>
        -7.0216715335845947e-02 3.8865986466407776e-01</leafValues></_>
    <_>
      <internalNodes>
        0 -1 120479 -1.5535618178546429e-02</internalNodes>
      <leafValues>
        3.8216838240623474e-01 -5.7412177324295044e-02</leafValues></_>
    <_>
      <internalNodes>
        0 -1 162096 -1.1579387355595827e-03</internalNodes>
      <leafValues>
        -4.4204187393188477e-01 4.9297261983156204e-02</leafValues></_>
    <_>
      <internalNodes>
        0 -1 89701 -6.7678904160857201e-03</internalNodes>
      <leafValues>
        4.5833903551101685e-01 -4.2463444173336029e-02</leafValues></_>
    <_>
      <internalNodes>
        0 -1 161176 2.6205764152109623e-04</internalNodes>
      <leafValues>
        9.5971293747425079e-02 -2.2271135449409485e-01</leafValues></_>
    <_>
      <internalNodes>
        0 -1 157842 -1.2324280105531216e-02</internalNodes>
      <leafValues>
        3.1964847445487976e-01 -7.0562496781349182e-02</leafValues></_>
    <_>
      <internalNodes>
        0 -1 158445 8.0436598509550095e-03</internalNodes>
      <leafValues>
        -7.9705357551574707e-02 2.4851702153682709e-01</leafValues></_>
    <_>
      <internalNodes>
        0 -1 13394 9.4418640946969390e-04</internalNodes>
      <leafValues>
        6.4004957675933838e-02 -3.2006487250328064e-01</leafValues></_>
    <_>
      <internalNodes>
        0 -1 13394 -1.4882987306918949e-04</internalNodes>
      <leafValues>
        -2.1644400060176849e-01 1.0092815011739731e-01</leafValues></_>
    <_>
      <internalNodes>
        0 -1 33820 -2.9503828845918179e-03</internalNodes>
      <leafValues>
        2.7404475212097168e-01 -6.5407656133174896e-02</leafValues></_>
    <_>
      <internalNodes>
        0 -1 33825 4.2892191559076309e-03</internalNodes>
      <leafValues>
        -6.8739190697669983e-02 2.9057481884956360e-01</leafValues></_>
    <_>
      <internalNodes>
        0 -1 161176 -2.9504776466637850e-04</internalNodes>
      <leafValues>
        -2.2477182745933533e-01 8.2622364163398743e-02</leafValues></_>
    <_>
      <internalNodes>
        0 -1 100700 -4.8129218630492687e-03</internalNodes>
      <leafValues>
        3.0331519246101379e-01 -5.3465098142623901e-02</leafValues></_>
    <_>
      <internalNodes>
        0 -1 33371 -3.0392620712518692e-02</internalNodes>
      <leafValues>
        2.1289955079555511e-01 -7.6814897358417511e-02</leafValues></_>
    <_>
      <internalNodes>
        0 -1 76471 -2.8772950172424316e-02</internalNodes>
      <leafValues>
        1.8356102705001831e-01 -9.1787301003932953e-02</leafValues></_>
    <_>
      <internalNodes>
        0 -1 123641 -6.2806241214275360e-02</internalNodes>
      <leafValues>
        2.2883169353008270e-01 -7.8725419938564301e-02</leafValues></_>
    <_>
      <internalNodes>
        0 -1 49130 -3.1111789867281914e-02</internalNodes>
      <leafValues>
        2.9873743653297424e-01 -5.4823204874992371e-02</leafValues></_>
    <_>
      <internalNodes>
        0 -1 13299 -9.0176530648022890e-04</internalNodes>
      <leafValues>
        -3.3503502607345581e-01 4.2026642709970474e-02</leafValues></_>
    <_>
      <internalNodes>
        0 -1 13299 1.4188839122653008e-03</internalNodes>
      <leafValues>
        3.6295298486948013e-02 -4.0974286198616028e-01</leafValues></_>
    <_>
      <internalNodes>
        0 -1 120922 -3.0932924710214138e-03</internalNodes>
      <leafValues>
        2.7623301744461060e-01 -6.0929019004106522e-02</leafValues></_>
    <_>
      <internalNodes>
        0 -1 150291 3.2964749261736870e-03</internalNodes>
      <leafValues>
        -5.7623580098152161e-02 2.4491783976554871e-01</leafValues></_>
    <_>
      <internalNodes>
        0 -1 153927 -1.6641889233142138e-03</internalNodes>
      <leafValues>
        2.0368345081806183e-01 -8.1620402634143829e-02</leafValues></_>
    <_>
      <internalNodes>
        0 -1 155234 -2.4448460899293423e-03</internalNodes>
      <leafValues>
        -4.2942982912063599e-01 3.4453980624675751e-02</leafValues></_>
    <_>
      <internalNodes>
        0 -1 1508 3.6709390580654144e-02</internalNodes>
      <leafValues>
        -7.4807204306125641e-02 1.8822361528873444e-01</leafValues></_>
    <_>
      <internalNodes>
        0 -1 121974 3.7066845688968897e-03</internalNodes>
      <leafValues>
        -5.2020739763975143e-02 2.5819396972656250e-01</leafValues></_>
    <_>
      <internalNodes>
        0 -1 115137 -2.5441274046897888e-03</internalNodes>
      <leafValues>
        1.9252197444438934e-01 -6.9965504109859467e-02</leafValues></_>
    <_>
      <internalNodes>
        0 -1 9439 -3.8691484369337559e-03</internalNodes>
      <leafValues>
        -5.6611955165863037e-01 2.4777663871645927e-02</leafValues></_>
    <_>
      <internalNodes>
        0 -1 108218 -3.0310116708278656e-02</internalNodes>
      <leafValues>
        1.8845228850841522e-01 -7.2629936039447784e-02</leafValues></_>
    <_>
      <internalNodes>
        0 -1 13394 1.9600149244070053e-04</internalNodes>
      <leafValues>
        8.6341589689254761e-02 -1.5755480527877808e-01</leafValues></_>
    <_>
      <internalNodes>
        0 -1 101380 5.6111887097358704e-02</internalNodes>
      <leafValues>
        -6.1329133808612823e-02 2.1197453141212463e-01</leafValues></_>
    <_>
      <internalNodes>
        0 -1 110179 -2.6298158336430788e-03</internalNodes>
      <leafValues>
        2.0758530497550964e-01 -6.1423063278198242e-02</leafValues></_>
    <_>
      <internalNodes>
        0 -1 60524 7.4486583471298218e-03</internalNodes>
      <leafValues>
        -5.1997441798448563e-02 2.5011497735977173e-01</leafValues></_>
    <_>
      <internalNodes>
        0 -1 89492 -4.3634911999106407e-03</internalNodes>
      <leafValues>
        2.0711328089237213e-01 -6.0663413256406784e-02</leafValues></_>
    <_>
      <internalNodes>
        0 -1 162139 -3.3295678440481424e-03</internalNodes>
      <leafValues>
        -4.8470175266265869e-01 2.6798537001013756e-02</leafValues></_>
    <_>
      <internalNodes>
        0 -1 161333 1.3963546371087432e-04</internalNodes>
      <leafValues>
        7.8493274748325348e-02 -1.5474742650985718e-01</leafValues></_>
    <_>
      <internalNodes>
        0 -1 161333 -1.8770302995108068e-04</internalNodes>
      <leafValues>
        -1.8173018097877502e-01 8.6149387061595917e-02</leafValues></_>
    <_>
      <internalNodes>
        0 -1 149215 -2.1298136562108994e-03</internalNodes>
      <leafValues>
        1.6754908859729767e-01 -8.3346813917160034e-02</leafValues></_>
    <_>
      <internalNodes>
        0 -1 150368 -4.5896254479885101e-02</internalNodes>
      <leafValues>
        -5.8529627323150635e-01 2.1092381328344345e-02</leafValues></_>
    <_>
      <internalNodes>
        0 -1 80762 -2.7401761617511511e-03</internalNodes>
      <leafValues>
        -4.5316359400749207e-01 2.3932987824082375e-02</leafValues></_>
    <_>
      <internalNodes>
        0 -1 18053 8.6710778996348381e-03</internalNodes>
      <leafValues>
        -5.1661197096109390e-02 2.4421797692775726e-01</leafValues></_>
    <_>
      <internalNodes>
        0 -1 18848 -6.1057759448885918e-03</internalNodes>
      <leafValues>
        2.1168169379234314e-01 -7.1430817246437073e-02</leafValues></_>
    <_>
      <internalNodes>
        0 -1 4 1.2334187049418688e-03</internalNodes>
      <leafValues>
        3.4774366766214371e-02 -3.8699042797088623e-01</leafValues></_>
    <_>
      <internalNodes>
        0 -1 160714 3.6993450485169888e-03</internalNodes>
      <leafValues>
        -6.4451269805431366e-02 1.8631960451602936e-01</leafValues></_>
    <_>
      <internalNodes>
        0 -1 80746 6.7872554063796997e-04</internalNodes>
      <leafValues>
        5.6730490177869797e-02 -2.2929160296916962e-01</leafValues></_>
    <_>
      <internalNodes>
        0 -1 107579 1.1513533536344767e-03</internalNodes>
      <leafValues>
        -7.6024569571018219e-02 1.6035200655460358e-01</leafValues></_>
    <_>
      <internalNodes>
        0 -1 72294 -6.3216071575880051e-03</internalNodes>
      <leafValues>
        2.0235460996627808e-01 -6.8529739975929260e-02</leafValues></_>
    <_>
      <internalNodes>
        0 -1 154075 -8.1813968718051910e-03</internalNodes>
      <leafValues>
        -3.6664777994155884e-01 3.2970115542411804e-02</leafValues></_>
    <_>
      <internalNodes>
        0 -1 60419 -2.6475870981812477e-03</internalNodes>
      <leafValues>
        1.3139005005359650e-01 -9.4245336949825287e-02</leafValues></_>
    <_>
      <internalNodes>
        0 -1 140678 -4.5638069510459900e-02</internalNodes>
      <leafValues>
        1.6033788025379181e-01 -7.4151463806629181e-02</leafValues></_>
    <_>
      <internalNodes>
        0 -1 158211 -2.0343089476227760e-02</internalNodes>
      <leafValues>
        2.3237280547618866e-01 -5.6244049221277237e-02</leafValues></_>
    <_>
      <internalNodes>
        0 -1 153829 5.8026850223541260e-02</internalNodes>
      <leafValues>
        1.8667060881853104e-02 -6.8895447254180908e-01</leafValues></_>
    <_>
      <internalNodes>
        0 -1 147969 -2.9992121271789074e-03</internalNodes>
      <leafValues>
        1.4216940104961395e-01 -8.7537191808223724e-02</leafValues></_>
    <_>
      <internalNodes>
        0 -1 162077 -4.2047441820614040e-04</internalNodes>
      <leafValues>
        -2.1076317131519318e-01 6.1483696103096008e-02</leafValues></_>
    <_>
      <internalNodes>
        0 -1 49135 -1.1488702148199081e-02</internalNodes>
      <leafValues>
        2.0316405594348907e-01 -5.8556508272886276e-02</leafValues></_>
    <_>
      <internalNodes>
        0 -1 60421 1.2156392913311720e-03</internalNodes>
      <leafValues>
        4.3833043426275253e-02 -2.9380503296852112e-01</leafValues></_>
    <_>
      <internalNodes>
        0 -1 4 -1.6705124289728701e-04</internalNodes>
      <leafValues>
        -1.6391462087631226e-01 7.0488639175891876e-02</leafValues></_>
    <_>
      <internalNodes>
        0 -1 108637 -2.9796671122312546e-02</internalNodes>
      <leafValues>
        -8.9021450281143188e-01 1.2951639480888844e-02</leafValues></_>
    <_>
      <internalNodes>
        0 -1 54312 -2.1469015628099442e-03</internalNodes>
      <leafValues>
        1.6158442199230194e-01 -7.6108939945697784e-02</leafValues></_>
    <_>
      <internalNodes>
        0 -1 93132 -1.8701474182307720e-03</internalNodes>
      <leafValues>
        1.5004074573516846e-01 -7.7423296868801117e-02</leafValues></_>
    <_>
      <internalNodes>
        0 -1 162139 2.0328876562416553e-03</internalNodes>
      <leafValues>
        3.7124540656805038e-02 -3.1997403502464294e-01</leafValues></_>
    <_>
      <internalNodes>
        0 -1 110299 3.3271394204348326e-03</internalNodes>
      <leafValues>
        -6.3281476497650146e-02 1.9215977191925049e-01</leafValues></_>
    <_>
      <internalNodes>
        0 -1 128077 -1.8538635224103928e-02</internalNodes>
      <leafValues>
        -8.5435444116592407e-01 1.5356590040028095e-02</leafValues></_>
    <_>
      <internalNodes>
        0 -1 144038 3.7307315506041050e-03</internalNodes>
      <leafValues>
        1.5125227160751820e-02 -5.6840288639068604e-01</leafValues></_>
    <_>
      <internalNodes>
        0 -1 72225 -9.7468972206115723e-02</internalNodes>
      <leafValues>
        -8.5471689701080322e-01 1.0949923656880856e-02</leafValues></_>
    <_>
      <internalNodes>
        0 -1 98135 2.8347525745630264e-02</internalNodes>
      <leafValues>
        1.9933691248297691e-02 -4.6085929870605469e-01</leafValues></_>
    <_>
      <internalNodes>
        0 -1 147555 3.0137780122458935e-03</internalNodes>
      <leafValues>
        -3.9436079561710358e-02 2.7602332830429077e-01</leafValues></_>
    <_>
      <internalNodes>
        0 -1 37963 2.2035738220438361e-04</internalNodes>
      <leafValues>
        7.4224680662155151e-02 -1.4405368268489838e-01</leafValues></_>
    <_>
      <internalNodes>
        0 -1 157589 5.2588060498237610e-03</internalNodes>
      <leafValues>
        1.9455557689070702e-02 -4.9354594945907593e-01</leafValues></_>
    <_>
      <internalNodes>
        0 -1 156917 -1.8788552843034267e-03</internalNodes>
      <leafValues>
        1.6012020409107208e-01 -6.7461207509040833e-02</leafValues></_>
    <_>
      <internalNodes>
        0 -1 130357 7.0187635719776154e-03</internalNodes>
      <leafValues>
        -3.9059091359376907e-02 2.6616096496582031e-01</leafValues></_>
    <_>
      <internalNodes>
        0 -1 124216 -4.4135623611509800e-03</internalNodes>
      <leafValues>
        1.7327924072742462e-01 -6.6284582018852234e-02</leafValues></_>
    <_>
      <internalNodes>
        0 -1 135184 -2.7047742158174515e-02</internalNodes>
      <leafValues>
        -6.9882589578628540e-01 1.7832083627581596e-02</leafValues></_>
    <_>
      <internalNodes>
        0 -1 11035 -2.8265519067645073e-03</internalNodes>
      <leafValues>
        -4.1644865274429321e-01 2.4974033236503601e-02</leafValues></_>
    <_>
      <internalNodes>
        0 -1 14505 8.2217780873179436e-03</internalNodes>
      <leafValues>
        -4.4291198253631592e-02 2.6161992549896240e-01</leafValues></_>
    <_>
      <internalNodes>
        0 -1 1106 1.7984572332352400e-04</internalNodes>
      <leafValues>
        8.3462655544281006e-02 -1.5006244182586670e-01</leafValues></_>
    <_>
      <internalNodes>
        0 -1 13396 1.1524235742399469e-04</internalNodes>
      <leafValues>
        7.5377851724624634e-02 -1.5356837213039398e-01</leafValues></_>
    <_>
      <internalNodes>
        0 -1 115050 -2.7250118553638458e-02</internalNodes>
      <leafValues>
        -6.6543358564376831e-01 1.7254943028092384e-02</leafValues></_>
    <_>
      <internalNodes>
        0 -1 138788 2.9455146286636591e-03</internalNodes>
      <leafValues>
        -5.0228357315063477e-02 2.3545372486114502e-01</leafValues></_>
    <_>
      <internalNodes>
        0 -1 8178 5.5124433711171150e-03</internalNodes>
      <leafValues>
        -5.7867240160703659e-02 1.8896843492984772e-01</leafValues></_>
    <_>
      <internalNodes>
        0 -1 9448 -5.6934985332190990e-03</internalNodes>
      <leafValues>
        2.7691876888275146e-01 -4.0817648172378540e-02</leafValues></_>
    <_>
      <internalNodes>
        0 -1 118975 3.0880921985954046e-04</internalNodes>
      <leafValues>
        7.6892569661140442e-02 -1.5277476608753204e-01</leafValues></_>
    <_>
      <internalNodes>
        0 -1 11068 6.9063915871083736e-03</internalNodes>
      <leafValues>
        2.1002024412155151e-02 -5.3148084878921509e-01</leafValues></_>
    <_>
      <internalNodes>
        0 -1 29154 5.0328202545642853e-02</internalNodes>
      <leafValues>
        -5.4839167743921280e-02 2.0753158628940582e-01</leafValues></_>
    <_>
      <internalNodes>
        0 -1 76808 -9.8041128367185593e-03</internalNodes>
      <leafValues>
        1.3903729617595673e-01 -7.9217009246349335e-02</leafValues></_>
    <_>
      <internalNodes>
        0 -1 46977 -1.2759399833157659e-03</internalNodes>
      <leafValues>
        1.2058926373720169e-01 -8.9844793081283569e-02</leafValues></_>
    <_>
      <internalNodes>
        0 -1 143727 -9.2681817477568984e-04</internalNodes>
      <leafValues>
        2.0405502617359161e-01 -5.4905284196138382e-02</leafValues></_>
    <_>
      <internalNodes>
        0 -1 91515 -3.3430822193622589e-02</internalNodes>
      <leafValues>
        1.6591157019138336e-01 -6.6226907074451447e-02</leafValues></_>
    <_>
      <internalNodes>
        0 -1 112494 1.6273988876491785e-04</internalNodes>
      <leafValues>
        7.8148774802684784e-02 -1.3423980772495270e-01</leafValues></_>
    <_>
      <internalNodes>
        0 -1 105532 -6.4442623406648636e-03</internalNodes>
      <leafValues>
        2.2627714276313782e-01 -4.8236045986413956e-02</leafValues></_>
    <_>
      <internalNodes>
        0 -1 90227 -3.7166420370340347e-03</internalNodes>
      <leafValues>
        1.7859488725662231e-01 -6.1453245580196381e-02</leafValues></_>
    <_>
      <internalNodes>
        0 -1 70718 -1.2582006165757775e-03</internalNodes>
      <leafValues>
        -2.6924386620521545e-01 4.2904652655124664e-02</leafValues></_></weakClassifiers></stage6>
</opencv_storage>
